{"in": [0, 0, 0, 0, 0, 0, 0, 0, 0, 0, 0, 0, 0, 0, 0, 0, 0, 0, 0, 0, 0, 0, 0, 0, 0, 0, 0, 0, 0, 0, 0, 0, 0, 0, 0, 0, 0, 0, 0, 0, 0, 0, 0, 0, 0, 0, 0, 0, 0, 0, 0, 0, 0, 0, 0, 0, 0, 0, 0, 0, 0, 0, 0, 0, 0, 0, 0, 0, 0, 0, 0, 0, 0, 0, 0, 0, 0, 0, 0, 0, 0, 0, 0, 0, 0, 0, 0, 0, 0, 0, 0, 0, 0, 0, 0, 0, 0, 0, 0, 0, 0, 0, 0, 0, 0, 0, 0, 0, 0, 0, 0, 0, 0, 0, 0, 0, 0, 0, 0, 0, 0, 0, 0, 0, 0, 0, 0, 0, 0, 0, 0, 0, 0, 0, 0, 0, 0, 0, 0, 0, 0, 0, 0, 0, 0, 0, 0, 0, 0, 0, 0, 0, 0, 0, 0, 0, 0, 0, 0, 0, 0, 0, 0, 0, 0, 0, 0, 0, 0, 0, 0, 0, 0, 0, 0, 0, 0, 0, 0, 0, 0, 0, 0, 0, 0, 0, 0, 0, 0, 0, 0, 0, 0, 0, 0, 0, 0, 0, 0, 0, 0, 0, 169, 371, 319, 303, 120, 72, 0, 0, 0, 0, 0, 0, 0, 0, 0, 0, 0, 0, 0, 0, 0, 0, 0, 0, 0, 0, 0, 0, 446, 510, 510, 510, 510, 484, 398, 398, 398, 398, 398, 398, 398, 398, 341, 104, 0, 0, 0, 0, 0, 0, 0, 0, 0, 0, 0, 0, 135, 229, 145, 229, 327, 456, 510, 452, 510, 510, 510, 502, 460, 510, 510, 281, 0, 0, 0, 0, 0, 0, 0, 0, 0, 0, 0, 0, 0, 0, 0, 0, 0, 34, 133, 28, 135, 135, 135, 118, 42, 474, 510, 213, 0, 0, 0, 0, 0, 0, 0, 0, 0, 0, 0, 0, 0, 0, 0, 0, 0, 0, 0, 0, 0, 0, 0, 0, 167, 508, 420, 36, 0, 0, 0, 0, 0, 0, 0, 0, 0, 0, 0, 0, 0, 0, 0, 0, 0, 0, 0, 0, 0, 0, 0, 44, 468, 512, 167, 0, 0, 0, 0, 0, 0, 0, 0, 0, 0, 0, 0, 0, 0, 0, 0, 0, 0, 0, 0, 0, 0, 0, 0, 259, 510, 478, 88, 0, 0, 0, 0, 0, 0, 0, 0, 0, 0, 0, 0, 0, 0, 0, 0, 0, 0, 0, 0, 0, 0, 0, 118, 500, 510, 124, 0, 0, 0, 0, 0, 0, 0, 0, 0, 0, 0, 0, 0, 0, 0, 0, 0, 0, 0, 0, 0, 0, 0, 0, 267, 510, 375, 10, 0, 0, 0, 0, 0, 0, 0, 0, 0, 0, 0, 0, 0, 0, 0, 0, 0, 0, 0, 0, 0, 0, 0, 18, 412, 498, 116, 0, 0, 0, 0, 0, 0, 0, 0, 0, 0, 0, 0, 0, 0, 0, 0, 0, 0, 0, 0, 0, 0, 0, 0, 253, 510, 365, 0, 0, 0, 0, 0, 0, 0, 0, 0, 0, 0, 0, 0, 0, 0, 0, 0, 0, 0, 0, 0, 0, 0, 0, 151, 504, 482, 114, 0, 0, 0, 0, 0, 0, 0, 0, 0, 0, 0, 0, 0, 0, 0, 0, 0, 0, 0, 0, 0, 0, 0, 38, 444, 510, 333, 0, 0, 0, 0, 0, 0, 0, 0, 0, 0, 0, 0, 0, 0, 0, 0, 0, 0, 0, 0, 0, 0, 0, 6, 408, 510, 440, 70, 0, 0, 0, 0, 0, 0, 0, 0, 0, 0, 0, 0, 0, 0, 0, 0, 0, 0, 0, 0, 0, 0, 0, 76, 510, 510, 155, 0, 0, 0, 0, 0, 0, 0, 0, 0, 0, 0, 0, 0, 0, 0, 0, 0, 0, 0, 0, 0, 0, 0, 62, 450, 510, 231, 2, 0, 0, 0, 0, 0, 0, 0, 0, 0, 0, 0, 0, 0, 0, 0, 0, 0, 0, 0, 0, 0, 0, 0, 267, 510, 510, 104, 0, 0, 0, 0, 0, 0, 0, 0, 0, 0, 0, 0, 0, 0, 0, 0, 0, 0, 0, 0, 0, 0, 0, 122, 486, 510, 510, 104, 0, 0, 0, 0, 0, 0, 0, 0, 0, 0, 0, 0, 0, 0, 0, 0, 0, 0, 0, 0, 0, 0, 0, 243, 510, 510, 440, 80, 0, 0, 0, 0, 0, 0, 0, 0, 0, 0, 0, 0, 0, 0, 0, 0, 0, 0, 0, 0, 0, 0, 0, 243, 510, 416, 36, 0, 0, 0, 0, 0, 0, 0, 0, 0, 0, 0, 0, 0, 0, 0, 0, 0, 0, 0, 0, 0, 0, 0, 0, 0, 0, 0, 0, 0, 0, 0, 0, 0, 0, 0, 0, 0, 0, 0, 0, 0, 0], "conv2d_1_weights": [[[[23, 28, 70, 46, -84, -134, -131, -161]], [[-17, -88, -176, 127, 68, -194, -7, 84]], [[-46, -265, -127, 119, 45, 36, -27, 149]]], [[[-8, -25, 129, -259, 48, 56, -145, 59]], [[235, 59, 42, -274, 118, -126, 157, 0]], [[65, 54, -103, -188, -91, -524, 120, 207]]], [[[-258, 25, 86, 111, 35, 175, -20, 31]], [[40, 9, 72, 135, 82, -10, 83, -70]], [[-54, 197, 11, -45, -236, -159, 163, -193]]]], "conv2d_1_bias": [-6123, -7131, -19725, 16043, -10192, -3148, -18179, 7575], "bn_1_a": [9268, 6649, 5463, 9870, 6850, 13735, 2828, 3938], "bn_1_b": [-186264736, -67100256, -58223984, -607280640, -149547968, -8344816, -130832576, -249991040], "conv2d_2_weights": [[[[86, 141, 108, 83, 44, 0, 26, -158, -87, -112, 101, -31, 64, -10, 35, -143], [40, -66, 52, -45, -97, -46, 98, 132, -10, -39, -53, 61, 142, -260, -120, 60], [-56, -40, -126, -86, 122, 82, 107, 8, -256, -166, 78, 45, 165, 131, -21, 16], [110, 133, 20, 63, -122, -112, 110, 95, -237, 139, 17, -99, -155, -47, 94, -202], [-43, -54, 12, -225, 208, 41, -160, -8, 143, -121, 63, 82, 133, 50, -138, 39], [-283, 26, -3, 2, 17, -19, 148, -71, -188, -303, -70, -201, -25, 106, 10, 29], [-115, 55, -15, -51, 6, 72, -110, 54, 69, -63, 12, 41, -26, -97, 145, 25], [-13, 15, -10, -54, 10, -75, -158, -29, 49, 68, 77, 227, 121, -189, -45, -64]], [[52, -72, 73, 123, 82, -205, 48, 17, 65, 15, 2, 138, -36, -11, 68, -92], [142, -116, -277, -20, 51, -33, -114, 25, -147, -87, -164, -32, 149, -74, -27, -233], [-27, -18, 74, -110, -66, 9, 99, 3, -156, 115, 107, 3, 142, 53, 1, 62], [185, 75, -73, 62, -25, 15, -89, 213, -178, 29, 54, 144, 39, -210, -94, -40], [-242, -186, 139, -39, -41, 42, 122, 34, 61, 20, 16, -75, -124, -146, -47, 1], [-148, -73, -63, 27, 23, -105, -54, -3, -27, -134, -42, -30, -66, 98, 59, 46], [10, -104, -41, 55, 37, 79, 43, -70, -60, 123, -114, 31, -41, 46, 154, -89], [-55, -28, 97, 83, -17, -1, 85, -90, -14, -15, 107, 89, -86, -172, -2, -129]], [[111, -1, -174, -7, 95, -171, 155, -90, 106, -153, -121, 8, 52, 13, -36, -22], [-63, -238, 36, -234, -12, 94, 153, -154, 8, -109, -33, 15, -150, -36, 118, -323], [16, 69, -47, -155, -31, -49, 106, 33, 52, 137, -110, 24, -83, -142, 109, -65], [-3, -95, -114, 92, 57, 48, -101, 35, -16, -215, -63, 90, -115, -174, -29, 33], [19, -49, -85, 91, 65, 28, 13, -111, 55, 139, -73, 87, -238, 43, -31, -43], [-13, -117, -116, -26, -51, -202, -185, 122, 82, 133, -264, -65, -55, -37, -151, -98], [-9, 173, -231, -141, 41, 25, -111, -49, -49, -65, -136, 30, 107, -24, 54, -122], [80, 45, -333, 43, 161, 16, -118, -212, -81, 15, -31, 139, 118, -125, -11, -63]]], [[[-68, -52, -60, -197, -34, 1, 147, 9, 84, -58, 77, 98, 125, -96, -14, 132], [194, 19, -103, 8, 35, -67, -27, 73, -211, -41, -146, -31, -33, -182, -79, -66], [-99, 72, -90, -35, 123, 50, 93, 141, 65, -212, -19, 99, 137, 29, -42, 73], [55, 121, -38, -74, 34, -186, 170, 6, -190, 54, 42, -14, -6, -107, 67, -112], [25, -166, -58, -8, -63, 16, 11, -67, 24, 34, 100, 110, 115, 118, -146, 10], [-268, 96, -118, 60, -98, 14, 54, -32, -122, -175, 28, -153, -110, 11, 162, 66], [-64, -117, 145, -60, 46, 34, -100, -93, 101, 119, -201, -97, -69, -55, 15, 71], [112, -117, 81, -20, -42, 109, -19, 38, -99, 11, -86, 18, -70, 16, -58, 110]], [[10, -187, -257, -200, 42, 54, 128, 33, 57, -9, -52, 150, 44, -53, -6, -91], [31, -28, -42, 162, 47, 140, -29, -2, 5, -70, 38, -5, -45, 32, -65, -188], [-113, -1, -77, -63, -8, 35, 73, 29, 141, 1, -285, 47, 4, 11, 18, 75], [81, 33, 4, 173, 100, 29, -92, 22, -81, -54, -91, 118, 28, -168, -113, -29], [-38, -27, -32, -49, 94, 47, -127, -204, -91, 189, 142, -55, -59, -110, 122, 14], [-222, 14, -6, -82, -66, -22, -105, 192, 136, 0, 39, 109, -10, -66, 43, 100], [114, -4, -67, -46, 30, 105, -47, -143, -99, 77, 13, 56, -198, -45, 151, -111], [33, -9, -90, -71, 6, 61, -6, -182, -90, 148, -186, 20, -119, -19, 64, -111]], [[2, 35, 70, -72, 5, 81, 9, -42, 159, -273, 63, 71, 26, 29, 7, 27], [11, -234, 60, 81, 89, 210, 89, -114, 102, -55, 198, -88, -177, -118, -3, -60], [43, -160, 55, -119, -46, -42, -12, -89, 28, -6, -61, 84, -52, 23, -27, 56], [-172, 75, 54, 42, 286, -10, -31, -78, -77, -30, -12, -14, 48, -163, -157, -32], [84, -84, -63, -61, 68, 17, -11, 1, 11, 107, 88, 67, -75, 120, -47, -194], [46, -61, 95, 10, 20, -117, -128, 51, 148, -139, -64, 67, 88, -5, -123, 14], [114, 30, -34, 2, -135, 15, -37, 7, 26, -144, 165, -48, -20, 99, 42, -78], [59, 170, 73, -133, -72, -37, 85, -61, 30, 15, 107, -88, 123, -100, -53, -44]]], [[[33, 4, -107, -47, 25, 238, 134, -30, 126, -40, -129, -22, -20, -92, 15, 113], [75, 77, 51, -8, 257, -16, 40, -117, -72, -124, -40, -27, -51, -6, -172, -59], [-170, 101, 53, -105, 186, -12, -137, -90, 97, -27, -155, 78, 49, -27, -58, 15], [-104, -79, 62, -123, -74, 11, 27, 88, -63, -40, 39, 64, -45, -89, 149, -176], [123, -102, 2, 41, 68, -178, -47, 34, -119, 107, 80, -130, -9, 39, -356, 79], [-216, 228, 74, -76, 101, -59, -69, 31, 144, -200, 121, 101, 12, -68, -27, -90], [-47, -67, 19, 48, 168, -91, -11, -226, -54, 11, -49, -214, -198, -144, 91, 161], [-43, -74, 77, 9, 88, -29, -12, -99, 95, 177, -199, -222, -94, -23, -82, 43]], [[-39, -158, 8, 55, -45, 235, 166, 71, 119, -20, 133, -55, -56, 59, -16, -292], [69, 2, 213, -124, -22, 9, -106, 42, -16, -62, -71, -79, 103, 62, -203, -173], [-149, 103, 16, 67, -24, -2, -136, -150, 129, -37, -68, -89, -50, -91, 61, -87], [30, -45, 11, 3, -91, 136, -64, 85, -33, 112, -127, -29, -59, 43, -200, -154], [-70, -11, -36, -91, 126, -186, 128, -208, 31, -11, 87, -21, -112, -77, 4, 49], [-211, 79, 119, 204, 45, 152, -248, 46, 41, 55, 58, 131, 65, -145, 21, 52], [96, 80, -15, 151, 43, 30, -38, 52, -18, -58, 11, -6, 165, 89, 190, -106], [14, -10, 36, -2, 74, 88, 159, -29, -44, -29, -35, 83, -168, -7, 123, 38]], [[61, -18, 145, 92, 15, 154, 65, 45, 30, -29, 106, 163, -8, -65, 132, -31], [-19, -145, 105, 76, -30, 85, -21, 64, 56, 31, -72, -251, 13, -36, -129, -105], [28, 65, -37, 214, 163, 57, -26, 45, 12, -37, 156, 49, -85, -23, 118, -16], [-160, 118, 44, 77, 9, 193, -8, -181, -14, 88, -3, -46, 83, -107, -31, 73], [92, -40, 149, -66, 104, -87, 71, 103, -40, 47, -29, 24, -12, 43, 51, -81], [-50, 171, -26, 96, -48, 164, -94, 50, -280, -39, -14, -122, 111, 203, 40, 23], [265, -154, 60, 33, -118, 3, -181, 144, -47, -119, 4, -122, 138, 98, -2, -52], [103, -62, -3, 92, -113, 81, 0, 0, 99, -155, 11, -160, 83, 28, 79, -59]]]], "conv2d_2_bias": [-9179, -14082, -81526, -66510, -133572, -88540, -29981, 486, -72805, -101342, -28620, -43072, -7171, -37817, -49943, -1246], "bn_2_a": [293, 702, 584, 966, 277, 388, 591, 545, 686, 613, 1233, 538, 680, 1021, 451, 588], "bn_2_b": [-410092448, -381078016, -285457152, -531383520, -371536576, -435862368, -313005824, -355154720, -265560416, -241870368, -425667296, -281556768, -596435648, -426411712, -382073600, -342964960], "conv2d_3_weights": [[[[8, -38, -36, 11, -124, -98, -95, 62, -287, -35, 8, 34, -7, 23, -34, 22], [-130, -3, -67, 126, 215, -82, 62, -85, 80, 62, -63, -160, 42, -153, 109, 105], [17, -75, -99, -29, -62, -48, -58, -82, -168, 66, -58, -18, 63, -87, 62, 82], [-137, 22, -53, -34, 72, 102, -35, -56, -52, 108, -108, -32, -78, -2, 236, -134], [5, -76, -148, 155, -52, 186, -27, -75, -116, -177, 26, -10, 13, 13, -17, 109], [-2, -5, -58, 39, -62, 0, -94, 96, -55, -10, 42, -15, -112, -7, -122, 15], [57, 74, 125, 45, 22, -13, -83, 139, -181, -18, -30, 98, 37, -14, -168, 35], [-3, -79, 72, -18, -22, -111, 70, 72, 124, 83, 45, 86, -120, 16, 117, -84], [145, 68, -22, 114, -137, 39, 89, -103, 97, 81, -35, -116, 83, -113, -63, 165], [-93, 18, -60, -342, -43, 6, 59, -151, -7, 183, 37, -60, 35, 18, -135, 57], [42, 13, -29, -191, 10, -82, -111, -149, -8, 125, -3, 50, -28, -114, -13, 67], [-78, 234, -36, 31, 29, 141, 94, -34, 152, 128, 90, 41, -89, 17, -138, 78], [-44, -5, -129, 36, -108, 197, -105, -75, 65, 5, 77, 50, -72, 133, -161, 142], [-20, -10, 216, -24, 69, 16, -57, -54, -5, 143, 158, 107, 6, 30, 11, 126], [130, 10, -12, -16, -99, 118, 79, -47, -96, 107, -33, 97, -4, 23, -178, 44], [5, 108, 25, -117, -20, 24, 68, -29, 123, 200, 69, -75, 42, 114, 106, -111]], [[112, -104, -44, -144, 75, -11, 36, 131, -114, -40, -38, 102, -35, -24, -61, 52], [-112, -124, -138, 56, -79, -118, 77, -91, 32, -34, 48, 41, -43, -131, 101, -154], [1, -42, -17, -14, 27, -83, -159, 108, 161, 143, 15, 0, -47, 34, -61, -2], [159, 16, 42, 6, 21, 9, -4, -71, 60, -32, 47, 43, -83, -37, -12, -36], [12, 21, -6, 114, -1, 28, -58, 2, -108, -77, -40, 10, -102, -5, -78, -33], [83, 30, -45, 56, 129, -153, 14, -37, -161, 11, -61, 36, -77, -10, -1, -9], [80, 194, 42, -22, -26, -25, -99, 110, -68, -152, -59, -58, -47, 70, -66, 38], [-5, -58, 62, -79, 15, 69, 12, 1, 58, 50, -71, 82, -233, 73, -21, -92], [-77, -5, -1, 52, 1, -142, -11, 67, 97, 39, 64, -225, 68, 75, -42, -9], [-80, -49, -115, -250, 122, -147, -227, -107, -3, 165, 1, -32, 99, 111, -92, 121], [130, -95, -108, -75, 135, -112, 134, -76, 121, 82, -89, -27, -66, 82, -24, -8], [-95, 73, 86, 37, 64, 86, -55, 18, 61, -36, 12, 110, -11, 11, -152, 93], [-45, 83, 66, -151, -50, 134, -197, -74, -121, -19, 168, -67, -112, 26, -66, 75], [88, 67, -11, -102, 82, -107, -69, 19, 53, 38, 111, -153, 39, 22, 108, -17], [153, 12, 37, 74, 9, -99, -23, -74, -99, -25, 12, 112, 9, 20, -149, 77], [-72, -61, -113, -104, 56, -14, -83, -139, 126, -22, 134, -118, 87, -63, -4, 47]], [[40, -44, 150, 9, 216, -48, 134, -87, -17, -125, 37, -27, -179, 17, -150, 72], [120, -97, 116, 52, -123, 39, -123, -106, -28, -88, -165, -3, 56, -81, 62, -114], [96, -29, 54, -24, 109, -87, -286, 111, 58, 140, -22, -62, -80, 64, -97, -49], [127, 81, 112, -160, 19, 0, -8, -98, 71, 125, -15, -40, -214, 45, -21, -23], [97, 38, 53, 33, 45, 90, -71, 146, -81, -76, 143, -83, -19, 7, -27, -103], [170, -62, 139, 46, 22, 128, 56, -4, -32, -114, -64, 65, -29, 13, 23, -28], [-5, 9, -34, 11, -24, 63, -115, 115, -137, 4, 79, -99, -18, -54, -206, 59], [62, -178, 49, -62, -14, -51, -42, -31, 150, 48, 45, 57, -69, 101, 129, 1], [-60, -19, -29, 24, 154, -68, -98, 52, -146, -38, 39, -37, 14, 11, 7, 130], [1, -60, -129, -60, 147, -125, -51, -73, 5, 76, 59, -32, 18, 29, -191, 103], [-37, -13, 72, 21, 105, 27, -34, 27, 158, -97, -1, -23, 19, 157, -41, -81], [58, 76, 172, 102, 114, 121, 25, -40, -253, -14, -101, 179, -144, -30, -73, 96], [22, 87, -102, -61, -13, 169, -48, 47, -105, 80, 70, 35, 48, 11, 28, 50], [-63, 1, -215, -68, 82, 104, -124, 53, 38, 46, 155, -64, 18, 204, -4, -25], [-33, 117, 7, 40, 8, 8, 76, -14, -73, -57, 153, -175, 111, -10, -53, 83], [-167, 54, -26, -123, 81, -18, -22, -94, -84, -17, -56, 12, 92, 9, 61, 41]]], [[[-11, -149, -153, 97, -143, -163, -149, 107, -75, 6, -26, 47, -48, 38, 101, -62], [-63, -28, 129, -174, 60, 56, -5, -62, 86, -12, -42, -61, 35, -29, -24, 69], [-57, 9, 65, -141, 31, -29, 113, 57, -41, 51, 56, -5, 26, 48, -25, 82], [-18, 57, 11, -33, 178, -90, -56, -87, -94, -96, 75, -30, 142, -111, 218, -104], [12, -85, 53, -72, -198, 172, 7, 79, 27, -109, 51, -52, -33, -61, -114, 22], [-17, -26, -121, 26, -184, 53, -39, 42, -134, -60, 91, 24, 71, 75, -158, -85], [-45, 85, 83, 130, -11, -159, -85, 28, -230, -129, -4, 39, 106, -150, 62, 19], [-87, -135, -49, 137, 0, 10, -108, 56, -26, 34, 14, -48, 51, 42, -154, 66], [-25, 175, -64, -90, -93, 134, 22, -19, -40, 21, 112, -39, 11, 131, 14, -100], [-96, -26, 59, -19, -145, 12, 72, -12, 17, -13, -136, 37, -5, 147, 62, 54], [96, -16, 21, -58, 21, -2, -45, -59, -25, 28, -51, 39, 132, -110, 10, -45], [10, 136, -145, -76, -81, -36, -12, 37, -200, 26, 39, -64, 87, 12, 63, 61], [44, 106, -277, 87, 1, 228, -56, -71, 72, 52, 153, -17, 71, -140, 135, 118], [-46, -63, -6, -241, -67, 1, -50, 11, 191, 155, 12, 67, -95, 158, 4, -26], [32, -17, 10, -86, 0, -50, 78, 109, -5, 53, -77, 39, -151, 1, -3, -152], [-77, 62, 41, -68, 42, -5, 216, -273, 184, 110, -62, -71, -163, -84, 115, 118]], [[27, -37, 50, 87, -129, 9, -24, 56, -25, -58, 87, 78, -47, -59, 65, 22], [-158, -4, -25, 2, 203, 76, 164, -122, -84, 75, -39, 158, -277, -89, 99, 40], [5, 148, -32, -2, 31, 83, -57, 51, 42, 106, 74, -38, 146, 194, 81, 95], [49, 18, 35, -57, 145, 88, -11, -205, 45, 25, -76, 14, -71, -178, 80, -39], [-65, -43, -158, -50, 12, -2, -12, 25, -113, 146, -52, 80, 23, -3, -124, -6], [121, -49, -72, 132, 28, -63, -63, 99, 50, 15, -20, 64, -88, 186, -44, -62], [48, 92, -83, 173, 80, -77, -74, 112, 14, -17, 110, -111, 10, -3, 117, 59], [18, -101, -35, 106, -81, 41, -87, -70, -167, 9, 29, -34, 54, 11, 13, -100], [-90, -44, -58, -145, 19, -111, -1, 109, -68, -69, -124, 161, -132, 9, 13, -2], [-38, -77, 90, -23, -85, -162, 22, 25, -74, -39, -50, 19, 111, 65, 73, 189], [131, 62, 122, -7, 28, 64, 0, -123, 134, 217, -48, -130, 74, 77, -164, 85], [32, 21, -102, -41, -162, -44, 119, 52, -28, -18, -65, -100, -14, 66, -81, -20], [-167, 106, 78, -18, 9, -64, 138, -52, -78, 105, 98, 20, -109, -86, 239, 18], [-90, -32, -65, -24, -103, -193, -46, -76, -61, 60, -79, 12, -24, 124, -30, -33], [-35, -119, -119, -27, -51, -152, 83, 27, 56, -19, -14, -52, 26, 153, 86, 11], [-63, -98, 45, -31, 96, -121, 15, -143, 82, -68, -182, 80, 14, -64, -18, 67]], [[58, 45, 61, -96, 111, 64, 46, -121, 22, -65, -12, -11, -82, -71, 31, 27], [-28, -125, 17, 190, 13, 149, 34, -42, 10, -14, -322, 33, -78, -85, 2, -69], [-135, -297, -42, -12, -56, -73, -161, 72, -25, 156, 109, -161, 221, 81, -41, 49], [33, -211, 56, -71, -13, 134, -57, -33, -49, 216, 3, 42, -184, 50, 111, -108], [65, -6, 19, 34, 37, -24, 29, 76, 4, -80, -34, -80, -62, 153, 28, 36], [-18, -118, 69, -86, 203, 83, 17, -9, 30, -141, 16, -64, 24, -4, 58, -180], [-14, 23, -19, -169, 48, -138, -113, -12, -82, 207, -2, -76, 53, -8, -21, -107], [65, 86, -56, 44, 75, -20, 0, 15, 7, 123, 38, -31, 11, -22, -80, -6], [157, -36, -135, -50, -31, -81, -10, 119, -23, -230, 73, -15, 81, 74, -71, -45], [-76, -182, 157, -6, -42, -237, 145, -61, -43, -73, 6, -32, 148, -77, 26, 101], [-36, 36, 13, -27, 47, -30, 83, -28, 24, 81, 93, 44, -139, 95, -86, 157], [18, 102, 3, -3, -29, 34, -3, 112, -97, -14, -80, -62, 15, 97, -46, -53], [-80, 30, 22, 14, 24, -56, -32, -25, -3, 9, -65, -7, 124, -135, -81, 41], [-87, -44, 47, -9, 65, -21, 104, -43, 24, 22, 10, 176, -88, -85, 18, 75], [-171, 188, 153, -138, 64, -110, -80, -84, -6, -11, 94, -15, 34, -20, 158, -35], [120, -45, 187, 110, 73, -57, 36, -30, 99, -175, -77, 143, -22, -23, -17, 8]]], [[[-30, -65, -87, 8, -65, 4, 83, -59, 20, 103, 45, 5, 108, -15, 116, 5], [-13, 8, -78, -53, 66, 37, -157, -3, 25, 75, -79, 97, -26, 154, -69, -111], [-40, 16, 131, 1, 31, 107, 92, -20, 124, -22, -90, 76, 121, 48, 5, 93], [-89, 127, 88, -229, 105, -74, -117, -175, -67, -178, -132, 5, 74, -4, -36, 79], [42, 97, -63, 21, -135, 57, 127, 71, 137, -152, -3, 153, 129, 88, 201, -108], [56, -11, -177, -19, 79, -26, -148, 11, 126, -21, -169, 229, -80, -15, -201, -194], [-1, -6, -8, -13, -23, -13, -49, 55, -56, -70, -171, 120, -8, -137, -166, 66], [64, -22, 108, -73, -2, 62, 89, -44, 9, -77, 102, -86, 126, -13, -85, -45], [106, -69, -209, 173, 42, -125, 42, 76, 144, -16, -222, -34, 11, -91, -13, -84], [-148, -15, 209, -49, -144, -11, 59, -54, 47, 11, -44, -156, 168, -67, 82, 149], [-109, 54, 121, 105, 70, 128, -29, -49, 48, -61, 95, -152, -43, 40, 194, 81], [0, -49, -30, -45, -84, -29, -106, -33, -192, -156, 96, 24, -33, -105, -65, -40], [28, -150, -21, -60, 113, -27, 16, -77, 39, -70, -104, -24, -14, -64, 13, 53], [-3, -156, -39, 137, -145, -75, 36, 158, 95, 258, 74, -242, -31, -8, -3, -31], [-142, -52, -202, -12, -143, 103, -138, -8, 22, 82, -51, 56, 62, -7, 128, -60], [12, 79, -44, 151, 18, -84, 112, 6, 114, -20, -8, -242, 102, -253, 239, 196]], [[-46, 69, 74, 26, 23, -104, -53, 82, -134, -29, -15, -28, -23, 46, 2, -22], [5, 77, -118, 16, -52, 86, -48, 17, 28, 21, 31, -26, 17, 21, -14, -8], [-60, -108, 105, -62, -44, 55, -31, 66, -16, 98, 45, 69, 43, 29, 14, 46], [-25, -75, 36, -20, 105, 76, -131, 36, -75, 12, -234, 169, 74, -171, 31, -45], [45, 7, 74, 13, -14, -2, 58, 53, 4, 70, 6, 2, -55, 115, 178, -153], [-2, -178, 61, -15, 37, -112, -263, -47, 12, 152, -162, -68, 22, 12, 61, -82], [163, 11, -30, 20, -20, -9, -126, -60, 33, 83, 53, -38, 144, 79, -124, -25], [-104, 115, -54, -146, 21, -36, 60, -67, 65, -125, 43, -39, -9, 215, 161, 103], [-29, -91, -137, 155, -233, -139, 36, 130, 76, 76, 9, 7, 39, 84, 28, -52], [-53, 56, -35, -5, -35, 25, 82, -48, -83, -32, 76, 19, -57, 85, 13, -18], [17, 113, 126, -24, 127, -40, -25, -222, -98, -147, 242, -31, 19, 42, 98, 217], [-27, 49, -111, 69, -53, 50, -26, 173, -138, 22, -62, 101, 124, 103, -51, -61], [-92, 147, 6, 35, -153, 125, 10, 119, -77, -5, 49, -97, 94, -106, 30, 111], [30, -113, -130, 121, -79, -102, 28, -75, 116, 74, 18, 74, -238, -25, -73, 75], [8, -58, -61, -31, -148, -146, -54, -88, 156, 86, 121, -12, -15, 75, 24, -21], [-272, 141, 10, 67, -58, 103, 176, -59, -4, -8, 203, 31, -46, -120, 7, 105]], [[161, -33, -5, 29, 208, 213, 108, -205, 104, -32, 88, 93, -65, -130, 72, 33], [-211, 55, -46, -30, -289, -48, 148, 124, -57, 40, -28, -78, 130, -69, -35, 156], [38, -13, 33, -166, -35, -82, -139, 28, 55, 119, -15, -108, 37, -152, -99, -62], [-10, -241, -3, 11, -60, 73, -133, 20, 107, 26, -223, -36, 85, -144, 10, 72], [-23, -66, 110, -76, 118, -114, -29, -61, 97, -1, -63, -157, -35, 32, 47, 39], [45, -102, 52, -23, -83, -71, -184, 1, 70, 11, -108, -174, 17, -121, 67, -127], [64, 112, -56, -174, 3, -30, -88, -3, -116, 20, -44, -32, -43, 95, 13, -91], [-268, -129, 119, 31, 63, 33, -75, -36, 96, -162, 21, 3, 72, -102, -79, 195], [-36, 61, 15, 72, -127, -41, -83, 73, -102, -56, 190, -54, 63, -100, 24, -83], [150, 31, 62, -144, 32, -51, -110, -81, -122, 102, -40, 1, -254, -29, 35, -138], [-20, 59, -139, -6, 123, 118, 33, 45, -41, -34, 90, 112, -111, -66, 58, 78], [-3, -131, -2, -104, -29, -68, 89, 62, 73, -46, 20, -193, 93, 94, 79, 30], [-138, 44, 104, 68, 32, -2, 74, -4, -128, 107, 125, 99, 106, 80, 20, 123], [91, 26, 62, -88, 62, 24, -131, 25, -76, -91, -86, 123, -97, -195, -102, -160], [71, 226, 65, -85, 95, 104, 116, 21, 100, -137, 243, -26, -52, 11, 124, 2], [-11, 181, -44, 115, 105, -12, 133, -14, 119, -15, 64, 149, -45, 44, -106, 6]]]], "conv2d_3_bias": [-51022, -16854, -21027, -10495, 3642, -108089, 92716, 93776, -54791, 26286, -77580, -42303, 39561, 47966, -11662, -31348], "bn_3_a": [296, 342, 299, 329, 261, 609, 363, 289, 374, 325, 281, 277, 282, 249, 340, 370], "bn_3_b": [-185549200, 1852400, -149860912, -73066576, -140385408, 16129608, -67870816, -83686864, -65004968, -129204480, 7789280, -96118928, -115545888, -46999880, -25682560, -113497096], "conv2d_4_weights": [[[[129, 88, -336, -145], [158, -56, 114, 321], [26, -193, -188, 32], [291, -60, -67, -66], [-238, -275, -187, -44], [46, 108, -92, 158], [139, -23, -140, 283], [279, 182, 249, -86], [-126, 120, -43, 307], [-322, 125, 67, -19], [242, -11, 264, 207], [25, 231, -199, 135], [-12, -219, 133, -79], [-69, 159, 129, 275], [68, -202, 46, 72], [-124, -180, -167, 146]]]], "conv2d_4_bias": [95650, 67698, 120633, 106567], "bn_4_a": [552, 708, 634, 505], "bn_4_b": [-241950512, -228498560, -320961984, -224387536], "conv2d_5_weights": [[[[-79, 7, -68, -40, -10, -119, -11, 84, 15, 16, 11, -2, -83, -30, 51, -39, 133, -5, -44, -45, -85, 16, 34, -62, -35, -39, 117, -13, -101, 52, -129, -5, -76, -35, -89, -37, -72, -131, 75, 26, -117, 50, 55, -26, 11, 9, -163, 10, 58, -95, -59, -25, -17, 77, -76, 2, -55, -36, -10, -111, -109, -61, -87, -73], [7, -159, 40, 99, -89, -53, -16, 123, 101, -50, -76, -27, -49, -84, 144, 158, 100, -215, 67, 78, -14, 39, -58, -102, -75, 30, 107, 57, 176, -5, -8, -111, -164, -41, -22, 9, 27, 40, -148, -59, -21, -64, -98, -115, 176, -19, -144, 95, -43, 16, -20, -60, -56, -113, -66, -83, -59, -14, 82, -29, 43, 2, -107, -15], [-29, -99, 186, 68, 28, -176, -125, 95, 1, 19, -5, 6, -69, 42, 61, 86, 71, -152, 230, -79, 9, 86, -23, 55, 20, 47, -180, 14, -38, -5, 14, -87, -60, -56, -16, -48, 133, 32, -48, 180, -64, -98, -35, 33, -177, -203, -26, -28, 229, 58, 58, 20, -22, -106, 76, 45, -186, -6, 64, -32, 39, 101, 30, 10], [67, 14, 148, -76, 142, 56, -46, 46, -99, 36, -48, 250, 108, 125, -47, -156, -24, -32, -17, 89, 129, -44, 101, 1, 8, -141, -50, 9, 36, 108, -211, 32, 143, -111, 68, 218, -4, -191, -52, -81, -55, -138, -267, -129, -151, -228, -50, 104, 128, -76, -6, 70, -143, -98, 52, 68, 108, 153, 49, 77, -77, 63, 80, 93]], [[-147, 43, -189, -255, -60, 92, -34, 181, -8, -99, -22, -50, -46, 35, 159, -104, -41, 84, -46, 14, -8, 140, -86, 26, -26, -156, 115, -81, -47, 139, -204, -107, 10, 110, -65, -72, 68, -131, 3, 5, -58, -133, 46, 143, 76, -116, -29, -8, 18, -12, -163, -61, 178, 184, -85, 82, -113, -40, -123, -117, -5, -53, -93, -88], [30, -319, -79, 64, 164, 103, 8, 142, -24, 78, -12, -81, 28, -226, 94, 117, 56, -181, 135, 137, -4, -113, -136, 27, -128, 30, 65, -35, 256, -119, -21, -202, -102, -133, -136, -70, 33, 56, -186, -150, -1, 150, -165, -106, 61, -126, -147, 179, -101, -58, 135, -6, -154, -30, 18, 55, 155, 43, 93, -25, -12, 46, 15, 198], [-115, -26, -59, 23, -12, -61, -110, -76, -93, -120, 121, 68, -62, -59, -9, 60, -243, -75, 69, -196, 122, 120, 110, 89, 75, 139, -113, -31, -155, -6, 95, -3, 5, -30, -84, -71, 13, 117, 47, 224, 125, -180, -35, -77, -88, 35, -94, -28, -34, 177, -202, 102, -91, 76, 38, -72, -133, -229, -257, 111, -1, 43, 169, -63], [33, -173, -14, 56, 181, 13, -63, 19, -59, 98, 226, -21, 65, 77, 25, 64, -11, -10, 105, 52, 42, 30, 196, 117, 95, -36, -56, 8, 68, -32, -78, 134, 123, -71, -33, -77, -57, -12, 8, 273, -18, -10, -121, -99, -140, -34, 77, 183, 119, 199, 92, 81, -51, -95, -86, 23, 40, 9, 42, 167, -227, 237, -14, -139]], [[-81, -90, -71, -119, -74, -70, -50, 179, 103, -54, -116, 82, -97, -223, 66, -74, 103, -42, -91, -56, -182, 37, -60, 72, -187, -37, -20, -21, -169, 193, -49, -95, -175, -13, 100, 304, 27, 76, -21, -16, 115, -128, 66, -57, -18, -14, -166, -18, -142, -122, 61, -53, 84, -110, -181, 150, -21, 12, -20, -107, -22, -237, 89, 10], [-160, 33, 34, -94, 186, 12, -14, 188, -49, 201, 43, 183, 118, -15, -12, 10, -20, -54, 53, 98, 143, 36, 8, -130, -101, 121, 89, 51, 140, -49, -208, 13, 71, -80, -86, -22, 104, -95, -98, -164, 16, 217, 58, -171, -108, 31, 142, 39, -121, -228, -122, 99, -39, 23, -53, 95, 152, -29, -47, -59, -15, 44, -85, 132], [72, -40, -48, 241, 34, 227, -82, -173, -11, -7, 39, 116, -72, 76, 148, 296, -222, 75, -84, 102, 154, 85, -137, 153, 34, -12, -83, -31, 121, -31, 61, 15, 22, -22, -133, -73, -134, 82, -12, 195, 93, 30, 37, 187, -101, 136, -2, -23, -34, 265, -47, 39, -221, 60, -75, -95, -81, -28, -244, 267, 10, 191, -59, -101], [-3, -14, 215, 95, 267, 52, 15, 34, -236, 0, 78, -50, 119, 18, -85, -29, -231, 95, -54, -53, -59, -56, 164, -9, 76, -96, 36, -46, -14, -84, -280, 61, 191, -50, -239, -239, -99, -195, -75, -62, -88, 2, -185, 120, 113, 78, 186, 175, -2, 112, 15, 114, 95, 118, 71, 190, 58, 78, 50, -26, -149, 184, -107, -31]]], [[[143, -54, 2, -4, 48, -20, 12, 89, -54, -11, 24, -29, -41, -171, -10, 70, -69, -145, -102, -155, -16, -16, 144, -94, -160, 38, 29, -152, 40, 176, 34, -127, 35, -44, -121, 48, 124, -110, -90, -22, -152, 77, 57, -152, -28, -30, -115, -93, -157, 3, -92, -54, -83, -156, 41, -45, 51, 77, -100, -54, -14, -76, 211, 1], [-73, 2, 229, 48, -59, -144, -97, -99, 20, 71, -86, -89, -87, -66, -43, -8, 71, -100, 68, 141, -47, 101, -29, -91, -83, -79, -52, 219, -15, 34, 13, -97, -25, -5, 92, 44, -50, 100, -109, -5, -109, -297, -68, -215, -62, -24, -84, 20, 149, 35, -60, 62, 63, -109, 24, -31, -195, 65, -14, -72, 23, 60, -96, -44], [64, -25, 97, 142, 5, 142, -182, 40, -86, 116, 152, -16, 37, -24, -84, 74, -261, -29, 2, -39, 60, -6, 118, -82, -43, -16, 138, -102, 18, 135, -15, 39, 194, -33, -46, -103, -30, -92, 14, -77, -77, -57, -50, -167, 39, -47, 18, 68, -44, -114, -4, 82, 28, -7, 52, 23, 107, 16, -75, -69, 32, 86, 68, 30], [89, 78, 39, -15, 9, 42, 128, -110, -65, 134, -143, 89, 98, 43, 18, 59, 57, 143, 21, -48, 22, -130, 60, -92, 40, -93, -1, -14, -12, -54, -34, -74, -85, 77, 2, 48, 65, -24, 80, -47, -101, 66, 74, 47, -14, 49, -19, 26, -48, 14, 141, 45, -67, 33, 152, 98, 182, 44, 63, -75, 47, -118, -32, 55]], [[30, -113, -24, -98, 68, 178, -60, 28, -8, -162, 39, 70, 93, -202, 26, 95, -94, 1, -160, 69, 118, 68, 32, -68, -130, -63, 132, -149, 207, 170, 78, -84, -21, 22, -14, -13, -93, 14, -85, -11, -39, 187, -52, -164, 211, 43, -224, 88, -120, -3, -7, -79, -47, 38, 121, -16, 225, 69, -61, 48, -73, -63, 118, 14], [9, 17, 129, 0, -48, -145, 9, -40, -18, 139, -18, -14, -42, 21, 2, 25, 67, 55, 109, 47, -17, -130, -42, 26, 77, 42, -93, 271, 34, 1, 27, 44, 40, -147, -28, 73, -50, 82, -75, -106, 76, -148, -101, -69, -98, 94, -40, 44, 106, 128, -78, 155, 72, -65, -107, -74, 55, 183, -17, -55, -74, 132, 15, 56], [11, 42, 67, -141, 42, 124, -85, -95, -65, -172, 95, -60, 133, 36, -121, 19, -98, 6, -113, 50, -174, 58, -26, 60, 24, 54, 106, 113, 13, 22, -254, 58, 103, -61, -142, -116, -17, 83, -15, -92, -37, -131, -2, 15, 164, -35, -84, 51, -68, 49, 177, -14, -58, 83, 58, -56, -14, 31, 59, 75, 25, 24, 40, 59], [-30, -102, 234, 103, -95, -17, -52, 176, 114, -23, 74, -22, 47, 100, 308, 74, 23, -82, -64, 37, -4, -16, 47, 80, 90, 20, 106, -28, 75, -58, 40, -101, -99, 3, -166, 0, -108, -22, 27, 50, -7, 36, 64, 100, -7, -92, -117, -30, -20, -20, -11, -54, -8, -3, -103, -6, 46, -249, -89, -34, -202, 11, -20, -132]], [[31, -158, 39, 121, -160, -67, -29, 53, -52, 17, -135, 91, -37, -183, 188, 112, 16, -183, 24, 25, 188, -27, 52, -286, -181, 48, 59, -112, 62, -93, 68, 30, -118, 1, 42, 190, 101, -16, -78, -128, 31, 84, -123, -174, -46, 150, -104, 107, 49, -146, -58, -99, 21, -125, 56, -91, 95, -87, 55, 12, -52, -124, 26, 21], [-69, 171, 18, -9, -96, 63, -103, -51, 63, 110, 54, 283, -90, 33, 93, -26, -42, 9, -23, 12, 143, -114, -52, 121, -44, -6, -25, 182, -107, 73, -4, 69, 44, -48, -44, 135, -117, 73, 193, 80, 53, 86, 184, -144, -69, 204, 56, -172, 82, -100, -114, 282, -141, 39, -93, -126, -131, 124, -40, -70, -119, 64, -59, 163], [-113, 145, -173, -127, 48, -33, -53, -36, -70, -287, 136, 12, 225, -21, -204, 23, 61, -19, -207, 16, -155, -256, -136, 183, -47, 73, 191, -51, -51, -40, -166, 253, 212, 29, 44, -73, -157, 85, 57, -24, 248, -64, 33, -96, 17, 130, -180, 193, -103, 286, 245, -23, -194, 78, 27, -169, -317, -133, 249, 188, 119, -101, -176, -61], [-55, -214, -7, 78, -55, -93, 89, 182, 51, -21, -10, 86, 129, 38, 164, -93, 122, -52, 74, -102, -29, 6, 41, 87, -36, 142, 196, 94, -105, 64, 30, -50, -84, -12, 64, 9, 28, -9, -55, 9, -59, -64, -18, 38, -76, -7, -4, -101, -3, -23, -107, -15, 115, -180, -177, 55, -53, -51, 29, -59, -32, -13, 62, -90]]], [[[124, -96, 96, -134, 58, 6, -75, 58, 46, -93, 21, -205, 14, -12, -63, -2, -57, 4, -45, 0, -229, -101, 84, 0, -182, 64, -85, 47, 37, 9, 114, -166, 40, 68, 2, -101, -61, -44, -136, -57, -185, -235, -113, -62, -85, -185, -11, 19, 56, 109, -3, 20, 69, -184, -31, -39, 175, 166, -195, 126, 1, 3, 74, -158], [52, 33, 122, -116, -106, 22, 105, -41, -42, -12, -164, -71, 133, 29, -70, -47, -61, -19, -123, -72, 99, -83, -85, -131, 71, -63, 178, 23, -89, 133, 61, -123, 17, 159, 46, -122, 71, -236, -63, -96, -164, 53, 18, -54, 77, -60, 82, 118, 164, -101, -8, -4, 275, -13, 266, 15, -102, -137, -29, -132, 173, -2, -34, -235], [255, -98, 99, -68, 17, 27, 70, 18, -50, 0, -145, 46, 30, -38, -107, 34, 134, -48, 94, 38, 123, 58, -43, 23, 79, 22, 117, 46, -141, 63, -29, -142, -42, 64, 23, 94, 67, -217, -76, -149, -145, 5, -131, 53, 62, -19, 11, 14, 221, -15, 32, -4, 149, -28, -61, -78, 65, -118, 53, -119, 3, 0, -19, -211], [95, 166, 90, -51, -11, -87, -12, -18, 90, 114, 79, -219, 16, -36, -92, -100, 192, 26, -3, -107, -240, -208, 85, 78, -24, 257, -2, -87, 4, -159, 71, 34, -38, 103, 111, -32, 92, 150, 74, -131, -121, -76, 159, 58, -44, -103, -181, 24, -151, 86, 86, 23, -69, -86, 6, -69, 137, 49, 14, 43, 1, -125, 108, 10]], [[9, -128, -104, -65, 100, -134, 15, -449, 40, -192, 19, -141, -4, 81, -111, 51, 113, -37, 107, 70, -173, 0, -2, 47, -175, 143, -36, 140, 88, -130, -24, 29, 108, 35, 35, 24, -95, 49, -78, -21, -40, 11, -23, -110, -71, 60, -73, 48, 85, 101, 133, 144, -64, -168, 93, -11, 173, 122, 283, 6, 203, 4, -15, -97], [230, -8, 186, -27, -284, -24, 58, 42, -253, -11, -10, -5, -124, 47, -60, 76, 17, 19, 87, -239, 4, -149, -33, -88, 90, 130, 84, -196, -138, 161, -72, -106, -41, 36, 62, -58, 210, -205, 99, -123, -160, -4, 89, -47, 4, 57, 66, -126, 135, 179, -31, -31, 203, -49, 179, -121, -11, -104, -52, -177, 264, 110, 58, 12], [0, -178, 62, -107, 136, -150, 172, 8, 4, -8, 99, -328, 112, -107, -134, -33, 37, -81, 13, -146, -50, -182, -91, 186, 22, 142, 48, -69, -187, 87, -23, -46, 5, 154, 39, -20, 150, -1, 85, 16, -55, -182, 56, 123, -123, -78, -12, 59, 143, 77, 136, 59, 62, -183, 8, 56, 14, -186, 23, 128, 22, 60, 142, -218], [-232, -12, 6, 124, 35, -68, -235, -154, 185, 91, 48, 14, -16, 34, -10, -124, 31, -136, -99, 14, -116, 155, 136, 45, -118, 107, -132, 40, -97, 84, 130, 38, 19, 95, 91, -19, -330, 79, 128, 167, 38, -122, 70, -95, -69, -97, -103, 12, 33, -164, -239, 258, -42, -274, -148, -14, 65, 109, -60, 44, -201, 19, 55, -53]], [[176, 39, -84, -79, -5, -193, 155, -118, 32, -73, 186, -70, -33, 102, -137, 87, 45, -32, 119, 72, -71, -109, -47, -76, -142, 115, 9, 123, 16, -37, 47, 15, 197, -20, 36, -153, -11, 157, 27, -55, -29, 69, 94, -96, 6, 7, -36, -17, -49, 164, 112, -25, -18, -96, 106, -100, -37, -28, 123, -185, 163, 77, 70, -23], [-44, -46, -53, 131, 3, -79, -17, -66, -220, 132, 28, -118, -60, -9, -74, 115, 37, 50, 171, -97, -228, -128, 83, 81, 78, -209, -43, -202, -7, -16, -19, -92, -45, 128, -163, -75, 14, -79, -36, 145, -45, 68, 118, -111, 52, -26, 46, 18, -214, -58, 15, -15, 164, -27, 74, 77, -187, -134, -64, -54, 229, 72, -225, 211], [-194, -87, 117, -37, -12, -33, 124, 52, 188, -93, 119, -194, 232, -230, -179, -134, 0, -55, -233, -50, -116, -170, -40, -71, 210, 66, 179, -63, -68, 129, -6, 36, 204, 183, 207, -235, 11, -61, -31, 45, -140, -104, 20, 28, 107, -279, -25, 55, -66, -111, -77, 253, 246, 12, -132, 105, -122, 108, -123, 83, -250, 69, 13, -263], [12, -30, 35, 164, -117, -66, 3, -142, 46, -97, -91, 124, 126, 27, -18, 29, 50, -61, -12, -15, 109, 97, 139, -173, -24, -62, 69, -48, -106, 38, 17, 31, -7, 17, 9, 100, -46, 168, -67, 132, 74, -19, -54, -20, 46, -11, -101, 43, 10, 134, -135, -225, -74, 5, -28, -124, 65, -14, 25, 90, -67, -104, 24, -112]]]], "conv2d_5_bias": [36733, 42612, 31737, 1443, 24979, 61918, -22406, -713, -33182, -387, -1073, 21213, 11430, -26498, 10381, -3092, -38702, 25677, 20677, -33514, 24628, 9258, -1641, 13991, 40119, -33098, -29946, 8753, -15670, -24417, -16212, -7087, -7938, -49725, 17495, 44155, 24637, -3176, 14617, 3409, 53113, -7877, -15353, 7752, -4002, 50466, -1465, -31582, -3348, -13864, 8513, -41593, 22868, 20230, -5039, 3280, 5711, -46490, 3734, -25515, 18211, -738, 23397, 44424], "conv2d_6_weights": [[[[-31, 45, -18, -160, -229, -98, 48, 46, 83, -516], [-140, -206, 4, 219, -232, -99, 117, 30, -217, -457], [155, 192, -400, -83, -4, -247, 193, -222, -179, 135], [-67, -277, -152, -97, 41, 165, 67, 228, -316, -205], [-358, 210, 22, -258, 97, 77, -47, -262, -12, -35], [-313, 108, -11, 28, -355, -79, -124, -60, 214, -2], [176, -33, 192, -76, -208, -125, -192, 18, 64, -194], [354, -81, 221, -290, -142, 14, -110, -168, -288, -156], [-355, 12, 24, -121, -9, -159, -93, 225, -105, 180], [-1, 103, -208, -125, -196, 165, 223, 161, -257, 177], [-109, -102, -290, -177, 208, -218, 32, 43, 32, -222], [115, -131, -261, 243, -431, 174, -13, -390, 37, -116], [178, 102, 81, -242, 35, 59, -311, -84, -125, 40], [-99, 47, 138, 49, -102, 112, 211, -448, -82, -209], [153, -344, 252, -100, 23, 153, -86, 16, -474, -176], [52, -222, -305, -154, 105, 165, 83, -74, 162, -58], [28, -158, 121, 124, -30, -384, -72, 112, 313, 183], [-253, 140, 152, 141, -203, -37, -64, 146, -126, -63], [-125, 34, -172, -277, -223, 169, 163, -386, 146, -14], [-176, -190, -1, 44, 54, 126, -90, -115, 10, 188], [207, -297, -255, 83, -284, 152, 57, -240, 64, -183], [236, -60, -154, 88, 55, 65, -330, 127, -427, -50], [37, 214, -100, 11, 131, 32, 45, 180, -52, -172], [-519, 220, -15, -170, 84, -31, 130, 146, 86, -7], [167, 207, 140, -88, 55, -200, 134, -175, -163, -158], [-116, -309, -198, -306, 179, -180, 57, 174, 264, 75], [154, -218, 34, -183, -103, -131, -418, -214, 62, 77], [-72, -428, 91, 1, 127, 56, 85, -379, 80, 195], [-249, -339, 9, -57, 147, 173, -67, -304, -36, 168], [155, -157, -184, -315, 224, -231, -113, -94, -86, -55], [25, -224, 143, -116, -121, 88, -404, 216, -113, 54], [-123, 6, -38, 166, 106, 26, -72, 63, -327, -96], [-81, -135, 110, -241, 189, -22, -67, 61, -276, -258], [-14, -133, 115, -58, 53, 165, -154, 116, -186, 90], [158, -65, 116, 18, 3, -233, -349, 176, -79, 203], [227, -22, -204, 159, -354, 184, -105, 126, 83, 125], [204, -149, 89, -78, -262, -82, 140, -243, 66, -323], [-375, -150, -321, 36, 55, 160, -412, 144, 44, 166], [-178, -36, -46, 75, 41, -86, 103, 127, -192, -149], [-82, 276, -304, -97, -279, 65, 123, 87, -247, -157], [-144, 171, -25, 217, 22, 69, -432, 20, -301, -15], [-441, -116, -12, 91, -30, 142, -150, -27, 235, 59], [-137, -117, 124, 164, -226, -216, 136, 232, 111, -154], [-13, 150, 224, -44, -312, -307, -146, 132, -291, -164], [-16, -105, 91, 160, -100, -46, -265, -102, 142, 228], [-391, -154, -209, 186, 58, 147, -54, -117, 168, -301], [-35, -256, 46, 3, -175, 144, 91, -287, -180, -298], [-30, -98, 39, -149, 133, -389, -143, -224, 10, 151], [116, -367, -341, -100, -30, -121, 90, -448, 74, 146], [-194, 7, -71, -347, 84, 343, -30, -11, 197, -432], [-279, 111, 99, 82, 105, -497, -161, 113, 166, 78], [-151, -30, 55, -173, 148, -274, -4, 26, -368, 181], [105, -499, 172, -135, 137, 162, -65, -376, -141, 71], [-289, 154, 117, 222, -315, -140, 40, -209, 45, 207], [-84, -23, 169, -222, -194, -242, 215, -84, 69, -239], [-151, 155, 163, 35, -34, 120, -139, 68, -174, -43], [-165, 244, -472, -331, 84, 56, -18, -61, -77, 48], [14, 204, -124, 165, 48, -141, -268, -148, -314, 209], [-115, -45, 44, 182, 36, -302, -444, -11, 200, 26], [-207, 186, -29, -217, 102, 60, -20, 154, -207, 86], [-94, -210, 218, 2, -314, 56, 161, -92, 201, -253], [34, -157, -45, -182, 179, 98, 225, 48, -49, -145], [125, 130, -150, -242, 66, -253, -78, 142, 49, -73], [-131, 56, -507, 37, -79, 6, 60, -290, 7, 43]]]], "conv2d_6_bias": [19578, 37440, -25659, 26750, -23383, 5214, -7245, -24176, 16270, -18196]}