{"bot_l_0_weight": [[-47, 4, -47, -12, 11, -14, 7, 22, -35, -74, 84, -1, 178], [-48, -32, -9, 36, -15, 191, -2, 9, -79, -8, 186, 6, -76], [70, 19, -3, 41, -43, -126, 53, 64, -28, 138, -83, -9, -28], [90, -35, -32, 64, 55, 105, 113, 50, -131, 200, 10, -51, -143], [59, -15, 102, -16, -65, -6, -90, -22, 18, 64, -77, 38, 49], [70, 90, -48, -5, 136, -71, -35, -46, 25, -22, -198, -17, 171], [-20, 30, 110, -110, -29, -85, -33, -57, 35, 142, 3, 95, 84], [127, 18, -120, -44, -38, -127, -14, -56, 0, 94, 107, -66, 118], [112, -63, 52, -90, -113, 18, -148, 28, 55, 93, -50, -33, -94], [-54, -79, -65, 0, 41, -104, -23, -108, 46, -98, 70, 1, 2], [-177, -36, -50, -48, -19, -105, 65, -122, -83, -7, -10, 90, -74], [42, 56, 90, -249, -25, -128, 24, 7, -63, -153, -75, 2, 90], [-3, -6, 85, -3, -43, 35, 64, 8, -219, -15, 89, 10, 263], [17, -89, 24, 18, 74, -9, 3, -27, -92, -32, 123, -10, 34], [76, 21, -76, 26, -222, 82, -45, 28, -1, -20, -154, 27, -59], [-30, -86, -148, 131, -36, 124, 57, 1, -20, 99, 56, 28, 8], [31, 37, 23, 21, 25, -14, 164, -40, 60, -84, 71, -5, -38], [-104, -34, -75, 43, -100, -37, 54, -65, 2, 132, -13, -71, 89], [30, 19, 131, -6, 107, 40, -120, -70, 31, -3, 57, -99, -71], [1, 13, 96, -67, 52, 53, 40, -12, 58, 73, 112, -13, -97], [4, -3, 79, -6, -3, 339, 22, -22, -52, 197, -103, -22, -111], [31, 28, -73, -23, -43, 6, 101, 3, 80, 287, 63, 28, -71], [-68, -59, -93, -4, 35, 52, -40, -107, -11, 50, 12, -27, 28], [-88, -86, -201, 36, -98, -52, -57, -86, 25, 47, -61, 28, 28], [9, -84, 80, 94, 90, 36, 12, 60, -44, 107, -50, -4, 18], [-25, -103, 4, -1, -57, 18, -1, -27, -94, 39, 67, -79, -23], [-4, 56, -67, 71, 70, -59, -8, -45, -68, -30, 113, 15, -165], [18, -8, 75, -9, -1, 75, -142, -342, -15, 18, 45, 36, -46], [21, 3, -3, 168, 25, 8, 29, -10, 76, 137, -244, 23, 42], [-70, -21, 138, -120, 71, -38, -79, -12, -33, 63, 13, 76, 12], [-20, 24, 52, -144, -45, 50, -18, 50, -48, 8, -28, 29, -115], [-190, -13, -14, -94, 54, 87, -80, 48, -51, -75, -33, -72, 36], [20, 6, -167, 35, -136, -41, -104, 55, 17, 134, 71, 1, 220], [80, -56, -69, -45, -37, -46, -38, -66, 74, -15, 4, 45, -128], [91, 28, 151, -19, -20, -52, 94, -7, 15, 4, 60, -69, -119], [82, -7, 12, 9, 38, -9, -111, -72, 35, 23, -7, -59, 67], [-21, -35, 40, 36, 0, 74, -218, 2, -48, 34, 64, 2, -10], [82, 10, -83, -63, -46, 42, 106, -28, 82, -48, -79, 34, 150], [-77, -19, -98, -28, 52, -79, 78, -182, -29, -92, 12, 25, -23], [8, 20, 41, -51, 65, 55, 35, -20, -31, 152, -27, -96, 199], [37, 74, 25, 5, 130, 66, 44, -129, -44, 29, -168, 44, -6], [65, -29, 141, 0, -7, 109, 154, -21, -11, 204, -43, 83, -30], [25, -30, -94, 17, -64, -54, 42, -100, -6, -51, -12, -16, -78], [91, -232, 26, 93, 9, -152, 28, 10, 71, -22, -10, 24, 14], [-89, -78, -105, -82, 75, 76, -115, 36, 87, -90, 3, 46, 172], [69, -20, 25, -120, -40, -71, -4, -29, -40, 108, 36, -16, 65], [16, -24, -73, 6, 39, 5, -95, 2, -20, 39, 498, -23, 45], [33, -24, -9, -12, 27, 7, 4, 133, -11, -132, 0, -23, 42], [-101, 106, -17, -20, -42, -13, -102, 43, -135, 134, 18, 11, 77], [111, -63, 35, 3, -15, -123, 50, 143, -25, -62, 30, 31, -66], [79, 5, 107, -352, 37, -185, 24, -27, 58, -136, -109, 105, 22], [9, -73, -63, -25, -63, -93, 29, -8, -15, -47, -67, -94, 109], [-17, 23, 81, 9, 22, -73, -22, -64, -136, 62, -59, 23, -31], [8, -92, 19, -76, 80, 30, 5, 20, -48, -124, 136, 43, -33], [26, -1, 138, 74, -30, 135, 108, -1, 115, 81, -40, -34, -247], [-139, -32, 40, -24, -41, -19, 74, -5, 191, 16, 77, -31, -2], [147, -15, 2, -150, 9, -48, 79, 2, -21, 24, -25, 6, -27], [0, 4, 56, 93, -8, 20, -83, -9, -35, -29, 34, -228, -158], [29, -170, 63, 115, 44, 52, -26, 10, -62, -130, 21, 22, -68], [26, -65, 58, 10, 28, -13, 90, -2, 13, 6, -53, -106, 23], [66, 38, 73, -103, -11, -85, -27, -110, -68, 83, 24, -54, 45], [-38, -59, 9, 9, 18, -22, 8, 207, -31, -18, 16, -96, -3], [-197, -9, 144, -12, 99, -38, -11, -8, 74, 93, -66, 1, -25], [-74, -61, 40, 99, -20, 6, 25, -48, 126, 51, 40, 48, -29], [-19, -158, 91, 6, -6, 60, 6, 19, -27, 46, 51, 22, 5], [-26, -110, 5, 72, 14, -26, 8, -1, 15, -80, -95, 34, 27], [-64, 26, 59, -37, -86, 52, 8, -198, -84, 103, -59, -12, -25], [88, 9, 100, -86, 72, 85, -11, -36, -33, -38, -84, 7, 4], [-215, -26, 8, 152, 37, -7, 42, -54, -30, 45, -35, 55, 90], [-25, -11, -72, 22, -87, -14, 70, -64, -31, -30, 110, -38, -21], [-59, 25, 104, -127, -188, -111, 3, 5, 38, -58, 43, 3, -22], [12, 7, -78, -45, 135, -22, 18, -4, -83, 18, -20, -90, 134], [36, 56, 219, -14, 67, 145, -10, -7, -66, 314, -128, -10, -207], [47, 3, -57, -198, -24, -113, 192, 19, 5, -99, 127, 43, -81], [38, 16, 65, 193, 37, 58, -29, 5, -158, 12, -1, -4, -127], [5, 52, 11, -189, -107, -175, -37, 26, 79, -16, 13, -23, -100], [-82, 17, 167, -21, 8, -11, 69, -124, 23, 190, -24, 48, -7], [91, -68, -57, -44, -47, -69, 9, -106, -128, 71, -17, -41, -39], [52, -14, -53, -3, 13, -77, -103, 170, -3, -83, -39, -65, 22], [-29, -78, -11, -34, -2, 24, 59, -69, -76, 48, 88, -31, 89], [-10, 63, -11, -214, 18, 12, 58, 14, -62, 72, -97, -12, -24], [0, -48, 43, 32, 69, -95, 86, 8, -15, 14, 48, -18, -21], [-56, -20, -40, 54, -25, 114, 29, -22, 16, 21, -72, -104, -70], [-14, 15, -96, -29, -7, -20, 6, 61, 118, 47, -52, 74, 60], [-79, -136, -71, -104, -31, -11, -58, 57, 0, 63, 31, -41, -63], [280, 7, 87, -108, 22, 36, -51, 29, 1, -50, -27, -131, -105], [-11, -1, 1, 136, 54, 23, -10, 10, -90, 29, -9, -18, 20], [166, -2, -69, 80, -4, 9, 39, 1, 22, -24, -27, -9, 24], [-1, 12, 122, 11, -40, -52, 28, -4, -113, 92, 44, 32, 14], [-18, -68, -87, 16, -98, -74, 12, 0, -7, 54, -23, -28, -32], [41, -11, 114, -195, -1, 32, 70, 20, -9, 129, 2, -128, 59], [-49, 94, -21, -18, 40, -58, -4, -115, -51, 62, -70, 39, 56], [18, -31, -16, 81, 27, -16, -31, -52, 4, -93, 61, -39, -74], [-55, -82, -57, 129, -133, -11, -21, -107, -67, 40, -7, -28, 64], [-80, -61, 59, -83, 12, -27, -20, -10, -79, 16, 152, 26, -24], [4, 25, -33, -269, -60, -184, -55, 11, 38, -39, -52, 26, 4], [-2, -22, 97, -162, -65, 72, -24, 3, -135, -180, 86, 88, 134], [-12, 63, 26, -110, -65, 154, 179, -24, -91, 113, -110, 29, 113], [-52, -14, -105, -46, 33, -79, 29, -16, -29, 66, -38, -52, -70], [-124, 9, -75, 6, 22, 64, -51, -51, -148, 100, -21, -155, -39], [-111, -47, 0, -13, -60, 35, -56, 13, -46, -37, 13, -64, -65], [-119, 119, 25, -91, -50, 105, 17, -16, -110, -4, -30, -36, 29], [-126, 58, -52, -32, 16, -44, 12, -51, 193, -13, 28, -44, 6], [79, -27, 74, -145, -19, -177, 7, -92, 59, -1, -4, -39, 16], [-24, -20, -56, 41, 29, -55, 63, -35, -167, -34, 136, -20, -25], [120, 3, -40, 80, -7, -35, 131, -13, -5, 137, -51, -11, 154], [7, -55, 34, 74, 79, -136, 1, -118, -44, 18, 174, -47, -19], [-147, -125, -52, -97, -71, -49, -116, 27, 25, 50, -86, 18, -125], [-116, -35, -35, 76, 32, 45, -50, -52, 2, 32, -5, -64, -36], [35, 72, -49, -59, 56, -83, 78, -19, -6, -97, -97, -5, 16], [24, -62, -51, -78, -6, -90, -85, 47, 12, -85, -45, -13, 104], [-16, -21, -39, -43, -43, 165, 6, -6, 216, -150, -7, -4, -48], [17, -18, -57, -88, -22, -40, 24, 12, 32, -87, 55, -82, 116], [-24, -54, 29, -14, -65, 47, 5, -8, -48, -19, 46, -44, -52], [-2, -28, -23, -64, 7, -60, 101, -17, -41, -55, 8, -33, 34], [53, 87, 8, -87, -33, -17, -52, 1, 29, -159, 18, -197, 51], [82, 8, 3, -179, 99, -218, -25, 9, 38, -84, -89, -33, 104], [33, 19, 111, 34, -17, -202, 49, 32, 20, 133, -109, 6, -41], [102, 82, -62, -54, -51, -116, -44, 54, -27, 138, 73, -35, 1], [-4, 2, 203, -181, 5, 3, -29, -5, 1, 18, 0, -19, -6], [-12, -17, -67, -86, -45, -90, -36, 52, 1, -85, 25, -21, -64], [89, -15, 159, 37, -23, 13, -51, 87, 52, 38, -68, -55, 9], [59, -92, -142, -16, 57, -128, 51, 37, 47, 6, 11, -24, 59], [-148, -23, -19, 8, -19, -28, -23, -24, -31, -59, 78, 110, 34], [-21, 117, 59, 93, -29, 52, -105, 1, 5, -26, -200, -50, -41], [5, -140, 38, -10, -7, 27, 70, 78, 43, 60, -118, -32, -74], [75, -67, 161, 55, 17, 52, 38, -74, -48, -57, -50, -15, 27], [-244, 18, -29, 28, -81, 19, -62, -78, 63, 9, 86, 8, -142], [-101, 25, 170, 128, 36, 12, -77, 46, -55, -41, -29, -90, -66], [-77, 9, 9, 169, -33, -34, 82, -5, -63, 53, 26, -11, -1], [-65, -22, 69, -44, -70, 26, 69, -20, -16, 82, -39, -86, -26], [142, 9, 103, 137, -21, -69, 66, 26, -13, -120, 69, -36, 21], [125, 60, -63, 20, -6, 46, -15, -40, -55, -16, 102, -104, 40], [53, -22, 212, 30, 23, -16, -9, -5, 46, 80, -12, 28, -275], [-51, 19, 108, 154, -55, -210, -49, 13, 19, -28, -80, -55, -78], [74, 15, 11, -56, 66, 76, -97, -9, 3, 211, 112, 5, -72], [78, 61, -22, 18, -10, 3, -102, -141, -46, -131, 58, -33, -75], [71, -148, -90, -120, 79, -26, 14, -9, -18, -55, 211, 107, 53], [22, 108, -9, -75, 50, -71, 18, 5, 95, -108, -111, 5, -81], [28, -152, -14, 47, -10, 36, 62, -19, 106, -24, -24, 13, -6], [-60, -74, -73, -6, 197, -83, 68, -12, 29, -86, 180, -18, 86], [-31, -178, 48, 121, 106, -139, -25, -13, -58, 75, -50, 36, 76], [38, -67, 65, -58, -65, 32, 16, -108, -4, 59, -65, -9, -8], [56, 11, 121, -217, 6, -175, -43, 2, 48, -85, -25, 17, -139], [49, -35, 43, -74, -141, 70, 100, -11, 17, -79, -36, -95, -23], [-86, -14, 95, 53, -79, 17, -129, 47, -11, 9, -96, -8, 25], [-70, -118, -133, 74, -22, 70, 12, 56, 14, -7, -19, -56, -57], [23, 12, -8, 13, -62, -40, 94, 122, -70, -113, -53, -22, -28], [12, -132, -32, -46, 71, 16, 62, -9, 42, -34, 8, -80, -6], [79, 84, -109, 128, -41, -146, -180, -34, 71, 99, -118, 4, -4], [23, -47, -92, 54, -16, -66, 52, 13, 45, -31, -32, 59, 1], [63, -102, -24, -146, 28, 37, 54, -31, -104, -33, -34, 40, 24], [-68, -23, 119, -4, -38, -27, 40, -65, -8, 56, 66, -19, 131], [-35, -55, 83, -123, 11, 122, -19, 13, 29, 30, 16, 0, 38], [-7, 177, -36, -29, 1, -7, 171, 18, -10, 53, -329, -12, -18], [13, -74, -45, -31, 98, 19, -57, -56, 104, -70, -70, -63, 0], [-60, -9, 35, -95, 10, 78, -41, 11, -96, -28, -16, -1, 52], [-231, -1, -31, 52, 79, 199, 40, -76, -60, 52, -119, 53, -103], [-20, -41, -124, -10, 65, -6, 29, 129, 30, -4, -81, -35, -42], [58, 9, 19, 163, -1, -88, 71, -46, 10, -49, -67, -69, -73], [31, -94, 45, 5, 196, -135, 112, 12, -52, -32, -69, 28, -37], [-107, 32, 5, -5, -6, 37, 17, 20, 75, 3, -62, -150, 103], [-64, -114, -114, -40, 6, -10, -40, -11, 15, -78, 5, 2, -37], [-22, -42, 0, -39, 17, 107, 29, -74, 150, 78, 63, -50, 39], [-186, 2, 31, 17, 26, 27, 96, 32, -137, 22, -23, -30, 18], [26, -51, -47, 105, -98, -62, 197, 45, -135, -22, -41, -50, 158], [128, -2, -271, -17, 49, 42, 14, 36, -16, 49, -41, -34, 177], [10, 6, 20, 14, -76, -21, 19, 8, -22, 118, 95, -264, -43], [106, -21, -149, 62, -4, 89, -56, 69, -6, 83, 79, -124, 62], [78, -12, -24, -53, -37, -14, -65, -11, 28, 21, 133, 53, 129], [38, -13, -141, -119, 105, 82, -53, 36, -7, 112, -56, -59, 234], [-15, -1, -28, 36, -76, 34, 110, -69, -38, 71, -83, -8, 29], [97, -44, 71, -84, 19, -90, 112, -19, 15, -120, 20, -36, 31], [23, -60, -4, 51, 6, 56, 28, 47, -146, -54, -43, 32, 216], [46, 19, -189, 50, -3, 0, 79, 3, 32, -55, -26, -5, 159], [4, 93, 88, -60, 20, 84, -36, 19, 94, -50, 21, -131, -68], [-9, 25, -83, -9, -76, 68, -12, -49, -62, 16, 50, 26, 200], [130, 32, -43, -128, 71, 17, 78, -21, 62, -67, -206, 88, 53], [-140, 16, -8, -58, 12, 0, 75, -79, -102, 81, -60, 39, -3], [-45, 92, 45, -87, -65, 112, -145, 0, 8, 0, 9, -152, 28], [-47, -40, 37, -7, 78, 1, -50, -111, -9, 42, -80, -28, 55], [-74, 39, -201, 94, 95, -6, 20, 29, -29, -269, -175, 10, 204], [5, 13, -55, -56, -15, -28, -46, -40, -39, -194, -54, 58, 256], [-94, -20, 5, -3, -78, -18, 0, 75, -43, -98, 73, -159, 75], [91, 51, -25, 65, 61, -24, -6, -24, -27, 66, -29, -112, 44], [-106, 18, 173, 22, -81, -207, 15, 0, 0, -37, -54, -4, 20], [13, -42, -1, -128, 152, 24, -84, -13, -33, -51, 61, -59, -83], [-22, -29, 2, 32, 21, 0, -16, -33, -67, -214, 46, -112, 27], [-66, -35, -49, -74, 23, 107, -15, 41, 74, 10, -15, 9, -151], [14, -40, -66, -60, -14, 50, 131, -5, 188, -85, -71, -17, -28], [-39, -18, -55, 96, -4, -49, 87, 6, -61, 20, -5, -26, -113], [60, -55, -18, -25, 75, -18, -28, -194, 157, -4, -96, 39, 29], [-27, -145, 13, -12, 25, -64, -79, 85, -26, 28, 83, -70, 79], [89, 88, -27, 31, -50, -198, 26, -22, -78, -123, -38, -17, 27], [-189, 83, -142, -27, -48, -46, -41, -36, -55, 4, 33, -19, 96], [60, 51, 28, -17, -74, 65, 60, -21, 131, 89, 30, -89, -157], [4, 121, -65, 17, 154, -230, 66, 14, 40, -140, -226, -23, 26], [-54, -25, -43, -38, -123, -73, 45, -84, 81, -103, 113, -16, -35], [-41, 17, -63, -105, -76, -6, 3, -24, 33, 166, 73, -53, -6], [47, -25, 115, -75, 4, -75, -57, -92, 57, -63, -68, 27, -14], [-6, 50, -25, -153, -18, -11, 35, -107, 57, -58, 59, 42, 68], [66, -7, 203, -33, 127, 88, 4, 4, 77, -183, -68, 4, -210], [78, 26, -5, 72, -17, 50, -55, -95, -14, 9, 43, 21, 9], [55, -5, -66, -102, 65, -8, 63, -139, 45, 2, -71, -51, -136], [63, -185, -101, 121, -10, 17, 74, 32, -66, -60, -140, -26, 142], [-132, 101, 0, -189, 15, -126, -101, 11, -63, -35, -128, 27, -20], [-87, -15, -133, -72, -61, 98, -39, 95, -78, 12, 8, -71, -111], [4, -91, -5, -13, 94, 24, 62, 51, 70, 37, 92, -14, 4], [9, 64, -107, 6, -11, -65, 37, -4, 120, 67, -43, 15, 22], [12, 36, -21, -6, -45, -96, -43, 23, 24, -70, 26, -200, -118], [-82, -102, 85, -16, -33, -33, -28, 53, -19, -57, 19, -44, 45], [-66, 73, -127, 38, 106, 91, 160, 9, -18, 53, 27, -71, 34], [295, 5, -106, 1, -39, 36, -177, -8, -4, -96, 84, -33, 40], [80, 17, -41, 189, -39, -73, -69, 6, -100, 6, -44, -91, -33], [-34, 23, 5, -70, -104, 57, -113, 37, -34, 43, 175, -23, 39], [-36, -78, -8, 35, -138, -22, -51, -14, -78, -108, 74, 56, -27], [-114, 53, 54, -101, 87, -56, 106, 46, 145, 95, -211, 5, 40], [45, -97, -33, -17, 90, 62, -37, -20, -18, -48, -10, 53, -56], [-81, -116, 93, 207, -129, -9, 126, 3, 26, -29, -4, -37, -26], [15, -86, -34, 93, -223, -39, 73, 10, 22, -2, 4, -14, 6], [-38, 31, 312, 30, 15, 39, -102, -7, -38, -57, 142, -15, -198], [4, 2, 99, -31, 78, 53, -3, 8, 77, -3, 52, -125, -104], [89, -26, -107, -231, 27, -87, 23, 62, 58, -40, -119, -14, -130], [-53, -153, -36, 117, 8, 13, -17, -6, -49, -122, 170, 81, 29], [-168, 23, -75, -12, -24, -74, -68, -12, -4, -118, -28, 79, 139], [-13, -65, -20, 5, 3, -18, -31, -61, 33, -47, 38, -30, 53], [-10, 52, 100, 124, -10, -101, -23, 35, -41, 49, -33, -106, -94], [28, 108, 47, -108, 55, -94, -87, 13, 49, 8, -67, -33, -102], [-50, -16, -29, -18, -77, -114, -71, 2, 35, 111, -213, 86, 101], [-204, 10, -42, -12, -8, -42, 32, -19, 5, 22, 21, -28, 171], [-74, -94, 58, -10, -63, -10, -23, -36, 151, 70, -116, 109, -135], [112, 7, -95, -4, -70, 77, -11, -56, -127, 145, 61, -14, -57], [90, 74, -83, -149, 7, 5, -25, -2, -13, 24, -30, -119, -20], [68, -176, 27, 48, -91, -4, -27, 30, 43, -42, -129, -44, -16], [88, 41, 42, 39, 55, -32, -157, -39, 68, 35, 59, -53, -28], [-58, -52, 21, 4, 44, 31, -73, -8, -77, -75, 9, -24, 80], [-7, 7, 18, -98, -170, 34, 60, -9, 137, 28, 391, 49, -50], [-14, 97, -53, 18, -201, -51, 127, -21, -94, -76, 330, -6, 18], [9, 10, -36, -94, -67, -72, -136, -7, 140, 152, 107, 41, -46], [37, 8, -16, 85, 104, 72, 67, -9, -5, 67, -228, -7, -4], [-71, 38, -86, -52, 17, 27, -57, -96, -114, -79, 14, 13, -117], [48, -41, 140, 174, -98, -147, 71, 38, 63, -18, 103, -71, -112], [57, 23, -15, 167, -68, -54, 87, -4, -177, 106, 77, 20, 42], [-84, 11, 1, 138, -38, 39, 26, -17, -51, 65, 93, -106, -1], [-93, -52, -22, -16, 44, 28, 92, -11, -74, -26, 28, -6, 42], [-43, 30, -52, -8, -151, 70, -89, -17, 50, 17, -148, -22, 127], [35, 1, 49, 180, -49, 43, 50, 28, -79, -83, 23, -131, -36], [2, -29, 16, 12, -107, -35, 138, 17, 37, -75, -54, 30, 70], [-12, -19, 29, 36, 23, 15, 45, 49, -187, -18, 5, -78, 40], [35, -18, 34, 8, 24, -52, 153, -38, 14, -87, -64, -107, 126], [102, -88, 4, -71, 23, -2, -24, -88, -66, 10, 24, -11, -16], [-5, 48, 16, -107, 8, 59, -23, -76, 33, 27, -70, -202, -153], [124, 50, -3, 41, -28, 59, -83, 57, -129, -52, 22, -165, -79], [163, 6, 103, -83, 93, 76, 13, 58, -202, 27, -130, -2, 32], [5, 11, -52, 6, 74, -33, 18, 30, 14, -9, -67, -222, 338], [117, -155, -34, -90, 12, 60, 93, -20, 95, -15, 77, -78, -50], [41, 29, 46, -215, -25, -9, 68, 36, 62, -16, 29, -67, 71], [95, 18, -101, -84, -61, 53, -50, 42, -51, -88, -28, -91, 97], [-121, -2, 163, -3, 11, 77, 61, -8, 41, -34, -56, 5, 71], [-17, 10, -67, -75, -99, 118, 35, -36, 106, 142, 79, 12, 63], [-79, -37, -48, -146, -99, -128, 5, 29, 9, 13, -80, 18, 12], [-19, -47, -82, -75, 17, 175, 13, -62, 113, -42, 88, 6, 114], [20, -64, 75, 15, 11, 87, -12, 37, -50, -31, 23, -45, 48], [30, -9, 86, 15, 31, 21, 25, 226, -29, -96, -10, -17, -74], [-20, -48, -89, 90, 4, -5, -44, 22, 40, -83, 85, 5, -54], [41, 3, 164, -178, -13, 82, -37, 19, 23, -128, 62, 56, -108], [3, -48, 158, -151, 7, -10, 51, 50, -25, 31, 111, -45, 53], [211, 21, 87, 23, 10, -92, 20, -185, 102, 87, -86, 20, -78], [47, 7, -57, 30, -27, -99, 222, 28, 31, 214, -86, 26, -30], [-18, 25, -15, 17, -51, 69, 48, 60, -50, -64, 138, -12, -37], [-67, -76, 2, 129, -103, 61, 37, 9, 33, -101, -200, 36, 24], [67, -125, -32, 138, 72, 93, -36, 50, 23, 20, -13, -36, -56], [-113, -7, 7, 60, 52, 65, -39, -10, -11, 46, -51, -60, 0], [-22, -171, -49, 74, -55, -163, -74, -8, 0, -5, -10, 36, 34], [-74, 6, -1, -22, -8, -137, 53, -13, 120, -58, -89, -37, -9], [54, -71, -49, -32, -58, 96, 14, -33, -27, 60, -43, -51, -69], [24, -11, -80, 108, 35, -96, -2, -71, 36, 18, 18, -103, 37], [89, 57, -131, 9, -51, -74, 37, 42, -23, 147, 175, 18, 62], [74, -48, -104, -19, -75, -101, -50, 36, 25, -11, 84, 45, -21], [10, -79, -97, 149, 75, -157, 80, -2, -71, -11, 0, -46, 53], [41, 26, -66, 111, -61, 128, -106, 27, -93, 66, 58, -42, 49], [-39, 69, -52, 27, 11, -5, 17, -14, 58, -10, 21, -84, -112], [-107, 0, -142, 144, 12, -7, 34, 28, -11, -36, 76, -10, 141], [-5, 69, -70, 20, -57, -39, -110, -54, -117, 51, 22, 16, 22], [17, -26, 6, 106, -109, -120, 14, -46, -4, 86, -172, 59, -47], [17, -27, 70, 53, 24, -101, -15, 113, -30, -38, -69, -83, -70], [-14, 117, 73, -3, -62, -198, 59, 18, 63, 18, -375, 57, -75], [-26, -109, 23, 65, 33, -28, -144, 4, -62, 13, 247, -4, 33], [25, -93, 133, -8, 43, 71, 2, 9, -90, 142, 110, 0, 10], [-31, 43, 42, -145, 22, 6, -88, 110, -63, 90, -84, 16, -12], [-69, -67, -66, -20, -127, -121, 50, -24, -34, 5, -104, 57, 27], [29, -46, -57, -104, -13, -42, -21, -3, -54, -119, -4, 16, 72], [4, -5, -46, 9, 56, -175, 6, 12, 255, -116, -65, -4, -205], [31, -26, -17, -126, -90, -48, 20, -53, -126, 39, -3, -22, -122], [-58, 83, -158, 18, 44, 11, -13, -9, -25, -178, -68, -17, 160], [59, -27, -81, 62, -5, -17, 13, -36, 212, -30, -84, 29, -28], [51, -56, 94, 135, 46, 3, 40, 19, -4, 93, 69, 6, -78], [-15, -40, -56, 36, -117, -55, 95, -7, -78, -1, -2, 45, 79], [116, 31, 159, 81, 18, 1, 51, -14, 60, -26, -59, -47, -75], [122, 10, 8, 43, 4, -270, 135, -36, -73, 34, -113, 45, 103], [12, -25, -20, -40, -2, 56, -18, 95, -27, 121, 73, -11, -30], [19, -42, -65, -11, -1, 36, -70, -38, -81, -59, 15, -28, 25], [-131, 38, 39, 13, -32, 127, -2, -73, -74, 45, 75, -7, -94], [-159, 44, -127, -27, 30, -33, 78, -37, 4, 52, -69, 10, -95], [17, 61, -116, -22, 12, 134, 29, 5, 41, 96, -70, -123, 137], [131, -9, -121, 10, 9, 106, -36, 0, -25, 77, 136, 6, -91], [118, -86, 30, 87, 45, -45, -31, 84, 78, 35, 223, -55, -74], [-34, -36, 51, -22, -127, -90, 84, 24, 42, -112, 36, 54, -54], [-122, -52, 229, -8, 54, 17, 100, 9, -21, 40, -11, 13, 38], [-52, 4, -54, -52, -26, -72, 68, 23, 84, -38, -201, -110, -143], [41, 2, -48, 50, 76, 76, 13, 3, 30, 35, 70, 15, -40], [-142, 11, -7, 12, 21, -29, 71, 109, 112, -55, 1, -42, -158], [43, -152, -21, -8, 59, -64, 15, -28, -109, -4, -16, 52, 6], [-87, 41, 61, 118, -54, 270, -46, 24, -85, 34, -53, 2, -64], [-43, 50, 3, -1, -69, 71, 8, -65, -13, -106, -97, 56, -11], [-79, 92, 92, 90, 25, -128, 54, 88, 57, 138, -114, -13, -6], [-11, -62, 76, -38, -63, -70, 124, -42, -78, 16, -18, -6, -35], [44, 10, -9, 17, 7, 65, -81, -53, 77, 78, -139, 9, -27], [-97, 44, 110, 1, 48, 32, -115, -40, -28, -28, -50, -4, 5], [93, 1, 20, 57, -48, -104, -90, -10, -10, 48, 30, -116, 46], [-210, 3, -61, 24, 75, 35, 9, -169, -1, 56, -137, 6, -161], [11, 38, 205, 10, 4, -40, -2, 72, 48, -68, -9, 1, -119], [2, -17, -20, -164, -17, -17, -21, -95, -34, -13, 1, -17, -34], [81, -79, -22, -21, -70, -21, -105, 36, 3, 12, -48, -29, 52], [-38, -55, -73, -176, -37, 41, -100, 4, -39, 53, -65, 127, 54], [201, -3, -171, -30, -52, 22, 29, 45, 35, 14, 99, 23, 46], [1, -61, 26, 38, -99, -188, 87, 19, -30, 29, -100, 59, -70], [10, -133, 80, 21, -33, 12, 52, 3, -10, 100, -90, 11, 11], [8, 8, -120, 35, 2, -50, 10, -74, -139, 21, 136, -75, -21], [-15, 69, -20, -6, -276, -194, -59, 18, 30, 121, 201, -7, 14], [54, -163, -39, 83, -76, -59, 104, -5, -98, 10, -24, 37, -1], [0, 120, 42, 17, 158, 31, -33, -76, -27, -113, -273, 23, -40], [76, -49, 24, 46, -32, 14, 115, -5, -69, 140, 171, -33, 29], [7, -39, -104, 73, 20, 58, 61, -7, -171, 128, 140, -1, 76], [-42, 2, -6, -8, -40, -32, 34, -57, -44, -12, 49, -4, 17], [-63, -9, -116, 13, -18, 1, -33, 7, 76, 122, 40, -38, 127], [14, -18, -48, -103, 117, -31, -23, 83, -14, 16, -111, -76, 119], [-125, 14, 41, -95, 5, -116, -14, 3, 51, -25, -49, -6, 154], [13, -39, -39, -4, -17, -12, 77, 39, -142, 65, 161, -7, -89], [96, -43, 49, -23, -100, -59, 119, 126, -4, -15, 138, -33, -13], [-4, -29, 12, -44, 108, -5, 35, 81, 77, -52, -98, -180, 80], [-281, -37, -38, -10, 32, 25, 33, -114, 13, -15, 56, 37, -139], [149, 39, 6, 27, 38, 136, -5, 126, -52, -73, -122, -7, -72], [-31, -5, 105, -9, 76, -104, -40, 73, 79, 52, -153, -71, 10], [114, 29, 45, -87, 3, -14, 30, 10, -60, 256, -97, 55, -145], [-158, -60, -23, -10, -49, -91, -33, 42, -30, 26, 149, -32, -40], [-105, -11, -23, 97, -96, -195, 42, -5, -12, 15, -176, 53, -26], [-59, 47, 263, 20, -21, 54, 95, -19, -48, 68, -28, -17, -157], [-18, 21, 58, -132, -36, -99, -46, 49, -7, 11, 44, -59, -141], [1, -3, -17, -30, 40, -6, -138, 11, 66, 131, -57, -73, 7], [34, 38, -78, 23, -18, -23, 69, -42, -6, -16, -220, 96, -51], [89, -121, -86, -72, 10, 22, -14, 13, -18, -38, -47, 0, -6], [-31, -33, 3, 16, -97, -5, -36, -30, -97, 6, 213, 31, 126], [25, 196, 4, 4, -22, -1, -30, -29, -8, 143, -104, -77, -38], [-119, 37, 40, -38, -76, -71, 23, 87, -26, -34, 86, -16, 9], [-43, -131, -4, -139, 212, 36, 29, -21, 7, 79, -42, -13, 35], [-107, -15, -10, -24, 135, 184, -24, 61, -73, -153, -56, -10, 99], [12, 64, 30, -43, 65, -40, -66, 54, -111, 1, 66, -50, -68], [30, -36, -78, 7, -52, 43, 29, -50, -76, -73, -54, 53, -2], [9, -94, 91, -15, 56, -39, 42, -19, 25, -30, 162, 1, -47], [-65, -23, -70, -106, -7, -61, -16, -111, -159, -69, -74, 83, 19], [76, -38, -15, 30, -14, 14, 126, 41, -94, -18, 96, -69, 2], [51, -90, 24, 66, -18, 27, 120, -99, 20, -17, 108, 33, -74], [-37, 21, 22, 2, 3, 43, -26, 74, -119, -116, 17, -90, -12], [88, -119, -54, 36, 36, -71, 44, -66, 67, 20, -140, 28, 111], [-30, -32, -21, -70, -9, 72, 3, 9, 79, 339, 155, -43, 14], [66, -26, -5, 32, -71, -9, 60, 29, -25, -57, -37, -76, -16], [-221, 3, -50, -14, 31, 36, 54, -210, -9, -4, -10, 17, -140], [25, -54, -50, -133, 1, 60, -105, 5, -10, 39, -69, 35, 17], [102, -94, -89, 88, -9, 42, 47, 9, -16, -112, 97, -32, 117], [24, -49, -4, 26, -64, -33, -12, 41, 35, -82, -48, -117, 94], [24, -73, 17, -49, -163, 50, -159, 13, 134, 46, -20, 5, -58], [-89, 9, 12, -192, -31, 11, 7, 30, -28, 14, -35, 49, 8], [4, 79, -72, -5, -4, -38, 73, 47, -10, -44, -88, -81, 36], [-88, -57, -248, -123, 32, -36, -25, -5, 6, -148, -15, 118, 117], [29, 23, 169, -14, -35, 24, -96, 31, 17, -68, 7, -37, -91], [3, -3, 72, -78, 95, -176, 36, -6, 27, -81, -114, -78, 12], [30, 62, 76, -27, -12, 33, 96, -69, 10, 0, -76, -54, -105], [49, 62, -69, -48, 8, 99, -167, 54, -68, -68, -151, -15, 110], [76, 59, 110, 79, -199, -8, -48, -108, -74, 132, 133, -19, 57], [-149, 9, -75, 4, -8, 150, -30, -10, -48, -217, 35, 70, 207], [27, -19, -3, 43, -29, -109, 45, 1, 49, 181, -12, -100, 13], [27, 23, 27, -123, 53, 0, -16, 8, -73, 93, 46, -53, -25], [124, -93, -88, 37, 95, -62, -23, -59, 27, -59, -3, -20, -92], [58, -10, 67, -181, 50, 126, -23, 97, 18, 13, -21, -25, 25], [-1, -36, -94, -4, 119, -68, 38, 106, 14, 54, -88, 3, -80], [-7, 50, 61, -42, -43, -55, 26, -2, -66, -88, -53, -144, 66], [175, -20, -64, 12, -3, -6, 61, -31, 32, -26, -10, -211, 19], [39, 21, 51, 123, -10, -116, 130, -25, 65, -175, -47, -68, -130], [28, -16, -115, -54, -57, -32, 33, 56, 94, -62, 142, 2, 12], [-23, 15, -24, 8, 29, -36, 24, -138, 69, -6, -84, 38, -63], [100, -23, -161, 118, 19, 146, -42, -3, -8, 27, 26, -34, -44], [-7, 20, 107, -29, -58, -58, -101, -6, -16, -131, 8, 89, -27], [33, -12, -54, 209, -28, 58, 38, 6, -115, 46, -52, 23, -118], [49, 66, -41, -17, 47, -84, 10, -97, -7, 45, 65, -98, -106], [101, -10, 94, 24, 12, -4, 114, -161, 4, -64, -27, 58, 16], [40, -70, 47, -71, 106, 57, 32, -49, 18, 39, -25, -134, 68], [-41, 20, 90, -181, -43, 21, -46, 57, 83, 153, 52, 48, -21], [-32, -26, 158, -98, -43, 1, 32, -22, 84, 82, 72, 49, 22], [17, 8, 139, 183, -50, -174, -120, 31, 46, -7, 83, -75, -164], [54, 7, -31, -163, -27, -249, -7, 0, 51, 13, -135, 12, -16], [-20, -69, -44, 50, 82, -110, -12, -56, 97, -52, -157, 74, -9], [25, 3, -68, -88, -41, -124, 84, 14, -68, -22, -62, 85, -112], [-41, 44, -33, -40, 145, -35, -60, -6, -4, -138, 183, 23, -25], [-14, 33, 99, -110, -165, 5, -95, 9, -26, -87, -215, 16, 47], [-120, 2, 73, -49, 6, 47, 14, -50, -96, -39, 34, 30, -50], [-41, 1, -298, -14, 5, -2, -86, 3, -1, 2, 2, -24, 379], [-28, -18, -80, 105, -13, 43, 8, 71, -18, -61, 86, -66, 286], [-140, 13, 3, -62, 45, 103, -166, 4, 47, 15, 131, -10, 105], [75, -114, -26, 77, 111, 10, 7, -29, -40, -1, -26, -9, -43], [-207, -79, 91, 24, 7, 99, 38, -4, 135, -9, 9, -12, 48], [-20, -4, -117, 110, 117, 114, -62, -12, -91, -16, 16, 7, 59], [-72, -33, -53, -82, -10, 215, -91, 7, 66, 12, 221, 47, 31], [-13, -69, 19, -56, 102, -36, 129, -13, -14, 132, -36, -18, 21], [-90, 112, -97, -106, 6, 64, -8, -59, -24, -49, -70, 31, 6], [92, 20, -132, 4, 73, 61, -72, 18, 92, 148, -192, 50, 62], [-15, -3, -79, -4, 5, -26, 3, -52, 8, -24, 34, -93, 139], [185, 92, -37, -64, -25, -54, -28, -17, -18, 17, 41, 11, -172], [-30, -32, -34, 102, 43, 16, -56, -47, 23, 143, 72, -199, 158], [-8, 70, 3, -43, -108, 16, -148, -25, 124, 46, -1, -73, 119], [-105, -66, -46, 11, 24, 5, 47, 160, -138, -39, 161, 11, 27], [25, -6, 22, 29, 56, 57, -39, -224, -126, -46, -98, 34, 124], [106, 4, 95, -182, 27, -5, 52, 19, 49, -96, 19, -217, 30], [-129, 179, 94, -29, -150, -79, 82, -20, -82, -36, 262, -14, -39], [34, -107, -29, -25, 172, -118, -34, 10, 22, 54, 99, -35, 80], [126, -18, 0, -29, -90, -70, -77, 40, -7, 6, 33, 13, -116], [53, -41, -147, 85, 44, -47, 120, 55, 134, -67, -17, -18, 168], [-4, -66, -41, 12, 19, 57, -115, -32, -1, 3, -124, -202, 24], [3, -15, -85, -30, -1, 7, 31, -81, -67, -96, -2, 0, -99], [29, 3, -343, -11, -20, -12, -5, -1, -1, 45, 47, -15, 342], [-116, 123, -91, 14, 69, -91, 83, 1, 20, 4, -401, 22, 73], [23, 75, 6, -156, -50, -112, 34, -70, 4, -19, 13, -6, 26], [174, -80, 164, 14, 12, -147, -69, -73, -22, 96, 54, 27, -44], [-15, -9, 26, -5, 41, -6, 66, -53, 19, -62, -99, -64, -26], [36, -141, 0, 33, 170, 50, 111, -7, 3, -3, 339, -5, -43], [93, 5, 53, -133, -97, -53, -94, 23, -74, -89, -62, -87, -2], [223, 4, 13, 11, 0, -67, 38, -121, -47, 46, -7, 10, -133], [-82, 50, -99, -15, 87, 142, -24, -53, -85, -115, -5, 4, 132], [-80, -64, -36, 100, 1, -72, -4, 18, 112, -91, -99, 43, -128], [17, -114, -33, -87, -206, -16, -32, 16, 22, 6, -81, 75, 5], [50, -62, 182, 6, 88, 13, -67, -16, -106, 61, 98, -69, -44], [-60, 35, -99, -98, -70, 2, -58, -55, 17, -20, -9, 46, -81], [24, -38, 78, -52, -11, -67, 6, -12, -21, 70, -83, 119, -6], [149, -36, 79, 47, 61, -12, -180, -24, -77, -43, -166, 73, -68], [96, -92, -2, 96, 3, -24, 42, -70, 52, 20, -46, 14, 105], [35, 5, -33, 76, 2, 104, 125, -1, -64, -103, -172, -1, 87], [10, -145, -46, 254, 107, 11, -9, -45, 47, -69, -100, -19, 62], [1, -45, -9, 99, 38, 86, 30, -27, 11, -45, -109, -1, -14], [30, 21, -76, -15, 13, 1, 6, 181, -39, -84, -30, -20, 59], [-33, -3, 7, -15, -20, 132, -40, 43, 71, -3, 77, -20, 19], [53, -71, -34, -33, -66, -9, 17, -44, 92, -101, 111, -60, -101], [-73, -56, 69, 4, -14, -26, -139, 178, 17, 66, 46, -63, 92], [-48, 34, -142, -5, -22, -22, -62, -146, -13, 58, 37, -3, -174], [-12, 81, 125, -22, 81, -40, -6, 18, 32, -83, -75, 22, 35], [-125, -1, -128, 31, -83, 75, -190, -10, 9, 122, 2, 37, -35], [-108, 24, -90, 211, -77, 54, 75, 34, 36, 24, -11, -82, 81], [-80, 23, -35, -189, 3, -63, 115, -7, 28, 74, -92, 42, 65], [11, 78, 51, -48, -92, 114, 19, -18, 23, 54, -6, -80, -129], [2, -1, -109, 28, 56, 50, -78, 84, -42, 58, -36, -129, -171], [4, 43, 126, 146, 60, -38, 116, -52, 54, -10, -157, -60, -7], [-13, -30, -6, 24, -37, -116, 16, -50, -35, -48, -127, -3, -74], [-119, -83, 81, -22, 59, -51, 79, 26, -28, -139, 229, -1, 122], [-102, -29, -15, -73, -122, -52, 21, -123, -61, 69, 18, -98, 13], [-65, 94, 59, 81, 126, -155, -105, 3, 49, 84, -160, -21, 109], [63, -32, 149, 10, 5, 85, -125, -12, 0, -103, -61, 13, 10], [30, 178, -167, -16, 23, 28, -103, -36, -85, -29, -80, -47, 37], [23, 94, 25, -179, 64, -71, 80, -3, -19, -99, -7, 27, 45], [5, 39, 13, -44, -10, 58, -52, 10, 14, -257, -141, -20, 0], [-47, 8, -37, 25, -93, 87, 112, 75, 58, -98, 38, -209, -147], [115, -28, 29, -159, 42, 114, -25, -2, -67, 14, 2, -114, -38], [-44, -32, 101, -40, -64, 30, 46, -15, 10, 1, -13, -144, 43], [-39, -18, -82, -19, 25, -32, -92, 182, -7, -159, -68, -34, 42], [-134, -51, -5, -65, -45, -102, 27, 57, -51, 70, -124, -2, 68], [0, -25, -35, 162, -74, -47, -26, -54, 41, -55, 112, -92, -39], [-195, -4, 123, -37, -73, 47, -7, 13, 14, -90, 127, 18, 114], [59, -24, -3, -21, -3, -16, -55, -69, -36, -25, -101, -8, -68], [-12, -70, -130, 54, 99, -3, 183, 6, -28, 42, -64, -160, 25], [4, -13, -85, 126, -131, 35, -23, -9, -127, -5, 216, 8, 81], [7, -34, 32, 100, 22, 55, 109, -22, 90, 130, 150, -136, -20], [34, -101, 53, 13, -12, -10, -19, 2, -49, 16, 183, 26, -60], [-18, -29, 74, -11, 15, -29, 27, -58, 21, 10, -2, -78, 38], [167, -4, -90, 6, 24, 82, -41, 35, -58, -25, 56, -30, -95], [127, 7, -164, 86, 23, 133, 68, 0, 3, -94, -90, 1, 31], [-38, -119, 30, 90, 71, -72, 43, 67, 12, 46, 17, 41, 90], [116, 4, -20, -205, -39, -77, 10, 40, -17, 122, 73, -53, 244], [-14, -29, -26, -24, -76, -92, 73, 54, 27, -10, 134, -52, 7], [-29, -45, -101, 33, -30, -50, -85, -6, 181, -24, -117, 30, 3], [10, 30, 2, -139, 9, -45, 110, -5, 84, -106, -111, 19, 47], [30, -141, -61, 53, -36, -43, 117, -4, 105, -40, 63, 87, 0], [46, -295, -26, 0, 15, 81, -53, 9, 2, 61, 29, 98, -19], [203, 7, -82, -44, -41, -7, -6, 9, 16, -1, 17, -54, -79], [149, -62, 57, -74, -23, 18, 12, 0, -25, -13, -72, -68, 100], [-45, -137, -41, 107, 27, 73, 24, 24, -29, 37, -29, -16, 35], [44, -73, -13, -11, 27, -116, 50, 13, -22, -77, -74, -44, -66], [40, -125, 26, -30, -21, 11, -70, -56, -46, -3, 81, -36, 18], [35, 49, 60, 3, -21, 61, -6, 146, -56, 42, -2, -37, -115], [-13, -65, 103, -79, 29, 6, 37, 170, 17, -112, 29, -246, 52], [-51, 19, -9, 64, 39, -166, -34, 50, 76, 142, -21, -158, 105], [-42, 1, 57, -196, 30, -26, -59, 3, 210, 171, -1, 4, -21], [17, -6, -42, -71, 76, -27, -133, -29, -53, -76, -11, -132, -46], [-11, 50, 8, 8, -15, 52, -60, -261, 9, -40, 50, 36, 14], [54, -41, -70, -81, -21, 4, 65, -77, -22, 108, -96, 16, 165], [-93, -52, -94, 45, 120, -4, -76, -114, 96, 2, -30, -24, -16], [-7, -2, 1, 111, -39, -48, 58, 11, -90, 83, -50, 73, -11], [-6, -124, -92, 33, 40, -1, -29, -16, 64, 51, 18, 27, 2], [89, -37, 11, -30, 18, 7, -5, -15, 6, 47, -31, 124, -6], [-108, -9, -38, -9, -3, 53, 19, 13, -77, 28, 70, -76, -20], [-74, 4, 221, 0, 71, 49, -118, 71, -55, 63, -60, -158, 38], [4, -84, -8, -41, 6, -85, -35, -6, 4, -2, -91, -11, 80], [23, -148, 54, -11, -199, -87, -23, 20, 62, -15, -95, 7, -45], [119, 59, 27, -64, 4, 102, -29, 17, -57, 121, 38, -122, 40], [-98, -119, 79, 97, 66, 47, -31, -104, -50, -7, -89, -47, 110]], "bot_l_0_bias": [-121973, 101005, -53793, 8674, 59867, -26833, -83620, 35760, 122632, 29582, -39495, 21459, -73874, 54518, 34552, -94410, -1088, 67845, -32634, -24992, 139643, -33327, -73206, -19661, 72092, 3276, 22991, 269916, -108207, 30597, -105745, 30702, -71179, -101350, -16728, 253898, 85403, -76745, 40380, 87696, 22022, -163353, -40783, 82345, 6353, -46778, -101935, 9343, -139778, -142778, -228620, 31150, -150797, -57285, -89746, 34761, 215391, 144192, -37483, 7190, 182558, -51318, 135492, 64940, 230530, -17378, -33895, 88653, -29478, 60551, -66004, 102868, 5291, -33843, 59133, 128602, 149056, 266, -134903, 10685, 22204, 36587, -66062, -261622, -42997, -28091, 202, -74503, -8817, -37308, 20191, -105520, 9885, -75226, -13409, 6801, -53809, 28698, 76669, -89395, -48220, 68523, 2129, 73330, -19797, -782, 132316, -31135, -80728, 45379, 54426, 52346, 78750, -60961, 49411, 75142, 211076, -93434, -37757, 5117, 16068, -131374, 71783, 16511, 109037, 13346, -69221, 36486, -6062, -36651, -17432, -89274, -94280, -23386, 23758, -83069, -116672, 2647, -11906, 33295, -53239, -57776, 39157, -32095, 59786, 37148, -21068, -57235, 86159, 18173, -62211, -60107, 37467, 23150, -31555, 70820, -151427, 121914, -33585, -53613, 3739, -71277, 31661, -7450, 149366, 29585, 81643, 152068, -122707, -206817, 9393, 38061, -85380, -44942, -45452, -5015, -43295, -147267, -22864, -7596, -62884, -32509, -93787, 1889, -78154, 57952, 74824, -14772, 2384, 107748, -21421, -6691, -16954, 27974, 10564, 130062, -46695, -47675, 15076, -25499, 73276, 16293, -199691, -21284, 13112, -145265, 56002, 17939, -135028, 24968, 68339, 54304, -88436, -44471, 86908, 148281, -68521, -10079, -8052, 80305, -26002, 3664, 96527, -74195, -153595, 13394, 62522, -104373, -150057, 50739, -88242, 14581, 67849, 78315, 11634, -47542, -60219, 31753, -58342, -27785, -30181, -59779, 26099, 65305, 72048, -40201, -58931, 34920, 19644, -27558, -68251, 94678, -49812, -17181, 111027, 9199, 5925, 74407, -66479, -20495, 23539, 58579, 160122, -162544, 13809, -990, -73121, 78894, -46337, -112169, -21577, 24745, 13250, -28097, 59060, -37682, 34984, -190489, 5566, -23120, 25126, -60021, 16967, -85653, -112535, 83852, -88859, 33457, -96834, -96958, -41861, -2263, 32176, 45735, 89505, -113309, -143744, -125603, -62474, -17792, -11698, 30761, -274, 20591, 14763, 115902, -110563, 23104, 99339, -2538, -152032, -32504, 66724, -48833, 16279, -267026, -81682, 50447, 5448, -39665, 125047, -224091, -18378, 128915, -133713, -74169, -86959, 56645, -38766, 26272, -69274, -281511, 71895, 80019, 46983, 46833, 12515, 12187, -3592, -100687, -83295, 20408, -181177, -21097, -88852, 50685, 77359, 53439, 108496, 217786, -125007, -10257, 4402, -34379, -78717, -31149, 102668, 21456, -66347, 134510, 13378, -55495, 41833, -33182, 122192, 104451, 12010, 104246, 105564, -44545, 53491, 174023, -58716, 165019, -70248, -49105, 80195, 216930, -57242, 9427, 13418, 15482, -10423, -59137, -50763, -38417, 112146, 21435, -46797, -35737, -16823, 29302, -264337, -50483, -34207, 108321, 9790, -38387, -53093, 77739, 42262, -103632, -21693, -107820, 96461, -93950, 124452, -19906, 16570, 54129, 79793, 46025, 49285, -10383, -20164, -238258, -80261, -75682, 37912, -55007, -61478, 62508, 6191, -142392, -37856, 7805, -171042, -42294, -12578, 82231, 38883, -31512, 66764, -49997, 61747, 57147, 120860, 41420, -70813, -64149, 171963, 28941, -130240, -73399, -167, 66390, -45961, 98893, -88707, -2428, 67053, -71468, 130578, -320752, 178780, 1900, -80210, 24713, 39959, 5019, 23969, -28582, 57258, -244822, -21802, -145174, -79618, 161379, -16728, 100875, -62093, 19776, 35823, 77968, -77753, -46236, 12328, 7700, -37455, 197900, 48829, 16058, 6428, -8662, 63025, 46270, 3108, -61257, -14409, 98430, -23995, 27747, -10409, -26939, -14509, -43437, -37532, 107142, -75114, -32178, 189110, -80911, -53992, -186095, 4586, -220017, 101037, 33403, 67166, 124754, -33304, -91891], "bot_l_2_weight": [[70, -17, -34, 51, -34, 1, 4, -69, -31, -28, 8, 20, 75, 34, 41, 36, -107, 44, 11, -48, 36, -53, 61, 80, 4, 85, 54, 89, -69, -24, -14, -60, -78, 54, -95, -15, 64, 19, 44, 38, -7, 86, 66, 21, 42, -37, 63, -3, 41, -106, 125, 15, -104, 94, -36, -62, -23, -1, -31, 117, -59, -16, -14, -22, 63, -22, 38, -17, 4, 102, -61, 60, -61, -22, -94, 18, 0, 53, 29, 66, -71, 80, 4, 33, -12, 40, -29, -72, 7, -33, -13, -132, -27, -77, 45, -63, 30, -93, 73, -51, -102, 55, -32, 55, -55, -88, 23, -30, -27, 23, 43, 12, 9, 24, 25, 1, -8, -138, -30, -110, 34, -12, 13, -24, -1, 15, 17, 9, -42, 46, 71, 2, 26, 31, -70, 17, 7, 24, 26, 52, 49, 33, 47, -67, -99, 62, 14, -23, -2, -21, -37, 99, -102, 100, 61, 10, -40, 49, 11, -23, 40, -24, 93, 110, 79, 35, 43, -16, -37, -52, 10, -24, -45, 79, 159, 125, 14, 7, 13, 65, -111, 0, -68, 18, 98, -97, 9, 81, 32, -72, -24, 49, -35, 8, 5, 13, -19, 18, -9, 20, -3, 2, 44, 111, 30, 19, 66, -105, -46, 46, -29, -101, 113, 15, 21, 25, -48, -77, 13, 12, 62, 29, 11, -35, -34, 51, -60, 50, -79, -62, -21, 27, 49, -88, 12, 91, -127, -86, 44, -20, 17, 22, 4, -6, 22, 78, 114, -53, 42, -22, -16, 6, -40, 38, 24, 28, 71, -26, 10, -12, -62, 86, 31, 42, 21, 53, 0, -37, -4, -57, -103, 1, 82, 13, 93, 25, 17, -45, -11, 53, 19, -7, -96, 64, -42, -88, 12, 28, -29, 15, -44, 60, -75, -99, -8, 127, -23, -20, -22, 0, 7, -18, 16, 2, -65, 22, 13, 29, -44, 16, 25, 14, -25, 41, -39, 71, -7, 59, -21, -6, 53, -51, 43, -58, 23, -51, -2, 69, -20, -1, 37, 24, -61, 24, 104, 93, -8, 73, -77, 82, -4, -66, 12, -11, 77, 30, -6, -72, -11, 18, 0, 61, -8, -11, 39, 6, 27, 13, 48, -20, 105, -126, -23, 30, 6, -24, -37, -7, 7, 21, 23, 8, 40, 55, -49, 20, -114, 19, 15, 1, 17, 17, -68, -6, 13, 12, 74, 3, 40, 51, -48, 65, -108, -49, 15, 54, 49, -17, -48, -67, -34, 5, -9, -18, 18, -99, -7, 43, 1, 6, 10, 20, 14, 40, 1, 75, -38, -13, -57, 40, -72, -16, 5, -87, 23, -122, 37, 10, -40, 0, -27, -22, -21, -54, 46, -42, -20, 49, -48, 59, 96, -51, -25, -37, -17, 38, -10, -2, 55, -44, -40, -51, 46, 31, 102, 41, 17, 28, -50, 27, 26, 29, -10, 73, 70, 57, -30, -115, 25, 56, 0, -35, 97, 28, -89, 35, 52, -1, -61, 42, -28, 43, -2, -92, -93, 14, -62, -36, -1, -56, -36, 1, -45, -59, 18, -49, 51, -23, 22, 91, 103, 15, 14, -25, 87, 34, 11, -3, -90, 68, -56, -25], [-13, 7, 36, 27, -109, -5, 49, -82, -23, 26, -89, 55, 5, -99, -10, -72, -32, 67, -23, 11, -10, -57, -44, -17, 9, -68, -15, -104, -10, 30, 98, -33, -42, 30, -3, -93, -47, 62, 27, 10, -97, 1, -46, 5, 6, -50, 73, 60, -8, 16, 87, 63, -16, 37, -31, 122, -44, -47, -166, 23, -5, 45, 27, -29, 16, 13, -2, 47, -36, 38, 33, 52, -26, -43, -50, 37, -45, 21, 80, -2, -56, -2, 13, -56, -53, 22, -83, -32, 106, -91, -6, -27, 14, -64, -64, 10, 67, -5, 41, 35, 87, -25, 75, 63, -105, -44, -35, 78, 64, -31, -21, -11, 22, 86, -11, 45, 32, 10, -21, 6, -22, 24, -31, 46, 23, -63, 0, -70, 107, -75, -16, 75, -26, 12, -23, -20, -53, 1, -1, 0, -74, -14, -13, -88, -32, -41, -15, 1, -74, 49, 13, -81, 94, -96, -91, -60, 99, 21, 12, 4, 109, -21, 82, -27, 60, 5, 31, -82, -59, -37, 25, 3, -25, -88, -171, -12, -14, 7, -64, 134, -11, -1, -45, 16, -42, -35, -55, -40, -47, 96, -10, -15, 56, -115, 60, -60, -33, -12, 1, -134, -6, -18, -42, 7, 46, -97, -15, -8, -58, -8, -9, -56, 188, 20, -18, 60, -7, 48, -73, 19, 0, -3, -3, 19, 69, 62, -50, -18, -8, 20, -40, 59, -25, -36, -61, 9, 32, 12, -23, 34, -55, -45, 17, -37, -66, 30, -23, 38, 98, -6, -15, 92, 0, -9, 22, -8, 63, 10, 17, -108, -31, -42, 128, 44, 25, -6, -4, -74, -29, -56, -68, 58, 39, -75, -80, 26, 55, 40, -43, -3, 22, 36, -4, 48, 41, 18, -11, -45, 24, 3, -49, -38, 13, -71, -26, 27, 36, -24, -60, 3, 12, -43, -69, -87, 32, 11, 57, -49, 7, -89, -40, 45, 8, 16, 28, 89, -3, -35, 9, -96, 37, -5, -28, 21, 97, -1, 7, -1, 1, -103, 3, -100, 94, 47, 43, 38, 53, 2, 39, -133, -25, -46, -27, 17, 13, 12, 42, 57, 110, -126, 36, 82, 53, 38, -41, 27, -85, -42, -29, 48, -39, 24, -29, 58, -69, -31, 3, -10, 0, -25, -23, 80, 165, -14, 23, 6, -57, 59, -39, -18, -39, -126, -39, -28, -49, -20, -14, 17, 38, 51, 9, -57, -66, -5, 44, 6, 47, 41, 23, -95, -117, 30, -30, 10, -46, 89, 48, -44, 5, 6, -13, -5, 54, 6, -44, 12, -5, -85, -32, 4, -74, 45, 30, -26, 9, -2, 71, -36, 56, -101, 33, -11, 0, 64, 87, 61, 0, -18, 32, -26, 165, -72, 28, -70, 17, 5, -9, 25, -105, 86, -1, -91, 113, -10, -8, -38, -78, -4, -51, 24, 105, -4, 4, 12, 18, -34, -17, 71, 100, 50, 51, -40, 10, -146, -79, -105, -3, 72, 46, 17, 18, 21, -100, -29, 32, -51, 14, -106, -18, -38, -30, 6, 18, 10, 10, 24, -16, -30, -71, 44, 2, -82, 2, -69, -57, -4, 38, 74, 0, 54, -78, -87], [-58, 58, -36, 53, -10, 65, 22, -14, -9, 24, -43, 133, -61, -65, -38, 76, -22, -15, 96, -31, 130, -47, -12, 36, -27, -32, 102, -80, 25, 2, 30, -46, -67, -9, -27, 42, 14, 11, 81, 63, -89, -3, 15, -7, -92, -1, 61, -22, 0, -125, 50, -10, 34, -16, 45, -19, -82, 26, -85, 40, -56, 61, 47, 50, 25, -14, 41, -16, -61, 69, 50, 24, -58, 2, -77, -35, 9, -15, 63, -42, 48, 25, 28, -22, -27, 58, 29, -16, 54, 17, 34, 46, -82, -28, -51, -93, -78, -33, 8, -71, 48, 73, -34, 103, 27, -83, 5, 37, -106, -57, -67, 6, 18, 4, -36, 56, 53, -44, 58, 54, 92, 84, 110, 72, -81, -14, -36, -15, -25, 99, 12, 40, -93, -51, -88, -32, 3, 102, 49, -39, -2, -41, 60, -45, -40, 66, -4, -23, 2, -10, 15, 2, -100, 40, -97, 2, 45, 30, -38, -73, 58, 37, 27, -17, 42, -21, 15, -39, -30, -29, 29, 3, -119, 0, -46, 65, -15, 14, 6, 27, -81, -49, 4, -72, -112, -21, 44, -1, 12, -33, -44, -8, 9, 26, 53, 19, 25, -48, -66, -57, 56, 39, 17, 53, -4, -73, 48, -18, 27, -52, -33, -2, 10, -2, -87, 60, 72, 27, 81, 34, 66, -32, -95, 122, -8, 59, 14, -49, 32, 49, 66, -7, 49, 4, 74, 109, -37, -49, -2, 25, 54, -1, -45, -70, -4, 77, -64, -12, 59, 1, -19, 43, 31, 46, 49, 16, 11, 10, -33, -22, 31, 22, 15, 56, 34, -12, 23, -135, -13, 27, 71, -51, 6, -27, -54, 17, -16, 29, 34, 49, 29, 20, -3, -14, -111, -9, 21, -89, 42, -58, 29, -28, -24, -25, 72, 34, -131, 14, 38, -16, -78, 87, 52, 38, -11, -15, -44, -56, -9, 70, -100, 52, -36, -8, 20, -126, 6, -42, 74, -6, 3, 4, 71, 15, 43, 57, 57, -35, 34, -108, 39, 65, -20, -141, 72, 18, 11, -15, 87, -39, -32, 3, 54, 26, -49, 35, 16, -48, -42, 20, -3, -51, -46, -17, -107, -52, -48, 15, 103, 39, 47, -111, -16, 58, 76, 5, -16, 33, 121, 25, 116, 24, 85, 37, -38, 14, 17, -1, 27, 9, -65, 60, -78, 26, 43, -8, 15, 125, -17, 37, -70, -43, -70, -42, -48, 37, -93, -20, -27, -11, -56, 30, -48, 4, 53, -40, -20, -34, 40, -38, 6, 19, 3, -29, 31, 65, -64, 49, -54, 33, 90, 57, -55, 93, 29, 19, -18, -23, 42, -13, 46, -22, -106, -40, -9, -111, -41, -11, 42, 21, 55, -59, -23, -20, -50, -45, 21, 51, -83, 3, -16, -62, -74, 40, -20, -4, -25, 22, 3, -37, -7, 52, -76, 10, -30, 28, -68, -57, 44, -28, -51, 53, 34, 43, 111, -64, 113, -11, -62, -77, -15, -41, -15, 34, 58, -18, 107, 63, -16, 70, -16, -58, -65, -13, -34, -39, 25, -30, -27, 24, -104, 23, -30, 40, -18, -109, 21, 45, 12, 12, 28, 27], [-88, 81, -95, -84, 11, -64, -53, 79, 11, 12, 10, 50, -85, -85, -52, 50, -72, 69, -45, 1, -71, -53, 98, -22, -97, -16, 38, 66, -60, -4, 8, 85, 18, -32, 67, 26, -11, 19, 13, 14, 53, 45, -52, -31, 9, 22, -5, 22, -6, 27, -46, -11, -52, 12, -15, 74, -49, 38, 58, 47, 0, -104, -37, 3, 20, -82, -114, -5, -34, -34, 35, 9, 7, 62, 1, 153, 30, 31, 45, 2, 21, -116, -14, 43, -7, -69, 100, -48, -60, -129, 68, 55, -48, 15, -8, 27, 57, 45, -10, 43, 49, 23, -5, -37, -64, 15, 36, -55, -25, -69, 24, -83, -57, 37, -17, -44, -22, 47, -47, -57, 23, -85, -43, 29, 7, -5, 49, -42, -95, 28, 28, -16, 111, 17, -12, -91, -10, 80, 24, 21, -12, 73, -42, 10, -28, 38, -23, 81, -57, 16, -16, -41, 57, 36, -30, 73, 96, -12, -20, -82, -43, 74, -22, -79, 17, -19, 50, -32, -4, 74, -71, -36, -48, 0, 53, -21, 44, -78, -45, -67, -75, -6, 121, -3, 8, 100, 21, 22, -70, 52, -38, 37, 10, 31, 4, -30, -22, -2, 4, 69, -26, -13, 57, 81, -28, 35, 43, 56, 17, -25, 9, -47, -138, 10, 42, 31, -81, 42, -35, -89, 0, -65, -5, -100, -125, -36, -8, -130, -65, 20, -1, -36, -62, 108, -45, 115, 22, 0, -37, -16, 11, 19, -7, -162, 57, -22, 23, 75, -40, -21, 54, 11, -20, -4, -34, -25, 62, 14, -33, 25, 200, 33, -26, -2, 109, 80, 6, -5, -54, -70, 2, 30, -55, 22, -28, 68, -8, -17, 1, 15, -31, -80, 58, -93, -70, -81, -90, -26, 14, -87, -50, 32, 0, -12, -1, -39, -37, -8, -7, -24, -18, 13, 13, 55, -9, 76, 4, 14, 25, 79, -31, 110, -97, 16, 24, 48, -128, 93, -120, 0, -127, 5, 38, 49, -66, 51, -6, -9, -70, 72, -70, -48, -58, -32, -21, 20, 53, 98, -77, -71, -36, 31, -1, -36, -8, -6, 19, 42, -87, 35, -22, 48, 45, -41, -28, -11, 6, -11, -23, -20, -35, 35, 13, -57, 48, -1, 87, 25, 28, 11, 0, 47, -119, 34, 2, -49, 48, -56, 40, -18, -26, 6, 47, -32, -43, -20, 58, -11, 19, -1, 65, 26, 18, 73, -42, 38, -66, -29, -9, 47, 61, -140, -32, -14, 47, -23, 9, 34, 11, 48, -56, -1, -51, 39, 51, -19, -27, -29, 22, 21, -89, -7, 54, -40, 36, 23, -36, -66, 46, -24, -90, 78, -21, -18, 33, 126, -11, 83, -20, -30, -5, -35, -24, 38, 14, 82, 60, 33, -115, 20, 71, 14, -42, -4, -32, -18, 88, -9, -154, -14, -48, -2, 41, -12, 19, 52, -61, -42, -34, -5, -4, -34, -41, -22, -94, 40, -6, -80, 40, -42, 0, 9, -149, 47, -17, 42, 20, -107, -96, -42, -5, -29, 45, -35, -98, 46, 6, 46, 43, -102, 64, 59, -29, -25, -52, 32, 53, 41, 53, 63, -20, 39], [-38, -69, -28, 27, -150, 18, -34, 12, 96, 18, 58, -95, -10, 66, -32, -37, -34, 62, 121, -29, -23, 8, 14, 34, -69, 104, -6, -93, -121, -51, -61, 47, -33, 47, 70, 132, 14, 15, -35, -48, 11, -70, 30, 59, -1, 32, 12, -25, -8, -36, 10, -47, -113, 22, -23, -35, -63, -1, 0, 139, 21, 31, -33, -31, -96, 23, 28, -48, -42, 22, -62, 84, 31, -60, 20, -72, 50, -82, 52, 40, -54, -10, 28, 69, 38, 63, 17, -46, 8, -109, -91, 52, 65, 22, -63, -6, 23, 76, 59, -8, -3, -42, 37, 7, -20, 66, 15, -43, 78, 61, 106, -19, 46, -9, 161, -10, -37, 29, -24, 28, -52, 68, 43, 1, 100, -30, -33, 58, 16, 3, 83, 36, -44, -63, 68, -69, 62, 80, 45, 52, -46, -6, 55, -46, -6, 81, 111, -24, 22, 12, -41, -25, 26, -54, -24, -36, -44, 26, -41, -45, -45, 98, 16, -35, 91, 26, -20, 20, 24, 47, 64, -9, 77, -45, 34, -6, 51, -33, -13, -25, -22, 32, -1, 24, -23, -38, 48, 40, -21, -13, 15, -34, 27, -41, 68, -28, -12, -15, -32, -44, -2, -39, -67, 22, 113, -5, 12, -1, 76, 69, 57, 11, 3, 11, -59, -76, 15, -19, -67, -106, -86, -70, -110, -13, 21, -8, 6, -84, 31, -40, -12, 73, -10, -96, -99, 2, 26, 63, -80, 30, 56, 10, -86, 22, 0, 162, -9, 39, -13, 0, 39, -11, 35, 15, 24, -20, 22, 51, -29, -63, 74, -36, 21, 22, 17, -8, -25, 42, 50, 114, 3, 7, 57, -24, -26, 89, 27, -9, -45, -31, -18, 4, 1, -41, -110, -10, -78, -43, -91, -20, -16, -4, 11, 114, 12, -91, 10, 6, -5, 15, -61, 19, 5, -3, 26, 46, 18, -30, -42, -42, 71, 69, -17, -84, -65, -24, 16, 2, -8, 28, 58, -57, 19, -51, -13, 57, -61, 103, -65, -74, 137, -17, -47, -4, -31, 60, -40, 78, -2, 18, 65, -102, -85, 56, -55, -25, -32, -46, -4, 42, -48, -26, -29, 38, -102, -112, 0, -29, 36, -95, 126, -52, 65, 7, 35, 19, -12, -4, 55, -63, -1, -38, 8, -29, -36, -38, 36, -74, 128, -3, -74, -46, 45, 106, 8, -21, 67, -12, -10, 27, -68, 1, -55, 35, 0, 10, -33, 7, 24, -47, 66, 4, -30, -16, -18, 3, 47, 98, -22, 27, 112, 29, -142, -93, -15, 43, -18, 4, 28, 64, 41, 139, 17, 0, -47, 18, 8, -5, -9, -17, 5, -3, 67, -64, -61, -50, -54, -54, 31, 42, 83, 8, -87, -32, -20, 53, 31, 20, 42, 5, 8, 29, 28, 92, -50, 10, -105, 28, -70, 9, 23, 40, -29, -76, 41, -44, 72, 53, 25, -12, 50, -115, 46, -20, -111, -35, 7, 42, -36, 9, 50, 52, 35, 59, -15, -107, 57, -57, 103, -41, 55, 6, 9, 21, -12, 31, -56, 32, -77, -13, 63, -33, 28, -30, 30, 7, -29, 77, -52, 15, 23, 17], [57, 29, 76, -25, -75, -67, 2, 44, 16, 56, 44, -63, 83, 1, -30, -50, 57, -72, -41, 23, 22, -134, -42, -37, 75, -78, 65, 14, 28, 60, -25, 32, -2, -17, -38, -70, 23, 74, 31, 7, -38, -71, 17, 104, 18, 15, -21, -2, 86, -16, -50, 87, -37, -61, -3, 75, -58, 6, -158, -40, -19, 7, -42, -7, 61, -39, 20, 44, -44, -12, -15, 35, -137, 35, 6, -28, 75, 117, 50, 118, 121, -26, -2, 122, -16, 37, -25, -35, 24, 82, 33, -45, 90, -112, -65, -52, -64, -28, 55, -3, -36, 15, -153, -42, 41, -61, -44, 18, -12, -39, 39, -63, -90, -38, -12, -30, 21, 30, -40, -39, -8, -17, -40, 2, -66, 53, 20, 32, 107, 48, -8, -100, 21, -15, -25, -38, -27, 45, -1, -24, 13, 44, 16, 37, -36, 65, 0, 40, -92, -20, -59, -28, 39, -11, 12, -65, -12, 20, 120, 9, 3, -44, 34, -23, 40, 68, -56, -62, -18, -11, 64, 42, -52, 28, -15, -11, 57, -4, -11, 29, -69, 104, 24, 67, -7, -57, 48, 50, 9, -19, -68, -74, 0, -40, -72, 64, -118, -119, -12, -27, 14, -37, -11, -87, 74, -2, -10, -133, 33, -64, -17, -14, -69, -50, 4, -55, 77, 49, -2, 99, -29, 11, -19, -24, 44, -80, -15, -45, 11, 84, -8, 24, 161, 17, -100, -73, -67, -73, -22, -25, 32, 40, -59, -43, -8, 20, 18, 80, 65, 16, 9, 21, -89, -62, 29, -20, 104, 18, -30, 52, 35, -33, -77, -22, 33, 31, -104, 66, 12, 36, 68, 1, -9, -21, -11, 33, 73, -1, -22, 14, -8, -25, -45, -79, 35, -61, 42, -116, -78, 11, 45, -18, -37, -106, -77, -6, 28, -65, 21, 37, -62, -39, 89, -26, -15, 82, 51, -12, 15, 32, -9, -4, -56, 7, 36, 38, 62, -3, -33, 79, -27, 35, -48, -23, 22, -57, -70, -26, -12, 17, 101, -44, -50, 30, -80, 3, 33, 33, 39, 1, -58, 60, -27, 16, -84, 7, 48, -33, 19, -8, 67, 88, -34, -21, 13, 44, 66, -50, -51, -44, 77, 32, -43, 2, -56, -6, 42, 147, 8, 11, 78, -32, -18, 21, 18, -20, 33, -17, 6, 81, 8, 94, 46, 41, -15, -126, -53, -12, -9, -36, 37, 31, 53, 68, -13, 72, 0, -47, 11, 37, -61, -25, -34, -35, -40, -43, 43, 76, 3, -20, 17, -148, 17, -5, -26, -65, 81, -43, -35, -76, -9, -21, -17, -2, -29, 7, 19, -42, -52, 91, -26, 30, -141, -27, 83, 56, 45, -35, -16, -27, 143, 46, -18, -27, 101, -95, -43, -27, -21, -88, -39, 112, 58, -1, -100, -83, 67, -58, 10, -81, 10, 138, 31, 88, 45, 47, 61, -78, 101, 47, -15, 57, 56, -47, -30, 19, 26, -77, -53, 37, -7, -22, -6, -16, -38, -17, -19, 82, -24, 29, 66, 20, -76, -28, 111, 30, -32, 37, -10, -4, 18, 2, 14, 9, 1, -149, 62, 87, -21, -5, -80, -61], [22, -158, -52, -74, 11, 0, -9, -59, -95, -21, -24, 54, -5, -15, -19, -90, 82, 79, -15, -36, 2, 24, -58, -74, -66, -95, 39, -16, -2, -48, -29, -35, -53, -38, 25, -38, -96, 75, 5, -63, 17, 32, 48, -8, -108, -45, 44, -64, -27, 48, 59, 22, 50, 29, 31, 18, 65, 38, -75, 9, -98, 142, 103, 19, -62, -56, 49, 4, 8, -23, 75, 28, 17, -23, -25, 10, -101, -59, 2, -27, 21, 23, -63, -87, 17, -64, 11, -68, -13, 3, 19, -11, -14, 29, 102, -64, 90, -29, 34, -73, -35, -100, 47, 4, -62, -16, -45, -54, 46, -20, 19, 114, 78, -10, -79, -53, -35, -72, -51, 81, -68, -32, -153, -30, 75, 65, 5, 37, -11, -36, 8, 58, -17, 103, -59, -104, 94, -40, -13, -38, -19, -78, 5, 19, -39, -3, 44, 110, -66, 8, 48, 0, 2, -28, -38, -13, 30, 32, 77, -9, 2, 103, -34, -100, 84, 7, -45, 31, -13, -54, -67, 4, 14, 64, -7, -7, -14, 74, -30, 39, -35, 90, 60, -21, 15, -19, 5, 27, 34, -11, -21, -61, 3, -35, -56, -58, -4, 56, -32, -1, 1, 29, -36, 84, 30, -32, 42, 39, 0, 38, 67, -96, -10, -113, 62, 59, -29, -2, 125, 83, 39, 38, -23, 117, 78, 13, 49, -7, -11, -47, 41, 74, -82, 73, 19, -45, 84, 104, -58, 35, 83, 8, -59, -21, 31, -86, 79, -14, -1, -31, 7, 36, -60, -62, -28, -1, -77, -58, -29, 10, -110, -37, 47, -8, 5, 10, -2, 27, 72, 42, 7, -65, 12, 21, -33, -1, 22, -23, -59, 43, -114, -17, 33, 13, 62, -31, -60, 11, 1, -47, 35, -26, -6, 69, 97, -6, -8, -17, 61, 100, -37, 17, -9, -103, -26, -49, 16, 29, 42, -25, -14, -2, -29, 136, 54, 19, 19, -79, 17, -35, 1, 20, 33, -43, -90, 23, -25, 21, -42, 86, 17, -31, 134, -27, 75, 15, -25, 27, -62, -14, -1, 5, 17, -33, -48, -75, -120, -32, -44, -47, 104, 31, 5, -97, -86, 3, 98, -13, -6, -12, -75, 37, -45, 1, 57, 12, 33, -15, 62, -38, -88, 45, 0, -35, -35, -24, 16, -40, 45, -3, -97, 19, 60, -42, -35, -52, -66, 33, 37, -6, 9, 9, -43, -29, 91, 11, 2, -61, 81, -46, 39, -85, 47, -9, 5, 13, 58, -95, 42, 44, -52, -81, 13, 19, 181, -106, 33, -40, 7, -69, -64, -23, 54, 126, -20, -71, 28, -31, 8, -31, 142, 112, -34, 94, -59, 5, 49, 55, -41, 17, -88, 9, -78, 36, 4, 31, -72, -33, 88, 74, -8, -41, 31, 32, 12, -71, -3, 38, -18, -19, -69, -3, 16, -121, 61, 38, 78, 8, 75, -2, 77, 30, 31, -53, 25, 43, 6, -45, 61, -54, 24, -25, 25, 35, 81, 10, 71, -108, -26, -98, -73, -29, -55, -18, -48, 30, -119, -8, -158, -55, 7, -26, -34, 4, 94, 91, -2, 99, 19, -137, -46, -4], [59, -47, 9, 30, -46, 2, 29, 1, -37, 81, 1, 62, -99, 43, -126, -11, -15, 77, -70, -13, -17, -21, -51, 48, -60, 12, 10, 22, 14, 70, -46, 47, -94, -2, -68, 3, 10, -1, -15, -8, -60, 8, -26, -57, 116, 54, 24, -5, 12, -75, -64, -22, 139, 72, -8, 40, -3, -5, -67, -28, 27, -71, -106, -32, -15, -11, 30, 29, 65, -50, -51, -79, -66, -57, -14, 42, -31, 33, -24, -31, -12, 30, 3, 66, 45, -52, 17, -25, -11, 12, -25, 75, 38, -13, -54, -98, 29, -3, 69, -10, -16, -83, 14, 33, 56, -84, -8, -19, 35, -11, 27, -9, 43, 11, 61, 79, 28, -74, 7, -15, 2, 79, 1, -84, -28, -11, 1, 56, -24, 2, 38, 72, 84, -35, -60, 83, 69, 52, 11, 14, -13, -45, -3, 89, -84, -43, -36, 47, 55, 3, 26, 120, 37, -32, -97, -17, -13, -78, -114, 76, 99, 5, -76, 13, -47, 96, -5, -55, -60, 133, -25, 13, 62, -66, -114, -50, -41, 91, 38, 35, 7, 61, -28, -66, -10, -3, -16, 104, -34, -1, 39, 89, -27, 13, 6, -46, -9, 28, 20, 3, 99, 42, 40, -106, 15, -35, -67, 21, -14, 0, 6, 113, -46, 13, -61, 1, -9, 36, 61, -2, 72, 56, 23, 93, -100, -54, -26, 14, 103, -27, 4, -36, -71, -91, 127, 14, -134, 84, 25, -11, 7, 17, 111, 99, 48, -8, -16, -32, -27, -50, -76, 0, -14, 27, -61, 25, 89, -83, -36, -123, 52, 5, -12, -34, 65, -51, -35, -13, -21, -6, -56, -28, 13, -60, 16, 9, -8, 43, 27, 52, 112, 132, 13, 8, 20, 6, -72, 30, -71, 23, -29, -50, -89, 7, 95, -49, 105, 56, 95, 49, 80, 108, 22, -68, 15, -12, 83, 45, 77, -98, 64, 19, 63, -17, -3, 49, 41, 55, 1, -7, -75, 52, -9, -27, -46, 1, -13, 76, -44, -72, 15, 58, 19, -16, -28, 34, 62, 33, 11, 27, 28, -15, 42, 0, -6, 11, 70, -8, -17, 64, -45, -95, -86, -23, -9, 41, 4, 13, 76, 31, 81, 69, -126, -18, -55, -40, -61, 13, -13, 53, 2, -30, -48, 2, 46, -68, -49, -33, -38, -74, 21, -30, 19, 40, 28, 35, -134, 18, -29, 60, 14, 78, -114, -86, -31, -30, -1, -65, -73, -22, -51, 36, 64, 33, -56, 53, -7, 10, -49, -56, 23, -1, 37, 46, 5, 4, 107, 28, 13, 28, 34, 2, 9, 0, 24, -89, 23, -15, 11, 33, -18, -29, -66, 12, -30, -15, -68, 36, -73, 90, 3, 18, -52, 65, -132, -16, -107, -47, 50, -43, -19, -6, 51, 7, -57, -112, -23, 22, 72, 16, -20, -88, -24, 73, -97, -52, -21, -27, 52, 2, 86, -30, -125, 88, 58, 81, -23, 23, 11, 124, 28, -23, -44, 29, 37, 16, 15, 9, -31, -42, 5, -37, 102, 48, -34, 4, 6, 9, 32, -8, 14, 27, -30, -38, 72, 30, -47, -41, -53, -29, -15, -28], [-5, 62, 11, -41, 0, -59, 10, -43, -37, 52, -51, 17, 67, -16, -36, -4, 91, 0, 0, -16, -156, 9, 71, -12, 11, 7, -3, 17, 72, -16, -46, -2, 0, 16, 7, 8, 46, -41, -105, 5, -18, -108, 99, -79, -12, -31, 19, -23, -28, -54, 15, -25, -85, 44, -60, 38, -28, 12, -43, 41, 20, 64, -58, -77, -13, -32, 25, -77, -21, -109, -69, -35, 61, -61, -42, 44, 0, 68, 79, 105, 27, -44, 34, 35, -48, 57, 29, 24, 41, 108, -13, 77, 33, 14, 56, -40, 24, -7, 28, 34, -2, 66, -48, -71, -50, -39, 8, -82, 19, 57, -34, 17, 38, -29, -68, -2, 63, -22, -22, -71, 79, 97, 40, -10, -130, -49, 185, 15, 23, 66, 38, -21, -43, -7, 8, -43, 28, 75, 36, -6, 38, -44, -43, -30, -61, -5, -25, -13, 13, -67, -2, -50, -34, 50, -10, -49, -90, -20, -41, 48, -16, -66, 45, -38, -51, 58, -27, 2, 77, 42, 5, 24, -56, 99, 52, -76, -72, 105, 56, 36, 9, -3, 9, 21, 5, 47, -20, 13, 30, 42, -16, -3, -37, -64, 75, 46, 81, 65, -7, -20, 45, 30, -64, 6, 51, -28, -93, -12, 47, 31, -37, 16, -18, 155, -34, 21, 20, 46, -22, 108, -64, -52, 10, 46, -24, -25, 63, -37, -21, -5, 44, -30, -140, -40, 25, -10, 6, 42, -44, -91, -9, -5, 9, 110, -88, 71, 12, 86, 23, -20, 100, -22, 88, 82, 50, -70, -5, -71, 5, 14, -48, -5, 21, 0, -37, 91, 27, -107, -41, -8, 54, 53, -50, -10, -8, -33, 9, 24, 11, -20, 95, 55, -54, -14, 76, -4, -30, 75, 23, -6, 86, 2, 21, -44, -58, -41, -17, -8, -35, -10, -7, 7, -51, -50, -37, -27, 57, 78, -75, 9, -62, -111, -28, -48, 13, 109, 18, 1, 87, 51, -133, 0, 22, -63, 0, 23, 57, -18, -33, 56, -34, -11, -3, -31, 9, -39, -32, 61, -25, 77, -15, 51, -23, 171, -40, 58, 68, -36, -87, 5, -41, 4, 20, 52, -22, 5, 8, 35, -83, -99, -73, -46, -7, 18, 100, 1, 3, 81, -16, 107, 0, 0, 39, 27, 3, 37, -21, 26, 21, -24, 18, -47, -14, -73, -1, 55, -23, -9, 53, -23, 43, 20, 16, 35, -10, -64, -66, -15, -26, 26, -22, 13, -24, -72, -56, -81, 58, 33, -15, 72, 8, 15, 4, -46, -2, -123, 6, -22, 1, -16, -30, -60, -57, 9, -56, -85, 48, 50, 30, 72, 60, -43, -122, 43, -86, -73, 30, -36, 84, -76, -63, 13, 63, -20, 32, 28, -39, -27, -38, -37, -13, -76, -34, -113, 2, 61, 34, -44, -64, 24, 56, -13, -142, -76, -19, -1, 74, -55, 97, -18, 39, 20, 43, 29, 42, -139, 53, -42, 38, -79, -10, -8, -11, 39, -15, 87, 2, -48, -81, -24, 66, -114, 15, -10, -34, 40, -14, 35, -72, -76, -8, 9, -33, 27, 47, -20, -45, -62, -27, -64, -75, -32], [44, 57, 42, -1, 52, -41, 0, 86, -135, 41, -65, 36, -10, -97, -7, -82, -63, -10, 39, 88, -43, -14, 88, 17, 80, 41, -44, -21, -7, -30, 16, -27, 86, -20, -14, -66, -67, 37, -59, -2, -120, 48, -50, -43, -25, -48, -20, 37, 141, 99, -93, -47, -72, 66, 111, -33, -36, 69, -35, 4, -20, -84, 33, -23, 67, 89, -6, -44, 3, 18, 180, 49, -69, -40, 5, -99, -147, -11, -75, -5, -43, 0, 108, 75, 37, -25, -36, -38, -33, 66, -29, -50, -50, 42, 13, 5, 29, -51, -26, 13, 64, 39, -68, -79, 8, 57, 23, -90, 13, 50, 6, -107, -11, -49, -35, -1, 49, -109, 5, 90, 77, 17, -36, 23, -26, -13, -98, -26, 63, 94, -26, 30, -7, -92, 12, -16, 93, -42, 34, 29, -51, -99, -3, 27, -17, 54, -113, 49, -100, -57, 44, 18, -56, 25, -8, -57, -14, -111, -149, -62, 4, -52, 5, -89, -34, -59, 7, -54, -18, -26, 49, 118, -47, 85, 27, 78, 38, 23, -41, 28, 64, -63, 18, -3, 33, 33, -86, 146, 32, -26, 5, -84, -28, -67, -49, 35, 37, 75, 62, -23, -37, -21, -85, -121, -45, -51, 45, 74, 77, 22, 12, 40, -14, 27, -25, -3, 96, 50, -43, -29, -22, -41, 56, -23, 33, -7, 46, 51, 49, -11, -85, 38, 3, 44, 24, 24, -4, -65, 12, 64, -76, 48, -13, -4, -6, 120, -164, -14, -32, -53, 98, -72, 38, 15, -43, 34, -29, 71, 3, 29, 89, -15, -1, 124, 81, -15, 58, -96, 46, 7, 0, 41, -55, 39, 25, 73, 5, 51, 43, -98, 7, 15, 94, 9, 37, 0, 14, 47, -14, -8, -73, -38, -19, 22, -20, -22, 62, -48, -15, -37, 1, 8, 61, -89, 52, -82, 42, 48, 64, -28, 68, -29, -13, 16, 6, 108, 76, -118, 33, 0, -79, 136, -4, -60, 43, 48, 38, 30, 48, 57, 92, -98, 6, -3, 26, 28, 12, 27, -33, -13, -11, 53, 132, 37, 4, 29, 51, 24, -78, 31, -75, 33, -19, -11, -5, -32, 68, -47, -75, -51, 25, 62, 25, 84, -52, -54, -76, 12, -13, 20, -3, 53, -43, -109, 27, -19, 87, -45, 10, -94, 56, 48, 17, 10, 31, 57, -148, -20, 58, 27, 38, 60, 47, -15, -5, -133, -37, 8, 83, -49, 16, -53, 6, -19, -6, -30, -74, -34, 64, 59, 63, 68, 76, 33, 21, -28, 38, -20, -42, -28, -32, 40, -13, 37, -16, 48, 61, 22, 13, -2, 98, -2, -116, 9, -42, 11, -23, -139, -75, 58, -43, 5, 10, -33, 94, 5, -15, 29, 132, 41, -4, 91, -68, 57, -71, -9, 72, 80, -12, -145, 82, -36, -96, 58, -31, 32, 0, 41, -4, -7, -103, 2, 29, 5, 59, -37, 65, 5, -48, -43, 3, 95, -15, 32, 63, 100, -33, -15, -26, 10, -32, -37, -20, -55, 31, 96, 96, 67, -14, 21, 22, 13, 18, 100, -60, 68, -4, -26, 52, 59, 3, -97], [18, 31, -32, -85, -33, -45, -17, 73, 58, -5, -84, -35, -43, -23, -14, 35, 41, 49, 28, 3, 32, 1, 10, 18, -23, 84, 17, -39, -100, -22, -58, -26, -16, 34, 10, 37, 40, 72, 19, 23, 18, -21, 3, 39, -56, -18, -52, 68, 59, -67, -31, -2, 45, -48, -53, -38, 14, -96, 41, -84, -40, -107, 17, -4, -37, 0, -19, 21, 54, -23, 19, -15, -9, 43, 17, -38, 3, -8, -39, 58, -48, -18, 57, 7, 7, 18, 81, -7, 79, 70, 44, -11, 61, 2, -10, -69, -81, 96, 48, -74, 3, 12, 12, -72, 0, -39, 65, -54, 24, -31, -26, 57, -3, -15, -39, 1, -85, -39, -14, -24, -5, -108, 12, -33, 3, 49, -13, 24, 57, -31, 74, 72, -25, 108, -40, -4, 39, 67, 29, -26, -54, -3, 22, 15, 86, 59, 27, -32, -7, -57, 83, 28, -52, -23, 69, -98, -99, 11, -88, -20, -47, -14, -20, -57, -96, -61, 37, -76, 145, 0, -53, -8, -40, 49, -10, -17, -21, -27, -1, -14, -86, -20, -18, -59, -59, 42, 63, -26, 8, -105, 43, -20, 73, -102, 37, 5, -62, 16, -58, 66, 22, -17, -74, -37, 15, 31, 5, 53, 23, 46, -69, 80, 7, -46, 53, 17, 52, -13, 41, -43, 81, -103, -19, -77, 30, 69, 15, 8, 14, -44, 123, 7, 66, 83, -23, 9, -51, 13, -26, -1, 47, -5, 64, -57, 39, 19, -5, -20, -58, 121, 16, 13, -65, 81, -23, 34, -41, 83, -68, 9, -111, -48, -89, 4, -21, -5, 39, -18, 11, -10, -11, 13, 37, 49, -39, 18, -10, 43, -18, -23, 28, 21, -37, 29, 3, -78, 39, 18, -24, 18, 12, 39, -79, -79, 15, -89, -18, -41, -29, 50, -38, -40, 31, -90, 68, 51, -84, -10, -39, 27, -31, -11, 79, -28, -35, 7, -112, -89, -39, -18, 35, -35, 47, 31, -27, -5, -35, 32, -61, 53, 39, -57, -6, 15, 44, -1, -133, 25, 53, 29, -25, -3, -35, 31, -37, -85, 46, -5, -3, -10, -18, 103, -95, -73, -46, 83, -94, 29, -28, -46, -12, 54, 57, 21, 9, 20, 20, 47, 25, 34, -47, 28, 118, -94, 41, -81, -40, 49, 7, 42, 23, 73, -31, -86, -85, -73, -67, 27, -52, -43, 0, -1, -2, 13, 11, -3, -35, 53, 59, -41, -24, -20, -28, -98, -70, 1, 33, 60, 4, -5, 31, -42, 11, -28, 57, 102, 30, -23, 15, 57, -31, 49, -23, -111, 34, -32, 135, -67, -52, 86, 9, -7, -39, 26, 12, 39, -11, -19, -39, -4, -25, 63, -57, -19, 3, -4, -20, -53, 63, -14, -10, -39, 3, -147, 3, -11, 37, 49, -22, -4, 35, -23, 25, 24, 5, -46, 75, 65, -86, -8, 1, 20, -58, -76, 6, -65, 36, -26, 12, 36, 41, -38, 43, 16, -47, 87, 123, 43, -47, -104, -8, 16, 92, -14, 100, -69, 2, -14, 59, 15, 28, -15, 87, -55, -8, -28, 109, 31, -2, 3, -21, -44], [-68, 4, 49, -77, 10, -36, -6, 62, 39, 58, -47, 54, -64, -11, 59, -9, -76, -11, 64, -38, 43, 117, -87, 57, 12, -24, 40, -31, -39, -33, -60, 62, 33, -67, 107, 1, 10, 35, 15, -117, -49, -26, -49, -40, -17, 79, -2, 4, 72, 74, -125, -56, 7, 0, 16, -98, 18, -23, -116, 67, 60, 1, -12, 8, -5, 0, 8, -53, 68, 20, 74, -6, -89, -29, -63, 41, -23, -7, -8, 10, -100, -32, -48, 3, 2, 45, -33, 23, -7, -16, 54, -33, 74, -63, -72, -8, 27, -64, -41, -51, -1, -61, -15, 63, 8, -45, -67, 34, 115, 6, 0, -87, 13, 34, 1, 33, -10, 31, -3, -21, 7, 61, -26, 49, 61, -84, 34, -72, 42, 57, -115, -32, -7, 1, 2, -28, -11, -90, -54, -56, -15, 27, 4, -55, -9, 11, -50, 14, -2, 4, 63, 18, 11, 37, -56, -79, 18, -8, 73, -73, -65, 11, 4, -2, -9, 6, -22, -9, -103, 8, -27, 7, 74, -38, 51, 53, 64, -5, -96, -126, 30, 30, -16, 42, 0, -25, 92, -8, -1, 65, 60, -47, -40, 23, 41, 6, 8, 8, -52, -42, 2, 28, 12, 49, 67, -55, -38, 28, 26, 16, -55, -50, 20, -36, -13, -7, 10, -39, -3, -55, 50, -4, 69, 56, 8, -39, 48, -51, -34, -9, 20, 111, -4, -19, -63, -68, 55, -20, 54, 55, -6, 11, 11, 4, 6, -17, 30, 14, 9, 70, 48, -20, 116, 17, 16, -85, 16, -36, -23, 31, 71, 69, -72, 36, -61, -40, 8, -5, 19, -92, 2, 5, -73, -56, -39, 17, 43, 57, -32, -18, -29, 32, 40, 81, -31, 57, -15, -65, 42, 69, -49, 6, 1, 1, 33, -14, 54, -24, 19, -47, -29, 5, -27, 74, -45, 1, -24, 12, 15, -18, -23, -87, 127, 23, 2, 25, -1, 41, -57, 97, -95, -42, 59, 18, -111, -25, -23, 72, -34, 61, -53, 56, 10, -22, 2, -9, -4, 66, -56, 28, 110, -44, -25, 22, 56, -56, -1, 3, -29, -10, -35, -13, 35, 21, -40, 26, -24, -34, 67, -39, 12, -3, 24, -93, 112, -36, 5, 42, 38, -42, -42, -82, -1, 59, -58, -34, -51, 25, -28, -3, 37, -1, 7, 85, 16, -65, 51, 123, 51, 15, 69, 76, 15, 51, 80, -95, 25, 1, -31, 67, -10, -75, -31, -13, 8, 7, -13, -61, 31, 46, 15, -41, -13, 46, 24, -50, 26, 46, 70, -73, 62, -11, 3, 54, 37, 22, -30, 14, -37, 116, 55, -6, -7, 1, 25, 48, 18, 40, 55, 72, 38, 88, 51, 51, 3, 19, 13, -11, -4, 1, -17, 54, 79, 31, 15, 28, -86, -21, 25, -40, -14, -24, -18, 47, -54, 37, 55, 87, 45, -50, 5, -49, 33, -71, 30, -113, -17, 29, 60, 19, 4, 7, -67, -49, -42, -15, -4, -70, 66, 62, 28, 80, -5, 54, 27, -103, -28, 68, 52, 6, -39, 10, -47, -32, 34, 12, 121, -23, -89, 63, -15, 35], [-3, -79, 40, 68, -82, 15, 8, -4, 51, 36, 44, 51, 56, -71, 18, 2, 44, 0, 107, -36, -19, 0, -23, 15, -15, 26, 84, -9, 80, 49, -60, -85, -16, 44, -48, 61, 17, -8, -13, 32, 50, 16, 4, -80, 17, 41, -77, -47, 64, 110, 74, 86, 25, -87, -29, 33, 13, -21, -20, -28, 18, -4, 46, -5, 23, -46, -69, 18, 38, -68, 37, -42, -88, 37, 73, -81, -53, 67, -13, 13, 60, 54, 13, 110, -75, -24, 43, -47, 17, -39, -34, 21, -14, 5, -6, -25, -33, -29, -59, 16, -32, -9, -33, -33, -55, -3, -69, -36, 67, 44, -2, -24, 40, -63, 4, -61, 40, -11, 3, 16, -51, -10, -38, 20, -123, -47, -21, 17, -17, -70, 3, 4, -22, 53, -3, -16, -36, -46, 26, 68, -52, 84, 132, 138, -90, -53, 60, 50, -23, 106, 45, 38, -25, -50, -21, -32, 187, 5, -74, -18, 1, -111, 63, -85, -49, -19, -73, 108, -47, -33, -32, -6, -29, 21, -1, 104, -15, 14, 36, 13, -42, -40, -21, -18, 19, 52, 28, 120, -102, -50, 27, -27, 76, 99, -30, -7, 153, -20, -73, 67, -26, -71, 37, -55, -44, 22, -64, -25, 60, -40, -46, -65, -78, 57, -37, -44, 61, 30, -119, -3, -24, -118, -3, 7, -64, 13, -26, -12, 69, 133, 53, 37, -8, -41, 0, 43, -57, 75, 12, -46, -26, -75, -11, 48, 35, -38, 23, 33, -6, -80, -7, -58, -48, 18, 60, -71, -114, -46, -35, 20, -27, -29, -56, -25, 15, -63, 41, 73, 64, 14, -20, -38, -17, 15, -76, -30, -52, 84, -15, -22, -12, 36, -33, -44, 9, -15, 21, -97, 97, -45, 74, -98, 32, -8, 21, 94, 57, 76, -29, 75, -36, -29, 5, -4, 9, -7, -27, 3, -31, 30, 64, 72, 50, -44, -29, 37, 46, 24, -30, 4, -70, -47, 81, -67, 71, 77, 22, -35, 17, -17, 21, 9, 49, -72, 2, -74, 28, -10, -11, 55, -38, -1, -19, 32, 25, 4, -23, -8, -13, 14, 36, 18, -63, 61, 53, 31, -19, -85, 3, -63, -48, -139, -30, -136, -30, -17, 31, 6, 64, 30, -17, -59, 37, -112, 46, -14, -27, -153, -35, 46, -12, 37, 62, -24, -113, -55, 31, 31, -25, 138, -38, 14, 85, -29, -95, -68, -19, 52, 24, 31, -16, 39, -23, 30, -120, 12, -18, 24, -81, 4, -114, -42, -98, -95, 34, 35, 41, 33, -36, 37, 42, 22, -13, 23, -16, -32, -17, -101, -112, -22, -72, 20, 35, -102, 28, -11, -115, -24, 37, 12, 64, 24, 45, -39, 15, -35, -4, -32, 58, 7, -48, 87, 40, 24, -39, -47, -32, 4, 69, -8, 97, -9, -18, 31, -20, 16, 40, -33, 0, 33, -61, -10, -68, 73, -14, 3, -9, -13, -3, -10, -89, -54, -96, -83, 29, -4, -1, -83, 0, -123, -24, 30, -86, 5, 10, -8, -26, -31, -35, 23, -22, 104, -71, 129, 48, 29, -72, -8, -45, 9, 31, 29], [73, -38, 26, 122, 50, -13, 53, -32, 80, 27, -89, 17, -43, -102, -9, 13, 125, -42, -33, 23, -54, -36, -3, -74, 28, -6, 23, 2, 13, -62, -8, 32, 22, -35, -2, 31, 42, 42, -15, 83, 63, 86, 28, -55, -80, 8, -51, 23, 79, -42, 2, -9, 52, -22, 10, -72, -53, 83, -53, 116, 23, 56, -60, -61, -12, 78, -111, 33, 9, 87, -85, -13, -21, 117, 111, -15, 27, -41, -18, -29, -54, 16, 39, -20, 50, 48, 2, 60, 16, 38, 135, 16, 11, -2, -40, 18, -6, -12, 110, -111, -9, -18, -1, -23, 82, 52, -77, -28, -2, 42, -27, -77, -40, -102, -17, -5, -58, -72, -56, -50, -50, 36, 49, 20, -2, 77, 76, -9, -2, 60, -77, -41, 45, 70, -63, -17, 4, 16, 12, 79, -11, -10, -41, 15, 34, -93, -41, -38, -16, -62, -31, 28, -23, -31, -31, 48, -60, -24, -21, -23, 56, 7, 36, 0, 44, -11, 59, 54, -42, 34, -24, -42, 166, -124, 24, 61, 11, 39, -79, 7, 58, -30, 22, 31, 12, 58, -24, -47, 54, -29, 65, 65, -17, -70, -17, 21, 37, 48, 97, 1, 46, 43, 16, 87, 62, 50, 31, -90, -18, 78, -93, -10, -59, 0, 51, -36, -58, -30, -31, -4, 41, -8, -8, -41, 9, 99, -75, 9, 100, -18, 69, 7, -81, -7, -25, -6, 94, 72, 36, -39, -41, 85, 93, -32, 5, 113, -50, 43, -35, -13, -33, 117, 31, -46, 61, 30, 0, -4, 17, -80, -55, 151, 14, -20, 26, -26, 10, 60, 17, -99, -51, -80, 22, 13, 8, 83, 77, -23, -32, -3, 14, -61, -9, -21, -25, -48, -50, -74, 49, 4, -29, -112, 25, 47, -22, -64, 82, -8, -44, -21, 19, 79, 14, 97, -33, 21, -17, -35, 33, -40, 29, -34, -27, -15, 48, 25, 72, -16, -4, -42, -7, -41, -23, -18, -19, 37, -66, 62, -8, -143, 88, -1, 1, 62, -47, 7, 37, 0, -12, 10, 36, -48, -36, -58, -32, -93, -1, 52, 2, -27, -81, 51, 87, -27, 70, 46, 21, -14, -8, -142, -28, -15, 137, 73, 15, -21, 89, -185, -30, 55, 21, 34, -56, 107, -60, -54, 7, -23, -38, 80, 16, 18, 3, -44, 11, -47, 69, 29, -46, -34, 3, 43, 75, -41, -45, 33, -10, 62, -20, 33, 81, -9, 55, 61, -114, -33, -56, 68, -59, 23, 46, 27, -1, 4, -79, -1, 6, 40, -25, 37, -91, 10, -78, 38, -80, 1, -52, -20, 12, 56, 14, 25, 47, -136, 127, 6, 25, -66, -12, 35, -56, -33, 61, 30, -2, 85, 4, 36, -26, -24, 12, 54, 45, 156, -46, -27, 17, -3, 5, 19, -48, -5, -10, -25, 37, -27, 2, 13, 49, -25, 43, -85, -69, 15, 78, 35, 27, 98, -11, 37, 83, 33, -38, 29, 102, 78, -83, -44, -14, -30, -110, 6, 16, -56, -64, -23, 65, 38, 22, -46, -34, -51, -27, -21, 34, -4, 41, 111, 72, 54, 102, 28], [53, -31, -149, 22, -27, 43, -35, 68, -95, -25, 11, 18, -33, 104, -44, 73, 30, 45, 34, -15, -18, -94, -38, -3, -28, -6, -28, 14, 37, -56, -55, 81, -71, 31, 20, 58, 11, -32, 22, -1, 100, -49, -18, 10, 41, 62, 58, 15, -19, 3, 14, 32, -16, 42, 36, -14, 94, 34, -31, 33, -23, -66, 32, -5, -25, 19, 113, 95, -103, 18, -27, -4, -2, 71, -105, 85, 22, 55, 35, -24, -37, 48, -13, -70, -47, -18, -26, -57, 53, -17, -76, -72, 14, 42, 73, 16, -36, 11, 46, -15, -14, -103, -35, -10, -117, -44, -72, -7, 32, 39, -11, 17, -17, 12, 26, -113, 3, -8, 59, -120, 70, -70, 25, -20, -109, 47, 29, 51, -68, -24, -39, -83, 34, -15, -15, 70, 20, -17, -59, -16, 25, 38, -10, -50, 19, -39, 8, 17, 47, -8, 36, 16, 98, 36, -81, -60, 67, 36, -57, -1, -113, -5, -41, -24, -1, -12, -40, 9, 83, 35, -12, -102, 89, -40, 20, -35, -4, -20, -35, -35, -78, 73, -52, -10, 54, -58, -37, 4, -38, 17, -29, 56, 30, -90, 96, 43, -57, 28, 56, -17, -91, -40, 9, 5, 1, 95, 20, -64, 11, 41, 94, -7, 74, -19, -39, -1, 23, 9, -49, 55, -73, -9, -70, -54, -16, 26, -76, 57, -69, 63, -33, -13, -40, 32, 30, -8, -29, -36, -143, -25, 32, -16, -61, -3, -12, -69, 76, -32, 36, -66, -60, -10, -140, -9, 43, 135, 18, 26, -158, -21, -44, 6, -82, -86, 47, 66, 23, -15, 105, 95, -66, -35, 84, -19, -33, -7, -21, 63, -87, 16, -2, 24, 47, -63, 0, -5, -6, -42, -36, -6, -18, 19, 52, 151, 119, 45, 61, 54, 1, 98, -128, 11, 15, 44, 40, 70, 18, -10, 45, -42, 73, -14, 82, 10, -8, -39, -20, 22, 69, -32, 41, -15, -30, -46, -61, 4, 21, -20, -36, -1, -35, -18, -22, 21, -91, 29, -46, 20, 61, 26, -22, -16, -10, -98, -14, -3, 3, 70, 14, -39, -33, 39, -20, -71, 17, 49, -68, 17, 19, 84, 74, -21, 6, 83, -29, 11, 17, -14, -145, -87, -21, -87, 70, -28, 81, 10, 26, -30, -136, -44, 23, 53, 14, 58, -23, 37, -41, 3, -6, 100, -3, 33, 78, -74, -24, -76, 3, -36, -57, 63, -64, -48, -21, -18, 2, 44, 1, 24, -52, -79, -40, -32, -14, 10, 32, 50, 1, -31, 5, -88, -40, 29, -80, 48, -52, 44, 18, 54, -73, -42, -13, -55, -84, -87, -104, -73, 34, -19, -3, -22, 23, 28, 53, -6, -100, -82, -31, -27, -155, 18, -2, 27, 21, -13, -34, 46, 5, -83, -8, 14, 5, -123, -73, 11, -5, 51, 60, 11, -73, -4, 73, -37, -19, 3, 40, -33, -38, -15, -28, 53, 17, 3, -67, -51, -38, 12, -10, -22, 57, 39, 9, 6, -6, -24, -4, -22, -4, -10, -89, 98, -71, -31, 33, 1, 37, 42, -10, -87, -66, -17, -11, 83], [-52, -16, -39, 62, -112, -23, -67, 16, -42, -14, -20, -39, -19, 38, -32, -60, -72, -53, -12, -67, 4, 3, 80, -21, 50, 25, -111, -23, 100, -3, 8, -60, -5, 15, 18, -43, 24, -14, 72, 77, 53, -16, -26, 96, -41, -11, -46, -137, -7, 40, -37, 47, 12, -78, -90, -27, -22, 25, -13, 3, 84, 50, -72, -51, -136, 9, -35, 4, -94, -32, -5, 19, -35, -66, -4, -128, -16, -2, -46, 54, 46, 26, -11, -74, 20, -32, -79, -26, 17, 208, -37, 93, 82, -17, 34, 77, -64, -29, 5, 67, -11, 6, -5, 6, 91, 44, -60, -3, -33, -49, 16, 3, 32, 23, -40, 8, 161, 40, 31, 69, -42, -8, -67, 20, -33, 107, -9, -32, 34, -10, -19, 45, 15, 43, -47, 32, -47, 91, -135, 11, 53, 16, 37, -35, 1, -74, -25, -2, -95, -42, -104, 4, -27, -36, 3, -48, 23, -15, -28, 71, -107, 5, -11, 63, 105, 65, 38, 60, -35, -62, -54, -38, -21, -28, 30, -32, -15, -32, -1, 75, -12, -103, 92, -12, -27, -2, -11, 29, -35, -86, 4, -2, -56, 0, -8, 38, -13, -40, 21, 6, 26, 24, 133, -35, 6, -28, 5, 20, 73, 36, 28, 4, 13, 31, 37, 31, -40, -120, 65, -94, -23, 84, -32, 22, 28, -48, 23, 15, 6, -3, 11, 88, -54, -9, 75, -41, 41, -8, 4, 91, -1, -64, -57, -127, 24, 24, 18, -3, 68, 28, -45, 59, 89, 9, -13, 104, 40, -22, 7, -29, -37, -77, 44, -167, -29, 81, 26, 66, -21, 20, -55, -60, 97, 130, 82, 0, -55, -55, 6, -83, 22, 60, -170, 26, 14, -46, 98, -18, 3, 18, 49, 10, 11, 39, 8, 39, -74, -36, 36, -21, -68, 69, -7, 40, -51, 50, -60, 82, 85, -20, 0, 27, 29, 42, 55, -52, -107, 56, 41, -16, 38, 21, 62, -118, 36, 51, -20, 54, -19, -32, 11, 45, 50, -45, 18, -28, 43, -44, 40, -77, 31, -15, 50, 4, -8, 34, -85, -25, 11, -16, 50, -35, -23, -12, -30, 59, -48, -96, -45, 22, -21, -50, 2, 46, 19, 38, -34, 26, -6, -36, -26, -36, 38, -47, 65, 11, 25, 5, 42, 17, 34, -101, 52, -14, 39, 28, 15, 44, 25, -6, -20, 96, 13, -96, 13, 3, 37, -14, -84, -69, 49, 125, -8, 61, 2, -15, 39, -26, -32, 35, 69, -36, -45, 4, -47, -6, 9, -3, -14, -33, 20, 16, 63, -5, -3, -59, 13, -115, 29, 32, -39, 15, 71, 58, -12, 48, 25, -54, 57, -26, 63, 3, 10, -20, 58, 71, 72, 20, 7, 0, 98, -59, -11, 1, 63, -11, 29, 22, -42, 31, -5, 80, -43, 48, -23, -13, -66, -18, 13, 67, 19, -13, 48, -32, -68, -44, -57, -72, -29, -59, -18, 2, -8, -28, 95, 38, 56, -35, -12, -4, -55, -126, 6, 55, -41, -4, -4, -54, -100, 37, 58, 70, -21, -89, 28, 47, -18, 21, 35, 37, -10, 44], [4, 28, 109, 79, -15, 20, 46, 95, 40, 43, -31, -4, 48, 37, -58, -8, -42, -81, 34, -52, 29, 10, -2, 3, 18, 93, 9, -79, -1, 17, -23, -37, 70, -58, -21, 11, 16, 24, 21, -51, 48, 39, -14, -35, 10, -15, 13, -47, -17, 52, 43, 12, -30, -55, -10, 46, 82, 47, 66, 59, -4, 34, 4, 27, 63, -20, 73, -67, -10, -88, 38, -2, -30, 63, 7, -6, -45, -44, -60, -65, -112, -57, -55, 71, -42, 14, -95, 55, -107, 86, 13, -71, 39, -18, 39, -18, -36, -25, 60, -92, -30, 11, -25, 15, -3, 3, -27, -21, 53, 3, -57, 115, -10, -45, 88, -42, -76, -94, 22, 105, 47, -22, 30, -16, -66, -66, -37, -64, -4, 25, 56, 28, 69, -56, -78, -21, -19, 10, -58, -40, 28, -47, -144, -103, -57, -69, -18, 33, -1, -31, 6, 10, 7, -54, -14, 34, 18, -44, -5, -140, -17, -40, 58, 49, -25, -1, -19, -15, 28, 16, -5, 37, 124, 66, -50, 89, -12, 3, 49, -7, 119, 48, -17, -67, -16, 13, 3, -47, 54, -38, -49, -127, 102, 91, -46, 16, 33, 47, 30, 23, -1, 35, 62, -4, -4, 9, -40, 26, 51, 25, 22, 21, 58, 48, -50, 22, -54, -12, 11, 65, 110, -81, 45, -27, 11, 59, -13, 29, -97, 78, -100, -75, 18, 120, -59, 31, 20, -22, 91, -117, 156, 54, 30, 56, -82, -76, 43, 63, 20, 9, 6, -78, 87, 125, 29, 1, 18, -24, -11, -59, 19, -4, -54, 118, -8, 91, -43, -119, 74, 23, -30, -42, -18, 111, -62, -55, -77, 10, 82, 24, -56, 69, -62, -28, -57, 84, 94, 28, -12, 62, 42, -38, 44, 24, -6, 20, -90, -54, 136, -37, -6, 103, 85, 87, -57, -56, 40, 9, -14, 66, 4, 63, 24, 60, 42, 24, 69, -58, -72, -20, -70, 2, -50, 7, -80, 106, -10, 85, 75, 55, 74, -59, 9, 75, 86, -90, 14, -6, 7, 27, 49, -56, 148, -7, 27, -25, 2, 50, -57, 23, 29, -12, 16, 64, -61, -11, -23, -52, 5, 27, -44, -23, 20, -107, 7, -26, -21, 19, 49, -4, 76, 5, 54, 99, -20, -3, 84, -14, 103, -25, 99, -97, 23, -2, -57, -60, -27, 98, 43, 50, 36, -19, 58, 72, -8, -62, 11, 6, -16, 6, 74, -23, 3, 60, 95, -35, -128, 7, 25, -1, -45, -12, 19, -52, -5, 23, 3, 6, -18, -100, -119, -58, 44, -24, -8, 9, 107, -112, -56, 12, -105, -69, 20, -36, -60, -10, 46, 85, 27, -65, -30, -27, 46, 81, 9, 23, -2, -10, 84, 34, -6, 11, -36, 31, -79, -34, -48, 45, -70, 31, 102, -14, -58, 48, 30, 31, -39, 3, 64, 3, 65, 42, -82, 28, 66, -21, 121, -90, -6, 7, -20, 69, 18, -10, -23, -70, -5, -57, 31, 7, -78, -36, 84, -32, -12, -63, 28, 30, 25, 36, -76, 11, -77, 14, 88, 48, 12, -73, -84, -111, -34, -10], [-66, 75, 108, -36, -18, -80, -14, 60, -62, -43, 66, -75, 33, -90, 25, -90, 4, 16, -10, 19, 107, -21, -73, -44, 19, -107, -99, 30, 40, -103, 45, -16, 58, 8, -23, -12, 60, -7, -104, -82, 23, -85, 63, -38, -27, 53, -36, 9, -24, -10, -28, -20, 18, 24, 58, -51, -79, -6, 54, -83, -80, 19, 17, -49, 9, -134, 7, 35, 6, -79, -6, 16, 68, -27, 89, 34, 38, 16, -46, -32, 37, 52, 133, 25, 21, -25, -37, 39, -58, 9, -6, -15, 14, -4, -1, -103, -57, -10, -12, -6, -1, -135, 49, 21, 12, 27, -5, -20, -68, -45, 40, -85, 103, -59, 73, -12, -45, 51, 28, 13, 0, -30, -29, -24, -14, 31, -39, -66, 111, 35, -66, -40, 31, -97, 18, 96, -19, 22, 1, 79, -80, 1, -45, -19, -42, 11, -20, 20, 33, -79, -48, -20, 5, -31, 15, 11, -73, 57, -52, 26, -7, -2, -15, 30, 92, -9, 41, 22, -58, -28, -22, -28, -2, -53, 0, 37, -74, -4, 113, -62, -69, 110, -21, -68, -73, 54, -40, 15, -33, 66, 10, 64, -47, -18, 77, 5, 44, -1, 24, -22, -13, -26, 23, -13, -4, 50, 18, -70, 42, -51, 64, -36, -60, 92, 56, 0, 78, -3, 17, -36, 64, 33, 66, 41, -53, -65, 88, -16, 57, -10, 65, 68, 34, 24, 24, 17, -70, 61, 1, 6, -53, 51, -45, -77, 93, -47, 31, 112, -46, -24, 53, -73, 48, -22, -41, 53, -84, 9, -56, 52, 26, 27, 48, 20, -33, -56, 19, 42, -30, -26, -1, 68, -65, -15, 6, -92, 32, 13, 24, 57, -26, 3, -95, -52, -31, -76, 9, 37, 41, 75, 89, -70, -50, 68, -70, 58, 31, 0, 44, 55, -33, -158, 26, -63, -9, 76, 87, -38, 24, 22, -80, -5, -7, -32, -74, -21, 90, 41, -120, -4, -57, 10, 29, 38, 95, 3, 12, -63, 26, -73, 88, -48, 12, -30, 2, 74, 21, -38, 9, 29, 29, 84, 30, -79, 6, 19, -66, 18, 17, 29, -33, -86, -79, 35, -72, 46, -4, 2, -24, -39, -1, 58, -50, 43, -21, 21, -5, 58, 19, -94, -9, 17, -60, 51, -49, -10, 89, -74, -63, -55, -53, 5, -2, -80, -22, -60, 25, -27, 159, -6, 0, -63, -5, -20, 73, -40, 92, -108, -36, 39, -46, 45, 25, 97, -23, 148, -99, -105, 8, -61, -63, -50, -7, 3, 29, 26, 16, 37, 42, -70, -42, 21, 42, -55, 11, -61, -113, -1, 78, -77, -67, 13, -56, -32, 13, 84, 38, -77, 54, -45, 76, -106, 36, -1, 55, -1, 8, -28, -8, -104, 34, -30, 12, 72, 34, 89, 4, 17, 27, 49, 6, -117, 50, -97, 6, 1, -103, -1, -20, 2, 130, -5, -31, 103, -22, -58, -116, -60, 39, -33, 30, 45, 31, 23, 6, 53, -47, -61, 35, 101, 27, 51, 30, 58, -49, -43, -33, -16, -61, 64, -127, -33, -52, 16, 2, -54, 24, 82, -27, 54, 123, -8], [-26, 43, 12, -38, -56, 16, 54, -42, -31, 9, -40, -30, 6, 82, 85, -32, 31, 59, -63, -57, 73, -148, 103, -73, -72, -91, 60, -3, -59, 43, -24, 63, 31, -25, -45, -88, 88, 47, 61, 0, -56, 7, 39, 2, -44, 59, 27, 72, -23, -45, 29, -35, 31, 44, -14, -51, -22, 49, 42, 99, -17, -39, -20, -30, 17, 6, 5, -61, 18, -75, -39, 66, 117, 46, -113, -49, -97, -90, 5, 33, 25, -12, 15, 28, 19, 133, 14, -43, 3, -72, 66, -101, -17, 81, -2, -4, -72, 20, 48, -46, -71, -66, -41, 20, 18, 12, 34, -68, 108, 1, 105, -13, 62, -47, -55, 44, 13, 125, -74, -44, -13, 55, -33, -66, 84, -28, 21, 35, 17, -10, -86, 22, -23, -31, 7, 77, -20, 41, 46, 13, 18, -19, -60, 14, 72, 19, -61, -65, 5, -12, 15, -34, -54, 72, 38, -54, 11, -9, -16, -7, -2, -41, -18, 93, -129, -17, 73, -131, 3, 86, -52, -91, 18, 6, 27, 99, -20, 58, 59, 31, 42, -37, -7, 91, 126, 43, 13, 19, -14, 89, 20, 67, 113, -45, -28, 24, -123, -25, -23, 46, 12, 33, -41, 35, -31, -60, 46, -76, -52, -36, 22, 22, 109, -136, -24, -65, 56, 27, -32, -14, -12, -82, -15, -67, 14, 17, 73, -18, -37, 46, -40, 95, -22, -3, 128, 15, -40, -81, -25, 9, 42, -67, -21, 32, 68, -19, 101, -39, 13, 42, -38, 111, 40, 25, -39, -12, -7, 45, 16, -83, 120, 6, -69, -38, 26, 9, -23, -56, 37, 43, 7, -37, -9, -29, 7, -12, -65, 14, 18, -66, 55, -4, 4, 83, 78, -95, 7, 71, 58, -26, 1, 47, 56, 108, 0, 20, 75, 18, 37, -55, -10, 1, -16, -11, 46, 50, 16, -32, 21, 30, 5, -10, 47, -112, 25, 23, 59, -32, -36, -41, -21, 40, 136, -107, 23, -69, 1, 32, -16, 47, -43, -1, 34, -32, 14, 21, 17, -104, 51, 27, -72, -64, 27, 46, 14, -44, 51, -51, -4, -58, -1, -44, -81, 65, -45, 22, -78, -51, -18, -68, -33, -52, -54, 3, -42, -92, 71, -35, 14, 32, 37, 114, 18, -23, -23, -15, -38, 27, 111, 39, -111, -41, 23, -13, 32, -9, 94, -38, -72, 139, 6, 21, -44, -74, -25, -12, 23, 29, -3, -19, -23, 48, 26, -14, 122, -32, -35, 33, -9, -101, 34, -15, -31, -22, 78, -43, 41, -49, -28, -44, -78, 57, 6, -128, 112, -18, 54, -14, 134, -23, 13, -64, -15, -9, -10, 26, 92, -12, -41, -38, 12, 17, 28, 39, 45, 29, 10, -59, -3, 145, -30, 19, -24, -60, -29, -87, 59, -49, -93, 9, -129, -28, 111, 42, 95, -12, 6, -81, 8, -30, 26, 47, 78, 16, -16, 1, -7, 44, -57, 49, -99, 53, 53, 111, 3, -145, -132, -30, 9, -42, -25, 64, 120, -69, 6, 45, 59, 11, -17, -20, -100, 68, 21, 22, 18, 96, -32, 50, -11, 30, 39, -8], [26, 29, 41, 44, 98, -50, 37, -23, 32, -16, -30, -1, -77, 32, -3, -29, -71, 78, -103, -20, -59, 29, -26, -56, 65, -6, 95, 33, -50, -5, 82, 45, 6, -96, 33, 12, 0, -83, 2, -77, -83, 61, 7, 22, 31, 8, 58, -39, -103, 16, -30, 48, -41, -47, -113, -21, -26, -65, 44, -35, -47, 18, 11, 19, -15, -20, 78, -18, 67, -41, -30, 20, 40, -12, 51, -8, -3, 28, 7, -26, -46, 24, -66, -51, 75, -41, -69, -15, -67, 56, -32, -38, 61, 5, 49, -89, -33, -26, -13, 12, -12, -22, -10, -19, 25, -20, -6, -5, -12, -89, -40, 33, -73, -82, 51, -24, -44, 35, 45, -30, 122, 81, -46, 0, -36, 20, -61, 54, -38, 17, 90, 74, 21, -27, 25, 26, -73, 36, -27, -31, -1, -15, -105, -56, 30, 56, 60, 123, -19, -22, 11, -8, -62, -63, -67, -37, 21, -9, 20, 85, 1, -17, -43, 10, -19, 9, 22, 103, 45, 30, 75, -13, -33, 62, -60, 72, 114, 40, 11, -20, 37, 75, -65, 107, 30, -74, -37, -38, 24, -85, -7, -65, 54, 15, -9, 19, 99, 79, -26, -55, -13, -66, -31, 33, 1, -89, 22, 15, -65, -42, -92, 22, 85, -100, 29, 12, -151, 20, -75, -11, 32, -11, 3, 40, 30, -47, 60, 39, 18, 23, 55, 0, -39, 58, -51, -21, -40, -21, -47, 50, 39, -59, -22, -29, 19, -26, -52, 24, -76, 114, -44, -28, 25, 29, 10, -47, -12, 19, 58, 3, -32, 38, -2, 29, -68, 38, -100, 14, 40, 68, 56, 4, -66, -3, 62, -9, -11, -147, -60, 3, -9, -90, -13, 109, -7, -50, 14, 13, -14, -7, -3, 1, -75, -26, 1, 45, 36, 80, -26, -30, 65, 69, -43, 35, 11, -9, 132, -26, -27, 133, 2, -1, -9, 20, 65, 10, 132, 15, 50, -147, -53, -12, 7, -24, 31, -16, 54, 30, 55, -22, -71, 52, 51, 77, 34, 14, -117, -10, 63, -45, 7, -9, 96, 8, 40, 21, 85, -86, 0, 55, 55, 128, 45, 71, -33, -122, -14, 0, 78, -3, -3, -59, 86, 13, -37, -9, -95, -159, -157, 39, 69, -7, -1, 41, -49, -34, 0, 30, -22, -8, 25, -25, -91, -32, -45, 49, 54, -47, 26, 4, 91, -69, 42, 53, -17, 58, 31, -50, 28, 110, 58, 61, 52, -18, -73, 20, -15, 13, -38, 101, -102, 12, 4, -43, -42, 83, 9, -59, 43, -31, -114, -13, 6, -106, 70, 8, 21, -56, -96, 1, 34, -18, 12, -10, 18, 72, -15, 4, 40, 35, -6, 9, 15, 57, 13, 19, 42, 38, 29, -19, -37, 30, -7, 48, 51, -16, -96, 27, -19, 80, 17, -26, -62, -96, 83, 93, -12, 62, -6, 13, 101, -10, 1, 0, -4, -19, -10, -60, 43, -12, -45, -37, -13, -22, -84, 72, 62, -20, 27, -85, 17, -82, 63, 97, 49, 50, 28, 9, 22, -1, 2, 33, 55, -27, -150, -94, 47, 114, 16, -26, 3, -64], [-55, -59, 93, -101, 42, -46, 37, 100, 55, 6, 79, -25, 17, 49, -53, 4, 17, 102, -41, 37, 33, 96, -47, 26, 40, 11, 9, -46, -17, 13, -41, 36, 91, -12, -11, -79, 101, 54, -10, 55, 52, 12, 7, 28, 9, 37, 53, -23, 53, -5, -80, 4, 1, -10, 56, -33, -52, 74, 8, 73, -16, 151, -31, -32, -18, 29, -21, -46, 69, 91, 19, 52, 146, -76, -44, 92, -6, -109, -38, -4, -9, -38, -45, -9, 10, 1, 33, -45, -27, 25, -46, -32, -39, 50, 38, 8, -96, -49, -37, 28, 18, 36, 37, -127, -24, -49, 41, -24, 45, 84, 60, 13, 69, 37, -64, 85, -77, -83, -83, -23, 2, -51, 38, 15, -23, -12, 25, -27, -84, -38, -41, 66, -85, -4, -71, 7, 48, -44, 6, -42, -50, -84, -12, -91, 84, 103, -10, 84, -38, -1, 69, 44, -23, -6, -26, -56, 118, -9, 38, 10, -38, -93, 54, 20, -44, 36, -39, 2, -32, -72, 30, -30, -42, -2, 22, -15, -65, 45, 78, -90, 47, -99, 3, 18, 4, -2, -10, -57, 59, -35, 13, -36, -6, 12, -48, -24, -65, 27, 63, -29, -47, 23, -73, 60, -80, 43, -10, 16, -12, -19, -62, -103, -56, -13, -47, -82, 3, 10, -69, -20, -90, -44, -16, 117, -28, 53, 112, 100, 26, 37, 58, 7, -32, -61, -73, 61, -59, -57, 106, 28, -43, -47, -15, -44, 27, -21, 21, 102, 17, 3, -148, 46, 22, 6, 103, -19, 58, 65, -44, 5, 53, 11, -45, -40, 31, -73, -6, 21, -14, -26, 39, 14, 36, -16, -1, 0, -109, 57, -53, 126, 39, 39, 25, -26, -55, 46, 57, -4, -46, -17, -68, -35, -27, 85, -7, 62, -38, -2, 70, -38, -4, -16, 35, -101, 16, 37, 0, 2, 41, -35, -54, 71, -15, 7, -11, -92, -43, 38, -34, 35, -3, -93, 160, 9, 41, 26, 64, -21, 55, 13, -39, -20, -21, -10, 1, 49, 61, -25, -138, 4, -65, 62, -39, -50, -18, -73, 51, 19, 15, -46, 39, -17, -28, 14, 66, 48, 25, 98, 51, -66, -50, -32, -40, -64, -14, -18, 49, 60, 26, 45, 62, -43, 26, -30, 24, -115, -97, 31, 0, -99, -55, -51, -36, 10, -36, 34, 13, 27, -15, -17, -25, 41, 17, 0, 80, 62, -77, -7, 45, -53, -23, -42, -55, -21, 7, -57, -76, 40, -37, 71, 50, -57, 69, -44, 86, -32, -10, 33, 92, 19, -71, -55, 23, 87, -16, -4, -67, 29, 24, 0, -15, -25, -31, 18, 41, -54, -20, -37, 88, 12, 19, 58, -26, -4, -34, 7, -35, -25, 60, 26, 85, -7, -34, 13, -33, -47, 36, -115, 13, 67, 13, -12, 77, 36, 80, 52, -77, -7, 1, -9, 70, 9, 64, -22, 101, -47, -28, -33, 165, -20, -23, -91, 2, -3, -21, -39, 33, -68, 47, -1, 17, -33, 21, 130, -51, -135, 61, -53, 13, -11, 69, -55, -9, 57, 39, -67, -84, -15, -42, 83, -5, -41], [25, -36, 20, -9, 27, -111, -14, 80, -9, 42, 20, -4, -80, -116, 61, 92, -1, 109, 0, 0, 11, 49, 27, -26, -84, -16, -33, -88, -63, 4, -6, 34, 32, -77, -15, -44, -9, 6, -31, -58, 52, 94, -123, -59, 86, -30, 52, -112, -30, -81, 82, -75, -45, 122, -122, 35, 112, 99, -16, -21, -31, -28, -56, -38, -30, -85, -112, 19, 62, -11, -16, 10, 3, 8, -82, -39, -27, 74, -61, 50, -45, -36, 42, 28, -62, 65, -90, -46, 11, 10, -57, 26, 29, -5, 98, -26, 42, -46, -85, -17, -45, -51, -32, -92, 68, -25, -29, 35, 23, -106, 16, 13, -46, -100, 85, 16, 33, 64, 52, 70, -46, -3, 46, 38, -24, -90, 72, -49, -119, -59, -2, -62, 10, -18, -52, 1, 130, 14, -22, 29, 16, 3, -50, -33, -34, -79, 102, 42, -80, 4, 2, 24, 15, -18, -54, 41, -18, 70, 39, -57, -66, -20, -5, -190, 9, 4, -3, 15, 25, 107, 82, -82, -103, -70, 54, -49, -41, 20, 23, -1, -21, -14, 20, 24, -41, -62, -24, -24, 8, 55, -12, 27, 28, -54, -14, 7, 28, -40, 75, 49, 17, 17, -67, 82, -25, -31, 99, 13, -26, -6, -39, -132, -14, 42, -34, -60, 14, 26, 76, 12, -66, -27, -39, 26, 66, -36, 48, -98, -94, -19, 83, 50, -31, -159, -48, 70, -107, -7, 103, -39, -25, 13, -28, 46, -60, -104, 20, -41, -84, 92, 1, 86, 55, -61, -28, 123, -110, -35, -36, 29, -12, 15, -41, 41, 42, 84, -63, -9, -21, -60, -44, 29, -21, 46, 18, -81, 9, -111, 2, -85, -29, 5, 33, -31, 71, 25, 77, -38, 42, 39, -33, -4, 2, -16, 6, -15, -86, 69, -59, 18, 4, -66, -12, -50, -19, 37, -113, 17, -105, 24, 46, -3, -89, 73, -77, -34, -15, 108, 3, 62, 6, 31, -16, 14, 52, -12, 9, -67, 5, 37, -84, 8, 29, 80, 3, 28, -1, 22, -51, 24, 8, 8, -78, 30, 23, -25, -1, 75, -112, 72, 2, 64, -20, -71, -29, 24, 58, -22, 47, -17, 44, 7, -50, -34, 8, -47, 70, 50, 11, 43, -82, -48, 84, -10, -104, -31, -29, 47, -17, -24, -61, -87, 76, 38, 45, -24, -15, 29, 11, -4, -24, 14, 15, 106, 3, 53, -52, 17, 2, -1, -31, 59, -137, 13, -45, 148, -50, -44, 3, 8, -47, -38, 29, -7, -16, -23, 55, -12, 14, -53, 98, 3, -94, -29, 12, 23, 42, -61, -108, 17, 25, 22, -85, -41, 3, -42, -20, 1, -13, -46, -63, 30, -23, -16, 43, -38, -47, 44, 59, 6, 1, -91, -35, -3, 33, -75, -41, 82, -44, 14, 44, -137, -75, 139, 24, 37, 30, 46, 37, -25, -25, 28, 61, -3, 3, 0, -47, -73, -18, 20, -74, -38, 23, -35, 46, 25, -16, 61, 47, -16, 51, 34, -61, -9, -33, 95, 9, 36, 9, -5, -59, -114, -6, -9, 17, 2, 27, -2, -3, -93, -74, 33], [-4, 32, -14, 35, -13, -81, 49, 6, 8, -21, 128, -34, -19, 68, -38, 15, -6, 10, -42, -67, -67, -76, 41, -33, 20, 3, -50, 108, 38, -1, -54, -31, 63, -47, -6, -4, 25, -36, -13, -29, 42, 61, -25, -60, 53, -78, -120, -45, -13, -90, -58, 39, 41, -56, 52, 14, -13, -35, -14, -41, 61, -21, 26, 103, -68, -51, 29, 4, 24, 1, 37, -90, 32, 74, 13, -63, -14, -90, 35, 73, -20, -22, -80, -70, -31, 33, -103, -89, 74, -11, 44, -40, -2, 10, -10, -112, 68, -25, 23, -30, -60, -1, 1, 3, 3, 37, 8, -48, -45, 5, -84, 21, 105, 21, 67, 77, 36, 14, 1, -20, -7, -13, -49, -46, -55, 43, -54, -30, 20, 50, -53, -57, 19, 10, -55, -51, -11, 55, 31, 36, 80, -16, 141, -89, 41, 108, 55, -55, 39, -45, -43, 19, -7, -51, 0, 5, 28, -11, 4, 59, 47, -76, -51, 120, -15, -67, -119, 4, -84, 5, -58, -2, -1, 48, -12, 84, 55, -81, 12, 71, -71, 17, 11, 81, -121, 12, 97, -71, -14, -44, -29, -40, -63, -137, -114, 21, -120, 11, -24, -75, 32, 3, 35, -11, -68, -20, -32, 13, 7, -64, 22, 51, -11, -83, -79, -83, 64, 23, -42, -82, 17, -75, -19, 95, -5, 78, 66, -44, 6, -39, 38, -47, 63, -42, -28, -8, 63, 28, 41, -26, 2, -96, -88, -67, 23, 31, -76, -25, 11, 48, -181, 50, -32, -148, -45, 49, -59, 87, 22, 27, 0, 68, -71, -40, -46, 33, 70, 136, -56, 8, -85, -78, 58, 62, 88, -14, 48, -1, 1, -6, 4, 27, -15, 52, -38, 21, 44, 45, -55, -52, -32, 84, -45, -59, 30, 37, 27, -18, 22, 0, 46, 12, 12, -23, -14, 20, 69, 91, 17, 76, -82, 77, -8, 10, -46, 72, -8, 21, -3, 58, -52, 15, 22, -6, -85, -131, 17, -113, -143, 34, 23, -21, 24, 13, -74, 53, 42, 57, -62, -1, -71, 16, -67, -29, -21, 4, -16, 78, -75, -3, 22, -5, 8, -116, 23, 13, 43, -66, -2, -53, 82, 53, 43, 14, -128, 29, -16, -60, 12, -41, -36, 99, 59, 76, 2, -52, -11, 11, 78, -16, 24, -6, -16, 19, 52, -7, 43, 83, 43, -118, -3, 70, -82, -43, -63, -4, 38, 15, -22, 101, 23, -120, 70, 23, 84, 190, 24, 10, 31, -70, 73, 8, 9, 35, 10, -106, -35, 5, 14, -45, 52, -128, 28, 53, 43, -22, 94, -50, 3, -24, -27, -73, -48, 30, -15, -24, 65, 4, -31, -42, -67, -108, 54, -48, 95, -23, 14, 33, 46, -66, 28, 108, 61, -51, -89, 53, 32, 34, 11, -39, 13, 51, 44, 42, -52, -44, 111, -18, 69, 28, -24, 95, 34, 26, 27, 89, -52, -7, 117, -49, 10, -20, 12, 182, -16, -51, -50, 88, 25, -115, 15, -10, 43, -22, -75, 33, 60, 60, 22, -39, -79, -73, 29, -20, 22, 18, 6, 24, -78, -62, -84, 55], [56, 5, 8, 43, -124, 35, -67, -41, 2, -11, -23, 2, -45, -42, -38, -2, -53, -34, 15, 46, -79, -45, 31, -34, 8, 107, -97, 21, 75, 33, -6, -35, 30, 40, 20, -44, 40, 3, -12, 6, -6, -138, 32, 22, -1, 19, 3, 30, 77, -15, 91, -5, -17, 46, 26, -14, 49, 85, 22, 11, -10, -113, 64, -76, 89, 27, 5, -73, -82, 30, 25, -96, 41, -52, 29, 4, -103, -117, 99, 45, 53, 42, 12, -26, 36, 27, 16, 3, 106, 32, -59, -3, -18, 38, -13, -30, -68, 69, 65, 32, 41, -59, -3, 61, 14, 16, 36, 41, 68, -120, 90, 65, 12, 86, 21, 63, 12, 14, -92, 44, 19, 1, -15, -52, -76, 57, -2, -44, 0, -46, -85, -24, 113, 19, 15, -48, -60, -91, 12, 63, -82, 5, 32, -14, -10, -27, -70, 52, 40, 40, -111, 31, 10, -55, 73, -38, 147, -64, 41, 13, 81, 45, -56, 141, 20, 80, 6, 7, 17, -38, 18, 32, -28, 32, -5, 83, 7, 108, 90, -122, -15, -33, 87, -65, 63, 28, 32, -30, -54, 23, -56, 88, -78, -43, -23, 56, 45, -71, 33, -29, 27, 89, 42, 4, 37, 76, -54, -32, -97, -20, -59, 1, 50, -39, -8, 12, -97, 102, 91, 72, 132, -11, -33, 5, -62, 7, -14, 113, -36, 65, -39, 62, -70, -13, 76, 42, -2, -1, 10, 92, -54, 32, -20, 40, 87, -55, 69, 0, 66, -124, -3, -88, 14, 7, -13, 29, -51, -55, -101, 14, -15, -1, -26, -19, 26, 50, 87, -4, -85, -50, 4, -15, -158, 17, 34, -90, -27, 3, -106, -17, -37, -56, -64, -18, -73, -37, -54, 82, -48, -13, 60, -19, -12, -5, 6, 122, 59, -25, -37, -53, 41, 11, -23, -35, -37, 42, 69, -96, -68, -35, -9, -42, -22, 43, 71, 12, -31, -6, 8, -37, -29, 1, -89, -20, 79, -52, 33, -73, -11, 5, -39, 121, -39, -54, -36, 41, -60, -44, -67, -59, -9, 23, 26, 89, -47, 11, -21, 40, 28, -9, 57, 4, -96, 66, 19, 58, -19, 109, 18, -43, 28, -104, 7, 36, 38, -72, -13, -52, 89, 26, 65, 27, 16, -11, -90, 53, -12, 0, -24, -17, 25, -74, -16, -12, -26, -59, -147, -66, 61, 29, 24, -48, 57, 37, -90, -55, -37, -4, -78, 7, 80, -34, -31, 13, -26, 20, -39, 22, -1, 8, 22, 39, -21, -88, -13, -112, -72, 22, -71, -65, -5, -4, 63, -45, 4, -11, -34, -20, -42, 86, -39, -81, -28, -3, -9, 77, 2, 63, 30, -9, -56, 8, -68, 0, -57, 27, -83, 88, 19, 82, -67, 96, 24, 26, 27, 42, -22, 4, -96, 34, 57, 62, -56, 100, 23, 151, -19, 72, -13, 12, 22, 44, -76, -30, 0, -59, 69, 2, 40, 20, 72, -60, -42, -29, 9, 66, 27, 60, 11, 10, 4, -46, 47, -76, -11, -10, 80, -67, -23, -27, 35, -75, 37, -72, 55, 44, -31, 26, 11, 59, -79, 61], [-37, 5, -111, 42, -11, 48, -48, 0, 85, -57, 5, 43, 0, 34, 24, -20, -2, -24, 44, -100, -44, -70, -33, -10, 19, -30, 3, 23, -9, -12, -102, -83, -21, -29, 31, -50, -65, -18, -43, -42, 15, -91, 53, -5, -23, -9, -26, 26, 40, 3, 52, -111, 37, -14, 75, -10, -65, 52, -87, -18, -43, 2, -76, 24, 51, 44, 27, 48, -67, 81, -20, 26, -9, -140, -20, -58, -61, 134, -42, 91, -18, 65, 91, 7, 29, 38, 32, 5, -165, 21, 114, -50, 13, -67, 83, -68, 39, -53, -38, -9, 10, -37, 25, 43, 4, 14, -18, 23, 57, 91, -27, 60, 59, 27, 94, 88, -24, -34, 26, 95, -49, -24, -30, -17, 40, 44, 20, 20, -77, 51, 23, 16, 106, -65, 59, -34, 22, -6, 93, -50, -16, -17, 38, -63, 83, -33, 89, 21, -27, -30, -66, -55, 31, 6, 101, -84, -81, -8, 42, -55, -103, 4, -25, -86, -23, 33, -21, -33, -16, -25, -28, 70, 7, 96, -58, -109, 9, -46, -15, 9, 38, 61, -75, -45, -10, -46, 51, -76, -38, -34, -32, 3, -1, -21, 10, 22, -39, -104, 79, 3, 57, 138, 26, 15, 12, -11, 39, -3, 63, 31, -13, 20, -52, 10, 0, 34, 31, -16, 2, 34, 7, -34, -64, 1, -7, -28, -13, 52, 0, -80, -69, -19, 35, 81, -23, 67, 38, 91, 4, 6, 76, -24, -31, -65, -45, -14, -4, -85, -22, -41, 38, -39, 0, -29, -69, -105, -82, -30, 48, 19, 29, 22, -47, 45, 12, 11, -65, 43, 8, 84, -4, -56, -20, 33, 0, -136, 36, -95, -113, -31, 15, 42, -6, 95, -26, -36, -2, -87, 12, 6, 53, -48, -3, -51, 30, 97, -9, 33, -35, -3, -25, -117, 8, 69, 7, -48, -20, 92, -35, 97, -46, -50, 34, -53, 40, 43, -51, 9, 30, 64, 17, 9, 28, 40, 6, -33, -19, 53, 114, 78, -24, 31, 88, 8, -21, 25, 21, -43, -4, 92, -55, 22, 8, -27, 52, -49, 13, 3, -1, -66, 14, 35, -79, 54, -18, 38, 29, -28, 2, 34, -38, 97, -31, 54, -30, 31, -11, 38, 19, -6, -45, -4, -65, 66, 3, -54, -55, 85, -22, -10, -52, -24, 62, -21, 50, -4, -92, 11, -7, 145, 65, 40, 25, -3, -54, -29, -40, 28, -37, 19, -38, 37, -17, 4, 44, 8, 102, -67, 36, -61, 44, 50, -97, 77, -7, -120, -16, 33, -96, 1, 25, 43, 31, -92, -31, -85, -95, 11, 46, 25, 51, -53, -94, -28, -35, -26, -7, 16, -33, -26, -41, -56, 89, 59, 59, 36, 70, -90, 67, -54, 6, 62, -69, 103, 32, -34, 44, 26, -31, 41, 40, 18, 108, 58, -78, 21, -37, 124, 60, -74, -140, -14, 57, -64, -48, 25, -79, 1, -4, -38, -70, -16, -72, -83, 37, 20, 21, -30, -21, -59, 17, -19, 63, -19, -46, -40, -129, 16, 90, 17, -22, 78, 39, -41, -14, 38, -75, -7, 54, 99, -84, -15], [112, 40, 37, 17, 48, 67, -9, -55, -70, -45, 51, 10, 115, 38, -75, 30, -59, -38, 9, 3, 70, 2, -34, 5, -37, -32, 78, 23, 11, 39, -25, -9, 83, 76, -21, -32, 35, 30, -34, -35, 10, 0, 106, -37, 101, -35, 22, 31, 83, -25, 46, -22, 29, -66, -38, -9, 58, -77, -51, 31, -71, -17, 125, -58, 64, -26, -43, -96, 81, 49, 57, -24, 0, -28, -2, 44, -52, 79, 20, -75, 14, 21, -56, 16, -48, -59, 21, -19, -49, -6, 64, -18, 36, 29, 32, 16, 27, 18, -53, -109, 10, -75, 44, 59, -58, -32, -5, 101, -4, 87, 89, -8, -40, -67, -15, -42, -29, -159, 36, 54, 34, -39, 34, -22, -36, 2, -33, 47, -48, -17, 15, -34, 34, -125, -118, -10, 8, 104, 6, -21, -92, -32, 66, -38, 27, 38, -8, 71, 75, -4, -23, -40, 2, -9, -45, -18, 29, 26, -52, -18, -69, -2, 53, -7, -43, 8, 61, 17, 107, -77, -51, 3, -74, 75, 7, 8, 32, 17, -8, -62, -22, 117, 56, -78, -40, -79, 73, -50, -42, -16, -6, 114, -52, 31, -14, 34, -34, 158, 81, -92, 21, -135, 6, -120, -66, 28, -42, -65, 92, -46, -17, 8, -20, -28, -25, 6, -7, -22, -12, 2, 2, -59, 70, 32, 102, -11, 69, 77, 45, -102, -65, -64, 34, 91, -2, -27, -20, 58, -1, 52, 104, 68, 32, -73, -129, -15, 12, -11, 19, 8, 69, -39, -26, -15, -70, 107, -37, 60, -116, 33, 116, -30, 91, 51, 31, -39, 57, -91, 2, -11, -46, 58, 56, 70, 81, -26, 25, -59, 113, 34, -33, -60, 28, 11, -12, -95, -32, -52, 66, 4, 147, -24, 82, -5, 69, -44, -35, 121, -63, -1, 45, -84, -75, 16, 26, -59, -7, -8, 7, 38, -40, -40, -54, 10, -16, 32, 17, -62, -9, -36, 117, -4, -12, -108, -32, 50, -72, 11, -5, 95, 28, 25, 8, 19, 9, 71, 20, -58, 45, -83, 52, -4, 5, 50, 5, -33, 83, -85, 16, -55, 17, -23, 24, 30, 95, -89, 20, -28, -64, -118, 36, -112, 28, -65, -8, -104, 95, 104, 31, 40, -44, -14, 53, 4, 30, -84, 5, -52, -70, 39, -38, -103, -27, 91, 8, 33, 15, -28, 16, 39, 85, 28, -74, 36, -10, 23, -111, 11, -60, -5, 110, -38, 36, -26, 29, 42, 34, -1, -40, 7, 16, 5, 55, -80, 9, 29, -12, -28, -53, -39, 76, 126, -81, 145, -50, -79, 53, 155, -52, 23, 62, 0, -45, 52, 21, 46, 3, 105, 6, -10, 24, 31, -91, -37, 60, -43, -43, 40, -74, -70, -111, -35, -4, -1, -16, 85, -19, 63, 20, 21, 27, -64, 120, 75, -91, -99, -23, 21, 25, -16, -52, -98, -27, -31, -5, -51, -11, 24, -9, 4, -55, -77, -5, 2, -19, 4, 1, 81, -34, -1, 46, -7, -2, -38, -41, -42, 43, 63, 41, -61, 50, -5, -52, -42, 121, -14, 50, -49, 89, -3, 11, -75], [-69, -12, 94, -85, 59, 18, -18, -56, 33, -15, -19, 0, -20, -9, 43, -37, -15, -10, 32, -1, 28, 23, 67, -84, 34, -121, -46, -148, -6, 29, -75, -12, 17, 27, -1, -6, 5, 28, 26, 26, 5, 64, 96, 36, -43, -7, 29, -3, 29, -42, 52, 8, 25, 63, 75, -49, 5, 39, -25, 27, -95, -20, -60, 7, -15, -70, -2, -26, -15, -70, 114, -15, -44, -45, -27, 30, -34, -62, -22, 63, 56, 31, 9, -42, 43, -18, -47, -23, 55, -8, -60, 53, -49, 9, 43, 21, -12, -81, -15, -15, -60, 103, 29, 28, 105, 114, -115, 12, 22, 53, -10, -80, 72, -15, 47, 83, 117, 54, -44, 24, 2, -6, 5, 24, -48, 58, 24, 14, 74, -55, -21, -11, -71, -19, -23, 89, 5, 2, 69, 48, 22, -79, -50, -2, 5, 35, -33, -38, -6, -21, -40, -73, -120, -20, 46, 78, -68, 40, -23, -53, -55, -106, -22, -4, -31, -56, -58, -47, -74, -34, -22, -52, -24, -16, -17, -4, -6, -38, -1, 9, -28, -104, 22, 65, -31, -58, -30, 26, -124, -56, -80, -53, -98, 26, -26, 27, -33, 0, -87, 125, -25, 77, 44, -107, -24, 43, 49, 46, 56, 120, 42, 24, -60, 52, -40, -101, 41, 26, 131, 37, 109, 43, -6, 8, 32, -71, -60, 58, -63, -25, 31, 20, -54, 10, 18, -38, -21, 18, -2, 52, -33, -46, 38, 7, 38, -21, -46, -83, -43, -118, 89, -11, -97, -6, 54, 13, 102, -43, 53, -88, -11, -39, -75, -43, -17, 43, 41, 11, -38, -40, 85, -68, 57, -31, -45, 51, -9, -18, -25, -71, 36, -47, -46, 31, -24, -30, -44, 3, -83, 57, 19, -6, -14, -137, -59, -7, 76, -93, 18, 49, -58, -17, -72, -104, -39, 36, 13, -95, 138, -6, -42, 24, -26, 7, 104, 22, 6, 82, 14, -15, 4, 101, 94, -33, -94, -77, 17, -20, -61, -37, 52, -7, -6, -9, -31, -63, -79, 5, 22, 119, -21, -6, 11, 77, 69, -73, 5, 34, -80, -53, 27, -15, 20, 24, 36, 39, 51, 24, -20, 56, 96, 12, 23, 58, -86, 14, 46, -10, -19, -32, 24, -49, 68, 31, -46, 6, -66, 18, -22, 17, 15, 45, -28, 29, -89, -11, -5, 6, -20, 44, -46, -30, 1, 77, 32, 49, 66, 17, 38, -39, 71, 2, -28, -73, -37, -107, 26, -15, -48, 21, 67, -12, 39, 26, 61, -49, -57, 24, 53, -28, -36, 37, 42, -8, 106, 21, -155, 4, -41, -73, 28, -6, 67, -18, -7, -88, -39, -15, -39, -101, 28, -29, 50, 30, 24, -9, 16, 51, -3, -33, -31, -47, -37, 28, 78, -34, 21, 31, 9, 15, -69, -51, 25, 24, -50, 50, 19, -66, 28, -36, 29, -40, 26, -47, 69, 68, -77, -9, 61, 77, -75, 30, -17, 93, -30, -70, -74, -115, -52, 33, -55, -68, 4, -33, 62, 29, 52, 30, -65, -77, -12, 13, -112, 46, 146, -32, -53, -94, 6, 37, -29, -3], [47, 37, 16, -26, -12, -10, 23, 0, -77, -31, -4, -43, -81, 88, 0, 83, 85, -10, -72, -11, 32, -87, 100, -56, 49, 14, 37, -114, -68, 87, -18, -10, 53, 7, -124, 36, -61, -84, -59, -81, 82, 72, -51, 2, 45, -67, 21, -44, 37, 55, 10, 50, -6, 79, -57, 38, -57, 88, -97, -28, 20, -94, -9, 4, 60, 47, 77, 1, 11, 89, 34, 28, 33, -33, -74, -16, -19, -87, 59, -97, 32, -13, 91, -65, -29, -28, -3, -8, 16, -12, 22, 170, 40, -44, -6, -65, 26, -15, 89, -39, -53, -70, 19, -29, -14, -8, -46, 59, 33, -172, -38, -15, -12, -102, -65, -56, 23, -86, -61, -1, -86, -13, -112, 6, 2, -61, -137, 46, -25, 9, -5, 28, 3, 22, 37, 9, 84, -53, 47, 53, -82, 13, 9, -55, -21, 115, -19, 77, 82, 17, -10, -11, -19, -1, -18, -8, 24, 37, -40, 50, 28, 27, -15, -55, -16, -115, -14, -38, 5, -2, 49, -4, 54, -22, -18, 2, 52, 30, 19, 75, -42, -50, -34, 23, -3, -30, 25, -57, -8, 0, 54, -142, 59, -58, 30, 1, -33, -51, -1, -42, -17, 41, 38, -75, -38, -20, 6, 57, 15, -94, -14, -16, -28, -21, -86, -29, -21, -26, 26, 19, -15, -63, -25, 9, -30, -26, 71, 22, 27, 28, 9, 5, 23, 53, 8, 1, -43, -37, 90, 9, -89, -50, -20, -51, -82, -61, 86, -26, 29, 45, 22, 41, 57, 20, 55, 15, -11, -42, -28, -64, -14, 5, -18, -27, 16, -72, -180, -77, 1, -36, 84, -2, 59, 56, 69, 22, -83, -43, -18, -101, -9, -21, 26, -131, 55, 78, -30, 51, -88, 119, -16, 118, 79, 27, -58, -65, 36, 69, -7, 42, 7, 66, -8, 32, 34, -23, 37, -25, 8, -99, -54, -40, 54, 75, -4, -12, 0, 53, -91, 56, 51, 11, -54, 55, -45, -32, -8, -13, -53, 4, 72, -5, -73, 40, 32, -18, -13, 10, 92, 7, -56, 81, -135, -83, -35, 56, 28, -20, 59, 23, -46, -43, 47, -112, 33, 6, -112, -54, 4, 3, -44, 81, 126, -116, 28, -20, 25, 113, -46, -47, -29, -3, 26, 99, 16, 106, -77, 71, -18, -36, -17, -6, 23, -47, 9, -38, 50, 37, -211, -6, 58, 3, 81, 61, 92, 11, 43, 30, 40, -9, -50, 32, 58, -35, 51, 8, 40, -25, -117, -17, -3, -44, -51, -33, 2, 21, 15, 58, 73, 68, -11, -31, 9, -53, -22, -11, 91, -16, 39, -92, -8, 46, 141, 52, 23, -97, -11, 77, 21, -29, -64, 3, 9, 37, 40, -14, 20, 41, 2, -1, 32, -28, -85, -36, -58, -10, 60, -33, 74, -86, -76, -46, -48, -28, -113, 21, 18, -41, 36, 48, 35, 18, 35, 82, -11, -43, -38, 38, 3, 51, -7, -14, -29, -72, 8, 15, 7, -89, 21, -35, -1, -59, -46, -1, -79, 42, 21, -70, 52, 14, 19, -7, 57, -114, -24, -3, 55, 39, 60, -83, -12, 90], [-13, 30, 77, 31, 26, 48, -22, 18, 41, 47, -16, -101, 51, 127, 26, 3, -27, 52, 21, -61, 76, 80, 80, -4, -55, 30, -96, -57, -63, 25, -3, 9, -59, 16, 25, -19, -37, 4, 34, 108, -23, -72, 14, 48, -5, -25, -43, 27, -70, -26, -55, -26, -66, -19, -2, -29, -77, -49, 8, 37, 147, 42, 5, -11, -33, -8, 45, 3, -50, 55, 18, 59, 4, -89, 14, 68, -17, -50, -53, 20, 34, -36, 44, -49, 19, 59, -35, -82, -41, 3, 58, -11, 98, -11, -32, -75, 10, 12, -37, -45, 33, -26, -16, -47, -38, 64, -28, -12, -28, 80, -22, 48, 86, 77, 59, 13, 92, 26, 106, -65, 44, 47, 35, 4, 40, -36, -29, -11, 17, -30, 90, -119, 12, 9, -33, -45, -6, -71, -1, -59, 8, 42, -17, -6, -53, 40, -35, -35, 7, -13, -29, 33, 5, 72, -33, 85, 5, -3, 8, -27, 100, -1, 43, 53, -126, 1, 38, -61, 2, -66, 74, 21, -26, -37, 26, -21, 8, 14, -31, -33, -5, 42, 31, 58, 88, -61, -51, -32, -32, 2, -10, -24, 30, 27, 111, 1, 88, -48, 52, 29, 40, -98, -35, -41, -26, 11, 7, -64, 102, -60, -132, 39, -54, 103, 15, 20, 29, -73, -38, 23, -48, 125, 81, -27, -101, -39, 83, 12, 22, -17, -26, -6, -21, -38, -17, 3, -25, 5, -74, -94, -90, -30, 12, -35, 43, 26, 103, 70, -1, -22, 45, -15, 109, 33, 1, 22, 39, 59, -32, -37, -58, 1, 